{"learner":{"attributes":{"best_iteration":"499","best_score":"0.5320009476715936","scikit_learn":"{\"_estimator_type\": \"classifier\"}"},"feature_names":[],"feature_types":[],"gradient_booster":{"model":{"cats":{"enc":[],"feature_segments":[],"sorted_idx":[]},"gbtree_model_param":{"num_parallel_tree":"1","num_trees":"500"},"iteration_indptr":[0,1,2,3,4,5,6,7,8,9,10,11,12,13,14,15,16,17,18,19,20,21,22,23,24,25,26,27,28,29,30,31,32,33,34,35,36,37,38,39,40,41,42,43,44,45,46,47,48,49,50,51,52,53,54,55,56,57,58,59,60,61,62,63,64,65,66,67,68,69,70,71,72,73,74,75,76,77,78,79,80,81,82,83,84,85,86,87,88,89,90,91,92,93,94,95,96,97,98,99,100,101,102,103,104,105,106,107,108,109,110,111,112,113,114,115,116,117,118,119,120,121,122,123,124,125,126,127,128,129,130,131,132,133,134,135,136,137,138,139,140,141,142,143,144,145,146,147,148,149,150,151,152,153,154,155,156,157,158,159,160,161,162,163,164,165,166,167,168,169,170,171,172,173,174,175,176,177,178,179,180,181,182,183,184,185,186,187,188,189,190,191,192,193,194,195,196,197,198,199,200,201,202,203,204,205,206,207,208,209,210,211,212,213,214,215,216,217,218,219,220,221,222,223,224,225,226,227,228,229,230,231,232,233,234,235,236,237,238,239,240,241,242,243,244,245,246,247,248,249,250,251,252,253,254,255,256,257,258,259,260,261,262,263,264,265,266,267,268,269,270,271,272,273,274,275,276,277,278,279,280,281,282,283,284,285,286,287,288,289,290,291,292,293,294,295,296,297,298,299,300,301,302,303,304,305,306,307,308,309,310,311,312,313,314,315,316,317,318,319,320,321,322,323,324,325,326,327,328,329,330,331,332,333,334,335,336,337,338,339,340,341,342,343,344,345,346,347,348,349,350,351,352,353,354,355,356,357,358,359,360,361,362,363,364,365,366,367,368,369,370,371,372,373,374,375,376,377,378,379,380,381,382,383,384,385,386,387,388,389,390,391,392,393,394,395,396,397,398,399,400,401,402,403,404,405,406,407,408,409,410,411,412,413,414,415,416,417,418,419,420,421,422,423,424,425,426,427,428,429,430,431,432,433,434,435,436,437,438,439,440,441,442,443,444,445,446,447,448,449,450,451,452,453,454,455,456,457,458,459,460,461,462,463,464,465,466,467,468,469,470,471,472,473,474,475,476,477,478,479,480,481,482,483,484,485,486,487,488,489,490,491,492,493,494,495,496,497,498,499,500],"tree_info":[0,0,0,0,0,0,0,0,0,0,0,0,0,0,0,0,0,0,0,0,0,0,0,0,0,0,0,0,0,0,0,0,0,0,0,0,0,0,0,0,0,0,0,0,0,0,0,0,0,0,0,0,0,0,0,0,0,0,0,0,0,0,0,0,0,0,0,0,0,0,0,0,0,0,0,0,0,0,0,0,0,0,0,0,0,0,0,0,0,0,0,0,0,0,0,0,0,0,0,0,0,0,0,0,0,0,0,0,0,0,0,0,0,0,0,0,0,0,0,0,0,0,0,0,0,0,0,0,0,0,0,0,0,0,0,0,0,0,0,0,0,0,0,0,0,0,0,0,0,0,0,0,0,0,0,0,0,0,0,0,0,0,0,0,0,0,0,0,0,0,0,0,0,0,0,0,0,0,0,0,0,0,0,0,0,0,0,0,0,0,0,0,0,0,0,0,0,0,0,0,0,0,0,0,0,0,0,0,0,0,0,0,0,0,0,0,0,0,0,0,0,0,0,0,0,0,0,0,0,0,0,0,0,0,0,0,0,0,0,0,0,0,0,0,0,0,0,0,0,0,0,0,0,0,0,0,0,0,0,0,0,0,0,0,0,0,0,0,0,0,0,0,0,0,0,0,0,0,0,0,0,0,0,0,0,0,0,0,0,0,0,0,0,0,0,0,0,0,0,0,0,0,0,0,0,0,0,0,0,0,0,0,0,0,0,0,0,0,0,0,0,0,0,0,0,0,0,0,0,0,0,0,0,0,0,0,0,0,0,0,0,0,0,0,0,0,0,0,0,0,0,0,0,0,0,0,0,0,0,0,0,0,0,0,0,0,0,0,0,0,0,0,0,0,0,0,0,0,0,0,0,0,0,0,0,0,0,0,0,0,0,0,0,0,0,0,0,0,0,0,0,0,0,0,0,0,0,0,0,0,0,0,0,0,0,0,0,0,0,0,0,0,0,0,0,0,0,0,0,0,0,0,0,0,0,0,0,0,0,0,0,0,0,0,0,0,0,0,0,0,0,0,0,0,0,0,0,0,0,0,0,0,0,0,0,0,0,0,0,0,0,0,0,0,0,0,0,0,0,0,0,0,0,0,0,0,0,0,0,0,0,0,0,0,0,0,0,0,0,0],"trees":[{"base_weights":[-5.308741E-5,2.9562995E-1,-4.8566607E-1,6.307565E-1,1.034872E-1,-3.5015813E-1,-1.1834E0,6.686995E-1,-3.1564593E-1,1.6387005E-1,-7.562974E-1,-2.1583728E-1,-5.736437E-1,-5.208844E-1,-1.3172754E0,9.3820417E-1,5.357433E-1,7.319232E-2,-8.041767E-1,2.8803968E-1,-2.8528579E-2,-1.5606534E-1,-1.0434039E0,-8.8570017E-1,-1.7616665E-1,-1.2058744E0,-5.364838E-1,-8.2133025E-1,-3.8820508E-1,-1.1051825E0,-1.6224409E0,1.2887311E0,8.7357914E-1,6.332698E-1,3.204015E-1,2.5764358E-1,-4.6016768E-1,-5.126113E-1,-1.2906308E0,5.3867984E-1,7.91039E-2,1.3847421E-1,-2.5856268E-1,3.0427825E-1,-4.0452567E-1,-2.4591544E-1,-1.164664E0,-1.4149363E0,-4.0217665E-1,-2.6254186E-1,-2.4627256E-3,-1.5989426E0,-7.245942E-1,-4.5929617E-1,-7.699751E-1,-6.6226506E-1,-1.1515601E0,-5.7363886E-1,-1.6148102E-1,-1.2980974E0,-8.413317E-1,-1.5030122E0,-1.8147866E0,2.1282544E-2,6.577519E-2,7.3679658E-3,4.5036163E-2,-8.840576E-3,3.3455517E-2,2.5491042E-2,7.765334E-3,3.0184392E-2,2.6352406E-3,-1.0129463E-2,-3.11428E-2,-3.1511612E-2,9.7617125E-3,-7.0263416E-2,-4.520015E-2,-1.1340501E-2,2.9053897E-2,1.5852647E-2,-3.3900102E-3,-2.7959913E-2,9.145323E-3,4.918349E-3,-1.5989821E-2,2.7301524E-2,-1.4434196E-2,-1.4384761E-2,-3.81889E-2,-1.996006E-2,9.135182E-3,-4.6075378E-2,-7.481425E-2,-7.34536E-2,-2.9000515E-2,-4.0754076E-2,-1.4472067E-2,-1.0419569E-2,-2.5545498E-2,2.0074937E-3,-1.2021861E-2,-8.6849965E-2,-7.325954E-2,-5.9848586E-3,-4.14563E-2,-1.917316E-2,-3.4095418E-2,-2.2673972E-2,-4.2847782E-2,-1.1697973E-2,-3.7710335E-2,-6.5939926E-2,-4.8738353E-2,6.8947213E-4,-3.2746445E-2,-4.0113605E-3,-3.811675E-2,-6.746041E-2,-2.804753E-2,-2.7857944E-2,-5.0175186E-2,-8.4327295E-2,-6.5469496E-2,-8.583348E-2,-9.426524E-2],"categories":[],"categories_nodes":[],"categories_segments":[],"categories_sizes":[],"default_left":[0,0,0,0,0,0,0,0,0,0,0,0,0,0,0,0,0,0,0,0,0,0,0,0,0,0,0,0,0,0,0,0,0,0,0,0,0,0,0,0,0,0,0,0,0,0,0,0,0,0,0,0,0,0,0,0,0,0,0,0,0,0,0,0,0,0,0,0,0,0,0,0,0,0,0,0,0,0,0,0,0,0,0,0,0,0,0,0,0,0,0,0,0,0,0,0,0,0,0,0,0,0,0,0,0,0,0,0,0,0,0,0,0,0,0,0,0,0,0,0,0,0,0,0,0,0,0],"id":0,"left_children":[1,3,5,7,9,11,13,15,17,19,21,23,25,27,29,31,33,35,37,39,41,43,45,47,49,51,53,55,57,59,61,63,65,67,69,71,73,75,77,79,81,83,85,87,89,91,93,95,97,99,101,103,105,107,109,111,113,115,117,119,121,123,125,-1,-1,-1,-1,-1,-1,-1,-1,-1,-1,-1,-1,-1,-1,-1,-1,-1,-1,-1,-1,-1,-1,-1,-1,-1,-1,-1,-1,-1,-1,-1,-1,-1,-1,-1,-1,-1,-1,-1,-1,-1,-1,-1,-1,-1,-1,-1,-1,-1,-1,-1,-1,-1,-1,-1,-1,-1,-1,-1,-1,-1,-1,-1,-1],"loss_changes":[2.370493E4,6.6073193E3,5.9068613E3,1.3429531E3,3.386102E3,1.5704424E3,9.0048145E2,1.2877256E3,2.7398602E2,1.4558927E3,7.374148E2,8.682864E2,4.6077246E2,6.7832214E1,5.4523047E2,2.6788965E2,5.0545215E2,7.920124E1,8.999417E1,1.9395415E3,9.183475E2,1.5865144E2,2.796709E2,4.669402E2,4.6292926E2,2.0494531E2,3.339961E2,2.669992E1,4.9845963E1,2.5286963E2,7.683008E1,4.2107178E1,1.9758496E2,4.81229E2,2.3468872E2,4.2372593E1,8.544842E0,3.3534157E1,9.316956E0,5.466221E2,7.061466E2,4.2944675E2,2.197948E2,6.988546E1,3.757982E1,2.5260292E1,2.0123022E2,3.8554565E1,4.4269333E1,2.770459E2,1.0393256E2,8.513428E0,3.09859E1,2.3514966E2,1.2645532E2,1.3811295E1,3.699646E0,3.1191833E1,2.6097618E1,1.0776123E2,9.668469E1,7.3927734E1,5.9091797E0,0E0,0E0,0E0,0E0,0E0,0E0,0E0,0E0,0E0,0E0,0E0,0E0,0E0,0E0,0E0,0E0,0E0,0E0,0E0,0E0,0E0,0E0,0E0,0E0,0E0,0E0,0E0,0E0,0E0,0E0,0E0,0E0,0E0,0E0,0E0,0E0,0E0,0E0,0E0,0E0,0E0,0E0,0E0,0E0,0E0,0E0,0E0,0E0,0E0,0E0,0E0,0E0,0E0,0E0,0E0,0E0,0E0,0E0,0E0,0E0,0E0,0E0,0E0,0E0],"parents":[2147483647,0,0,1,1,2,2,3,3,4,4,5,5,6,6,7,7,8,8,9,9,10,10,11,11,12,12,13,13,14,14,15,15,16,16,17,17,18,18,19,19,20,20,21,21,22,22,23,23,24,24,25,25,26,26,27,27,28,28,29,29,30,30,31,31,32,32,33,33,34,34,35,35,36,36,37,37,38,38,39,39,40,40,41,41,42,42,43,43,44,44,45,45,46,46,47,47,48,48,49,49,50,50,51,51,52,52,53,53,54,54,55,55,56,56,57,57,58,58,59,59,60,60,61,61,62,62],"right_children":[2,4,6,8,10,12,14,16,18,20,22,24,26,28,30,32,34,36,38,40,42,44,46,48,50,52,54,56,58,60,62,64,66,68,70,72,74,76,78,80,82,84,86,88,90,92,94,96,98,100,102,104,106,108,110,112,114,116,118,120,122,124,126,-1,-1,-1,-1,-1,-1,-1,-1,-1,-1,-1,-1,-1,-1,-1,-1,-1,-1,-1,-1,-1,-1,-1,-1,-1,-1,-1,-1,-1,-1,-1,-1,-1,-1,-1,-1,-1,-1,-1,-1,-1,-1,-1,-1,-1,-1,-1,-1,-1,-1,-1,-1,-1,-1,-1,-1,-1,-1,-1,-1,-1,-1,-1,-1],"split_conditions":[2.5145018E-1,1.7161244E-1,8.206907E-1,1.0304123E0,9.6668774E-1,3.4574467E-1,1E0,1.2657677E-1,2E0,2E0,2E0,-1.0411192E0,-1.0168889E0,6.351351E-1,1.1736052E0,8.339394E-2,1.35E0,1.3087319E0,1.3087319E0,1.21E0,2.3993382E-1,1E0,1E0,1E0,5.801749E-1,1E0,4.1918105E-1,1.1736052E0,2E0,2E0,1.4647754E0,-1.0959921E0,-1.0959921E0,-1.0959921E0,9.42E1,1E0,1E0,8.7431693E-1,4E0,-1.1272922E0,9.35E1,-1.0168889E0,3E0,1.2560866E0,1.2560866E0,5.7833934E-1,1.2560866E0,7E-1,-1.3908105E0,4.726634E-1,5.3762686E-1,-1.2508292E0,5E0,4.1096818E-1,1E0,5.5E0,2E0,1E0,1.4647754E0,7.9E-1,3.1493506E-1,2E0,1.6120034E0,2.1282544E-2,6.577519E-2,7.3679658E-3,4.5036163E-2,-8.840576E-3,3.3455517E-2,2.5491042E-2,7.765334E-3,3.0184392E-2,2.6352406E-3,-1.0129463E-2,-3.11428E-2,-3.1511612E-2,9.7617125E-3,-7.0263416E-2,-4.520015E-2,-1.1340501E-2,2.9053897E-2,1.5852647E-2,-3.3900102E-3,-2.7959913E-2,9.145323E-3,4.918349E-3,-1.5989821E-2,2.7301524E-2,-1.4434196E-2,-1.4384761E-2,-3.81889E-2,-1.996006E-2,9.135182E-3,-4.6075378E-2,-7.481425E-2,-7.34536E-2,-2.9000515E-2,-4.0754076E-2,-1.4472067E-2,-1.0419569E-2,-2.5545498E-2,2.0074937E-3,-1.2021861E-2,-8.6849965E-2,-7.325954E-2,-5.9848586E-3,-4.14563E-2,-1.917316E-2,-3.4095418E-2,-2.2673972E-2,-4.2847782E-2,-1.1697973E-2,-3.7710335E-2,-6.5939926E-2,-4.8738353E-2,6.8947213E-4,-3.2746445E-2,-4.0113605E-3,-3.811675E-2,-6.746041E-2,-2.804753E-2,-2.7857944E-2,-5.0175186E-2,-8.4327295E-2,-6.5469496E-2,-8.583348E-2,-9.426524E-2],"split_indices":[78,78,7,7,7,78,29,78,9,9,9,7,7,31,7,78,3,7,7,3,71,28,29,29,79,29,7,7,12,12,7,7,7,7,0,28,28,33,16,7,0,7,9,7,7,79,7,3,7,7,7,7,9,78,29,5,12,28,7,3,78,12,7,0,0,0,0,0,0,0,0,0,0,0,0,0,0,0,0,0,0,0,0,0,0,0,0,0,0,0,0,0,0,0,0,0,0,0,0,0,0,0,0,0,0,0,0,0,0,0,0,0,0,0,0,0,0,0,0,0,0,0,0,0,0,0,0],"split_type":[0,0,0,0,0,0,0,0,0,0,0,0,0,0,0,0,0,0,0,0,0,0,0,0,0,0,0,0,0,0,0,0,0,0,0,0,0,0,0,0,0,0,0,0,0,0,0,0,0,0,0,0,0,0,0,0,0,0,0,0,0,0,0,0,0,0,0,0,0,0,0,0,0,0,0,0,0,0,0,0,0,0,0,0,0,0,0,0,0,0,0,0,0,0,0,0,0,0,0,0,0,0,0,0,0,0,0,0,0,0,0,0,0,0,0,0,0,0,0,0,0,0,0,0,0,0,0],"sum_hessian":[1.6508844E5,1.0261063E5,6.247781E4,3.7391613E4,6.521902E4,5.2318465E4,1.0159344E4,3.5950586E4,1.4410295E3,6.094E4,4.2790186E3,3.2679297E4,1.963917E4,1.7086342E3,8.45071E3,1.1874562E4,2.4076023E4,8.0285785E2,6.381717E2,3.7036805E4,2.3903197E4,1.3850148E3,2.894004E3,1.8259353E3,3.0853361E4,1.0884835E3,1.8550686E4,5.218163E2,1.1868179E3,4.9883687E3,3.4623413E3,1.8455168E3,1.0029045E4,1.6569773E4,7.50625E3,5.969368E2,2.0592104E2,4.002989E2,2.3787282E2,1.6837227E4,2.0199578E4,1.3849196E4,1.0054E4,4.8541687E2,8.9959784E2,3.8236215E2,2.5116418E3,8.708397E2,9.5509564E2,2.0606271E4,1.0247089E4,5.9787146E2,4.906121E2,1.3944031E4,4.6066553E3,3.5420715E2,1.6760912E2,6.5201544E2,5.348024E2,2.8792683E3,2.1091006E3,2.1414905E3,1.3208508E3,5.6033894E1,1.7894829E3,3.6158298E2,9.667462E3,7.0187085E2,1.5867902E4,3.4946367E3,4.0116133E3,2.2130766E2,3.7562918E2,8.058268E1,1.25338356E2,3.4335425E2,5.6944633E1,1.814401E2,5.6432724E1,8.833922E2,1.5953834E4,7.7100337E3,1.2489544E4,8.2850336E2,1.3020693E4,1.472168E3,8.581832E3,3.4488535E2,1.4053152E2,6.80196E2,2.1940186E2,2.816906E2,1.00671555E2,1.4512858E3,1.0603561E3,8.171002E2,5.37395E1,2.035055E2,7.5159015E2,1.6919283E4,3.686988E3,8.691574E3,1.5555146E3,2.8830283E2,3.0956863E2,7.260603E1,4.1800607E2,1.0402974E4,3.5410571E3,9.944323E2,3.6122231E3,6.3224377E1,2.909828E2,8.281255E1,8.479657E1,7.936054E1,5.726549E2,4.7209436E2,6.270807E1,2.6917993E3,1.8746896E2,7.679183E2,1.3411823E3,1.0954287E3,1.0460616E3,5.629378E2,7.579131E2],"tree_param":{"num_deleted":"0","num_feature":"80","num_nodes":"127","size_leaf_vector":"1"}},{"base_weights":[1.7578347E-3,3.4650943E-1,-3.7615228E-1,-3.016171E-2,4.8020327E-1,-2.3363598E-1,-1.0527337E0,1.5859523E-1,-2.3629406E-1,7.6912266E-1,3.6568516E-1,2.3859768E-1,-3.268306E-1,-3.337671E-1,-1.1997706E0,2.1292558E-1,-6.6305584E-1,-5.156528E-1,-1.3773763E-1,8.051701E-1,-1.6333275E-1,3.9254785E-1,-5.684604E-1,-5.6925774E-1,2.7443096E-1,-1.022149E0,-2.9120228E-1,-8.083856E-2,-5.5388224E-1,-9.9724805E-1,-1.5186687E0,4.4557548E-1,1.0465747E-1,-3.146386E-1,-9.6835E-1,-5.706567E-1,-4.6895165E-2,1.1826587E-1,-2.3576339E-1,1.0465373E0,7.222654E-1,5.701616E-2,-9.2412215E-1,4.910504E-1,1.9622356E-1,-2.226942E-1,-1.0672808E0,-1.2514918E0,-7.688643E-2,4.2041665E-1,1.3175976E-1,-1.4850352E0,-4.9233857E-1,-1.8066593E-1,-5.139765E-1,2.4058783E-2,-5.768231E-1,-1.3386917E-1,-6.649295E-1,-1.2080462E0,-7.2392136E-1,-1.3983704E0,-1.7121683E0,-1.4620177E-2,2.6002372E-2,1.0534091E-2,-3.761651E-3,-5.6536715E-3,-3.378736E-2,-3.614653E-2,-6.7063525E-2,-1.8241536E-2,-3.5005223E-2,-1.8127035E-2,4.646494E-3,3.952162E-3,2.2768049E-2,-1.5612117E-2,-3.0530262E-4,2.3001027E-3,5.3664226E-2,4.0256836E-2,2.5674477E-2,1.6687235E-2,-2.1720422E-2,-5.814935E-2,-2.219609E-2,2.900446E-2,6.1004213E-3,2.1296313E-2,3.696701E-3,6.469339E-3,-2.1460732E-2,-4.4312857E-2,-7.00038E-2,-7.991097E-2,-5.4515865E-2,-2.3328545E-2,5.012085E-3,3.9139073E-2,1.8510835E-2,9.300452E-4,1.5170018E-2,-8.280499E-2,-6.8959475E-2,-3.104953E-2,-7.857106E-4,-1.9293249E-2,-5.450701E-3,-2.2124086E-2,-3.527288E-2,-1.0657339E-2,1.2104681E-2,-4.7223736E-2,-1.6530115E-2,-1.7744299E-2,4.087634E-3,-4.0571194E-2,-2.1991484E-2,-5.3171337E-2,-6.789292E-2,-5.313635E-2,-3.0585287E-2,-7.997992E-2,-5.9759285E-2,-9.1062576E-2,-8.170829E-2],"categories":[],"categories_nodes":[],"categories_segments":[],"categories_sizes":[],"default_left":[0,0,0,0,0,0,0,0,0,0,0,0,0,0,0,0,0,0,0,0,0,0,0,0,0,0,0,0,0,0,0,0,0,0,0,0,0,0,0,0,0,0,0,0,0,0,0,0,0,0,0,0,0,0,0,0,0,0,0,0,0,0,0,0,0,0,0,0,0,0,0,0,0,0,0,0,0,0,0,0,0,0,0,0,0,0,0,0,0,0,0,0,0,0,0,0,0,0,0,0,0,0,0,0,0,0,0,0,0,0,0,0,0,0,0,0,0,0,0,0,0,0,0,0,0,0,0],"id":1,"left_children":[1,3,5,7,9,11,13,15,17,19,21,23,25,27,29,31,33,35,37,39,41,43,45,47,49,51,53,55,57,59,61,63,65,67,69,71,73,75,77,79,81,83,85,87,89,91,93,95,97,99,101,103,105,107,109,111,113,115,117,119,121,123,125,-1,-1,-1,-1,-1,-1,-1,-1,-1,-1,-1,-1,-1,-1,-1,-1,-1,-1,-1,-1,-1,-1,-1,-1,-1,-1,-1,-1,-1,-1,-1,-1,-1,-1,-1,-1,-1,-1,-1,-1,-1,-1,-1,-1,-1,-1,-1,-1,-1,-1,-1,-1,-1,-1,-1,-1,-1,-1,-1,-1,-1,-1,-1,-1],"loss_changes":[2.1492338E4,4.3442764E3,7.5880557E3,8.7934344E2,2.1062852E3,2.8609658E3,1.4470889E3,5.267809E2,2.97357E2,6.075713E2,1.1444365E3,3.103335E2,1.3446797E3,1.2946219E2,7.326279E2,2.7869983E2,7.7551605E1,7.260248E1,2.00458E2,3.4741113E2,1.12950645E2,8.570542E2,2.1966528E2,1.5288239E2,2.1365033E2,6.481643E2,1.2716982E3,5.6390144E1,5.7914368E1,3.9985254E2,1.00333984E2,1.932846E2,1.4407733E2,2.4912033E1,3.4690094E1,6.69126E1,1.3137887E1,2.9212109E1,1.01443115E2,1.18936035E2,2.2371338E2,7.1289E1,1.6839066E1,9.6974365E2,4.1599475E2,5.490068E1,3.0188599E1,8.9219055E0,1.8378029E1,9.195349E1,1.0081014E2,2.3276611E1,7.573575E1,5.0751392E2,2.341582E2,4.6359955E1,1.681519E1,1.2481344E1,3.2068573E1,8.359766E1,1.1458142E2,1.0957715E2,1.1381348E1,0E0,0E0,0E0,0E0,0E0,0E0,0E0,0E0,0E0,0E0,0E0,0E0,0E0,0E0,0E0,0E0,0E0,0E0,0E0,0E0,0E0,0E0,0E0,0E0,0E0,0E0,0E0,0E0,0E0,0E0,0E0,0E0,0E0,0E0,0E0,0E0,0E0,0E0,0E0,0E0,0E0,0E0,0E0,0E0,0E0,0E0,0E0,0E0,0E0,0E0,0E0,0E0,0E0,0E0,0E0,0E0,0E0,0E0,0E0,0E0,0E0,0E0,0E0,0E0],"parents":[2147483647,0,0,1,1,2,2,3,3,4,4,5,5,6,6,7,7,8,8,9,9,10,10,11,11,12,12,13,13,14,14,15,15,16,16,17,17,18,18,19,19,20,20,21,21,22,22,23,23,24,24,25,25,26,26,27,27,28,28,29,29,30,30,31,31,32,32,33,33,34,34,35,35,36,36,37,37,38,38,39,39,40,40,41,41,42,42,43,43,44,44,45,45,46,46,47,47,48,48,49,49,50,50,51,51,52,52,53,53,54,54,55,55,56,56,57,57,58,58,59,59,60,60,61,61,62,62],"right_children":[2,4,6,8,10,12,14,16,18,20,22,24,26,28,30,32,34,36,38,40,42,44,46,48,50,52,54,56,58,60,62,64,66,68,70,72,74,76,78,80,82,84,86,88,90,92,94,96,98,100,102,104,106,108,110,112,114,116,118,120,122,124,126,-1,-1,-1,-1,-1,-1,-1,-1,-1,-1,-1,-1,-1,-1,-1,-1,-1,-1,-1,-1,-1,-1,-1,-1,-1,-1,-1,-1,-1,-1,-1,-1,-1,-1,-1,-1,-1,-1,-1,-1,-1,-1,-1,-1,-1,-1,-1,-1,-1,-1,-1,-1,-1,-1,-1,-1,-1,-1,-1,-1,-1,-1,-1,-1],"split_conditions":[3E0,7.8E-1,7.941064E-1,1.22E0,1.40286E-1,2.5E-1,1E0,9.6668774E-1,7.188552E-1,1.0304123E0,1.1083732E0,-1.1625911E0,-1.0959921E0,2.969121E-1,1.1736052E0,-9.9E-1,2E0,6E0,9.3E1,9.8148145E-2,1.3755573E0,1.35E0,2E0,1E0,2.1766879E-1,1E0,3.5048577E-1,1.3087319E0,8.6E-1,2E0,1.4647754E0,-1.1272922E0,2.412839E-1,1.2118917E0,1.2560866E0,9.37E1,8E-1,6.6626215E-1,5E0,-1.1625911E0,1.39E0,2E0,9.4E-1,2E0,9.32E1,1E0,1.3755573E0,-1.521654E0,5.3143907E-1,1.547379E-1,2E0,-1.3908105E0,-7.4E-1,1E0,4.1096818E-1,4.9449778E-1,2E0,2E0,4E0,3.2012013E-1,6.3034797E-1,2E0,2E0,-1.4620177E-2,2.6002372E-2,1.0534091E-2,-3.761651E-3,-5.6536715E-3,-3.378736E-2,-3.614653E-2,-6.7063525E-2,-1.8241536E-2,-3.5005223E-2,-1.8127035E-2,4.646494E-3,3.952162E-3,2.2768049E-2,-1.5612117E-2,-3.0530262E-4,2.3001027E-3,5.3664226E-2,4.0256836E-2,2.5674477E-2,1.6687235E-2,-2.1720422E-2,-5.814935E-2,-2.219609E-2,2.900446E-2,6.1004213E-3,2.1296313E-2,3.696701E-3,6.469339E-3,-2.1460732E-2,-4.4312857E-2,-7.00038E-2,-7.991097E-2,-5.4515865E-2,-2.3328545E-2,5.012085E-3,3.9139073E-2,1.8510835E-2,9.300452E-4,1.5170018E-2,-8.280499E-2,-6.8959475E-2,-3.104953E-2,-7.857106E-4,-1.9293249E-2,-5.450701E-3,-2.2124086E-2,-3.527288E-2,-1.0657339E-2,1.2104681E-2,-4.7223736E-2,-1.6530115E-2,-1.7744299E-2,4.087634E-3,-4.0571194E-2,-2.1991484E-2,-5.3171337E-2,-6.789292E-2,-5.313635E-2,-3.0585287E-2,-7.997992E-2,-5.9759285E-2,-9.1062576E-2,-8.170829E-2],"split_indices":[9,30,7,3,78,78,29,7,30,7,7,7,7,73,7,2,9,13,0,71,7,3,9,29,78,29,78,7,2,12,7,7,71,7,7,0,36,79,13,7,3,9,3,9,0,28,7,7,79,78,12,7,2,12,78,79,12,12,13,78,37,12,12,0,0,0,0,0,0,0,0,0,0,0,0,0,0,0,0,0,0,0,0,0,0,0,0,0,0,0,0,0,0,0,0,0,0,0,0,0,0,0,0,0,0,0,0,0,0,0,0,0,0,0,0,0,0,0,0,0,0,0,0,0,0,0,0],"split_type":[0,0,0,0,0,0,0,0,0,0,0,0,0,0,0,0,0,0,0,0,0,0,0,0,0,0,0,0,0,0,0,0,0,0,0,0,0,0,0,0,0,0,0,0,0,0,0,0,0,0,0,0,0,0,0,0,0,0,0,0,0,0,0,0,0,0,0,0,0,0,0,0,0,0,0,0,0,0,0,0,0,0,0,0,0,0,0,0,0,0,0,0,0,0,0,0,0,0,0,0,0,0,0,0,0,0,0,0,0,0,0,0,0,0,0,0,0,0,0,0,0,0,0,0,0,0,0],"sum_hessian":[1.6496189E5,8.626553E4,7.869635E4,2.259809E4,6.366744E4,6.5004945E4,1.369141E4,1.179633E4,1.0801759E4,1.8070754E4,4.5596688E4,1.071394E4,5.4291004E4,2.3251917E3,1.1366219E4,1.1065391E4,7.309401E2,2.8158848E3,7.9858735E3,1.7398295E4,6.724583E2,4.4322703E4,1.2739829E3,4.54412E2,1.0259528E4,2.644941E3,5.1646062E4,1.0825868E3,1.242605E3,6.954043E3,4.412176E3,3.513137E3,7.5522534E3,3.423096E2,3.8863052E2,2.519974E3,2.9591064E2,2.2111199E3,5.774754E3,4.445149E3,1.2953146E4,5.221516E2,1.5030672E2,2.9513355E4,1.480935E4,7.5327997E2,5.207029E2,1.8983423E2,2.6457776E2,5.0699E3,5.189629E3,1.4106646E3,1.2342764E3,3.4519805E4,1.7126258E4,8.9438245E2,1.882043E2,2.6029593E2,9.82309E2,3.9241748E3,3.0298682E3,2.7257866E3,1.686389E3,3.217577E2,3.1913794E3,4.751582E3,2.8006711E3,2.2052763E2,1.21781975E2,2.3615512E2,1.5247542E2,9.744251E2,1.5455491E3,9.0352715E1,2.0555794E2,1.9817662E3,2.293535E2,4.331836E3,1.4429182E3,1.1580878E2,4.3293403E3,9.270478E3,3.682669E3,3.3425082E2,1.8790077E2,9.9427086E1,5.0879635E1,2.3776277E4,5.737078E3,5.1442183E3,9.665132E3,2.7863312E2,4.7464688E2,3.396265E2,1.810764E2,5.741147E1,1.3242278E2,8.2169525E1,1.8240823E2,6.1511835E2,4.4547812E3,3.1283108E3,2.061318E3,5.336114E2,8.770531E2,9.716914E2,2.6258493E2,8.932949E3,2.5586855E4,1.247258E4,4.6536777E3,4.2837018E2,4.6601227E2,7.4350235E1,1.1385406E2,1.2822096E2,1.3207497E2,5.9347345E2,3.8883557E2,2.000811E3,1.9233638E3,7.517344E2,2.2781338E3,1.3660349E3,1.3597518E3,6.9379645E2,9.925926E2],"tree_param":{"num_deleted":"0","num_feature":"80","num_nodes":"127","size_leaf_vector":"1"}},{"base_weights":[-1.8923904E-4,-1.14143E0,3.0793646E-1,-1.5357023E0,-7.7314746E-1,4.4715622E-1,-4.9321344E-1,-1.7286197E0,-1.3314167E0,1.4992042E-1,-8.974323E-1,5.2517784E-1,-4.048865E-1,-2.7471352E-1,-8.959379E-1,-1.8420261E0,-1.632321E0,-1.5158094E0,-1.1035256E0,-6.458588E-1,2.784834E-1,-1.1063212E0,-5.925511E-1,8.6792374E-1,3.825673E-1,-8.934021E-1,-5.4245856E-2,-4.847625E-1,1.3747618E-1,-1.1169391E0,-6.3255787E-1,-9.353157E-2,-1.7810563E0,-1.7637776E0,-1.5014468E0,-1.3458126E0,-1.6697963E0,-5.929197E-1,-1.2138106E0,-1.1443778E0,-3.7402144E-1,3.8400882E-1,-6.9189173E-1,-9.791758E-1,-1.5203881E0,-4.5445505E-1,-1.249186E0,9.6610427E-1,5.8791536E-1,-8.905391E-2,4.9680015E-1,-6.449377E-1,-1.2502775E0,1.17118485E-1,-6.871163E-1,-7.499595E-1,-3.2433492E-1,4.075346E-1,-6.1967283E-2,-9.5236063E-1,-1.262405E0,-4.5440978E-1,-8.888175E-1,-9.311035E-2,-8.554458E-2,-8.963473E-2,-7.607394E-2,-5.7473373E-2,-7.810164E-2,-6.17611E-2,-8.255531E-2,-8.076785E-2,-8.865347E-2,-1.9115413E-2,-5.8113653E-2,-5.6207616E-2,-7.856476E-2,-4.2579558E-2,-6.976398E-2,-3.7853844E-2,-7.920119E-3,4.1869525E-2,7.438794E-3,-1.5944544E-2,-5.5003297E-2,-2.3502627E-2,-5.4197814E-2,-6.92413E-2,-8.318844E-2,6.614593E-3,-2.9759234E-2,-5.0012767E-2,-7.423689E-2,-3.095398E-4,5.0353415E-2,4.6169233E-2,2.2486052E-2,3.592385E-2,-1.1793132E-2,2.919971E-2,6.0052E-3,-4.5228127E-2,-1.1436334E-2,-7.43581E-2,-4.944652E-2,-1.1269439E-2,1.5496015E-2,-2.744319E-2,-5.9273478E-2,-4.5110967E-2,-2.5887748E-2,-2.3582252E-2,-5.744107E-3,1.7122792E-2,5.2834142E-2,-1.24021415E-2,1.03311995E-2,-5.6473684E-2,-3.8123745E-2,-5.1081687E-2,-6.7277834E-2,-3.4613695E-2,-1.1512357E-2,-1.9236533E-2,-4.8589777E-2],"categories":[],"categories_nodes":[],"categories_segments":[],"categories_sizes":[],"default_left":[0,0,0,0,0,0,0,0,0,0,0,0,0,0,0,0,0,0,0,0,0,0,0,0,0,0,0,0,0,0,0,0,0,0,0,0,0,0,0,0,0,0,0,0,0,0,0,0,0,0,0,0,0,0,0,0,0,0,0,0,0,0,0,0,0,0,0,0,0,0,0,0,0,0,0,0,0,0,0,0,0,0,0,0,0,0,0,0,0,0,0,0,0,0,0,0,0,0,0,0,0,0,0,0,0,0,0,0,0,0,0,0,0,0,0,0,0,0,0,0,0,0,0,0,0],"id":2,"left_children":[1,3,5,7,9,11,13,15,17,19,21,23,25,27,29,31,33,35,37,39,41,43,45,47,49,51,53,55,57,59,61,-1,63,65,67,69,71,73,75,77,79,81,83,85,87,89,91,93,95,97,99,101,103,105,107,109,111,113,115,117,119,121,123,-1,-1,-1,-1,-1,-1,-1,-1,-1,-1,-1,-1,-1,-1,-1,-1,-1,-1,-1,-1,-1,-1,-1,-1,-1,-1,-1,-1,-1,-1,-1,-1,-1,-1,-1,-1,-1,-1,-1,-1,-1,-1,-1,-1,-1,-1,-1,-1,-1,-1,-1,-1,-1,-1,-1,-1,-1,-1,-1,-1,-1,-1],"loss_changes":[5.800961E4,5.091207E3,1.4488227E4,6.651797E2,2.0806445E3,7.3569883E3,1.6920107E3,9.2083984E1,3.4417676E2,2.2043427E2,1.0172529E3,4.9551426E3,1.5902554E3,1.0795957E3,3.929878E2,3.6289062E0,7.8515625E1,1.16771484E2,2.0677197E2,4.0190735E1,1.9012698E2,4.9778906E2,5.8889746E2,8.183418E2,3.857207E3,3.4317285E2,5.863479E2,3.5116858E2,2.2677048E2,8.68125E1,1.4058154E2,0E0,4.189453E0,1.3723633E1,4.8760742E1,7.1095215E1,1.0525391E1,7.827072E1,9.532471E1,6.5459137E0,1.6023226E1,1.782924E2,2.7390808E1,3.866997E2,4.0965332E1,4.437079E2,6.4714966E1,8.7836914E2,3.5821265E2,1.6552637E3,1.893001E3,2.471482E2,9.703931E1,2.8104022E2,7.87207E1,1.0957788E2,1.587923E2,7.519232E1,1.2111606E2,5.7285645E1,3.7634033E1,9.70874E1,5.2556763E1,0E0,0E0,0E0,0E0,0E0,0E0,0E0,0E0,0E0,0E0,0E0,0E0,0E0,0E0,0E0,0E0,0E0,0E0,0E0,0E0,0E0,0E0,0E0,0E0,0E0,0E0,0E0,0E0,0E0,0E0,0E0,0E0,0E0,0E0,0E0,0E0,0E0,0E0,0E0,0E0,0E0,0E0,0E0,0E0,0E0,0E0,0E0,0E0,0E0,0E0,0E0,0E0,0E0,0E0,0E0,0E0,0E0,0E0,0E0,0E0,0E0,0E0],"parents":[2147483647,0,0,1,1,2,2,3,3,4,4,5,5,6,6,7,7,8,8,9,9,10,10,11,11,12,12,13,13,14,14,15,15,16,16,17,17,18,18,19,19,20,20,21,21,22,22,23,23,24,24,25,25,26,26,27,27,28,28,29,29,30,30,32,32,33,33,34,34,35,35,36,36,37,37,38,38,39,39,40,40,41,41,42,42,43,43,44,44,45,45,46,46,47,47,48,48,49,49,50,50,51,51,52,52,53,53,54,54,55,55,56,56,57,57,58,58,59,59,60,60,61,61,62,62],"right_children":[2,4,6,8,10,12,14,16,18,20,22,24,26,28,30,32,34,36,38,40,42,44,46,48,50,52,54,56,58,60,62,-1,64,66,68,70,72,74,76,78,80,82,84,86,88,90,92,94,96,98,100,102,104,106,108,110,112,114,116,118,120,122,124,-1,-1,-1,-1,-1,-1,-1,-1,-1,-1,-1,-1,-1,-1,-1,-1,-1,-1,-1,-1,-1,-1,-1,-1,-1,-1,-1,-1,-1,-1,-1,-1,-1,-1,-1,-1,-1,-1,-1,-1,-1,-1,-1,-1,-1,-1,-1,-1,-1,-1,-1,-1,-1,-1,-1,-1,-1,-1,-1,-1,-1,-1],"split_conditions":[1.5669959E0,1.1907469E0,3.2604868E0,9.259381E-1,2E0,9.125427E-1,3.6306555E0,6.623921E-1,2E0,-7.4094635E-1,2E0,1.8152511E-1,2.064436E0,8.253574E-1,8.0138E-1,5.395843E-1,2E0,2.8619462E-1,2.4173748E-1,-1.067684E0,7.447861E-1,6.88847E-1,9.299498E-1,2.8635173E0,1.8725349E0,1.2118917E0,1.3087319E0,7.692308E-1,1.307001E-1,3.7977817E0,3.860462E0,-9.353157E-2,2E0,7.9056525E-1,2.3180076E-1,5.6348187E-1,5.2918154E-1,6.476757E-1,8.64405E-1,2.9208586E-1,1.3746953E0,1E0,9.6668774E-1,2.4173748E-1,9.866588E-1,2.478681E-1,1.2118917E0,-1.0959921E0,1.2617041E-1,2E0,2.9092457E0,2E0,2E0,7.6611525E-1,1.6120034E0,2E0,2E0,9.2615384E-1,2E0,2E0,2.5514403E-1,2E0,1.1107083E-1,-9.311035E-2,-8.554458E-2,-8.963473E-2,-7.607394E-2,-5.7473373E-2,-7.810164E-2,-6.17611E-2,-8.255531E-2,-8.076785E-2,-8.865347E-2,-1.9115413E-2,-5.8113653E-2,-5.6207616E-2,-7.856476E-2,-4.2579558E-2,-6.976398E-2,-3.7853844E-2,-7.920119E-3,4.1869525E-2,7.438794E-3,-1.5944544E-2,-5.5003297E-2,-2.3502627E-2,-5.4197814E-2,-6.92413E-2,-8.318844E-2,6.614593E-3,-2.9759234E-2,-5.0012767E-2,-7.423689E-2,-3.095398E-4,5.0353415E-2,4.6169233E-2,2.2486052E-2,3.592385E-2,-1.1793132E-2,2.919971E-2,6.0052E-3,-4.5228127E-2,-1.1436334E-2,-7.43581E-2,-4.944652E-2,-1.1269439E-2,1.5496015E-2,-2.744319E-2,-5.9273478E-2,-4.5110967E-2,-2.5887748E-2,-2.3582252E-2,-5.744107E-3,1.7122792E-2,5.2834142E-2,-1.24021415E-2,1.03311995E-2,-5.6473684E-2,-3.8123745E-2,-5.1081687E-2,-6.7277834E-2,-3.4613695E-2,-1.1512357E-2,-1.9236533E-2,-4.8589777E-2],"split_indices":[8,8,8,8,9,7,8,8,12,7,12,78,8,30,30,8,12,78,73,7,7,7,7,8,8,7,7,30,71,8,8,0,12,31,73,7,7,7,7,72,8,9,7,73,7,73,7,7,71,9,8,12,12,33,7,12,12,30,12,12,72,12,71,0,0,0,0,0,0,0,0,0,0,0,0,0,0,0,0,0,0,0,0,0,0,0,0,0,0,0,0,0,0,0,0,0,0,0,0,0,0,0,0,0,0,0,0,0,0,0,0,0,0,0,0,0,0,0,0,0,0,0,0,0,0],"split_type":[0,0,0,0,0,0,0,0,0,0,0,0,0,0,0,0,0,0,0,0,0,0,0,0,0,0,0,0,0,0,0,0,0,0,0,0,0,0,0,0,0,0,0,0,0,0,0,0,0,0,0,0,0,0,0,0,0,0,0,0,0,0,0,0,0,0,0,0,0,0,0,0,0,0,0,0,0,0,0,0,0,0,0,0,0,0,0,0,0,0,0,0,0,0,0,0,0,0,0,0,0,0,0,0,0,0,0,0,0,0,0,0,0,0,0,0,0,0,0,0,0,0,0,0,0],"sum_hessian":[1.6496412E5,3.5069703E4,1.2989443E5,1.6935691E4,1.8134012E4,1.106642E5,1.9230225E4,8.706367E3,8.229323E3,2.1518616E3,1.598215E4,1.0138111E5,9.283091E3,1.2467571E4,6.762654E3,3.9897246E3,4.7166426E3,4.5456577E3,3.6836658E3,2.9873398E2,1.8531276E3,9.48256E3,6.4995903E3,2.9786955E4,7.159416E4,3.878284E3,5.404807E3,8.258779E3,4.208792E3,3.6754E3,3.0872537E3,2.6954265E3,1.2942981E3,2.3468591E3,2.3697837E3,2.1651438E3,2.380514E3,6.554386E2,3.028227E3,1.0428228E2,1.9445169E2,1.6719159E3,1.8121167E2,7.257423E3,2.225137E3,5.37159E3,1.1280004E3,2.2052236E4,7.7347197E3,1.3959845E4,5.7634312E4,2.2880798E3,1.5902041E3,4.2538057E3,1.1510015E3,3.1115361E3,5.1472427E3,1.7874432E3,2.4213489E3,1.7279573E3,1.9474426E3,1.8228248E3,1.2644288E3,5.883206E2,7.059774E2,2.0909214E3,2.5593758E2,3.509398E2,2.0188439E3,1.5930999E3,5.72044E2,1.5697017E3,8.1081226E2,4.796727E2,1.757659E2,2.4243398E3,6.038872E2,5.0152073E1,5.4130207E1,6.912944E1,1.2532225E2,5.702574E2,1.1016584E3,9.5616196E1,8.559547E1,1.2396255E3,6.0177974E3,1.1492318E3,1.0759052E3,1.0391406E3,4.332449E3,5.5097626E2,5.770242E2,8.9156116E2,2.1160674E4,2.2549956E3,5.479724E3,2.1468833E3,1.1812962E4,4.6800766E4,1.0833547E4,1.408383E3,8.7969684E2,8.316804E2,7.585236E2,1.5320286E3,2.721777E3,9.026818E2,2.4831958E2,1.8775287E3,1.2340074E3,3.021172E3,2.1260708E3,1.6259637E3,1.6147948E2,1.4304402E3,9.909086E2,8.9148755E2,8.364698E2,5.033225E2,1.4441201E3,8.833713E2,9.3945355E2,1.7951607E2,1.0849127E3],"tree_param":{"num_deleted":"0","num_feature":"80","num_nodes":"125","size_leaf_vector":"1"}},{"base_weights":[-2.1419914E-4,-1.1178218E0,2.8522718E-1,-1.4656589E0,-7.6494956E-1,4.1919425E-1,-4.398876E-1,-1.6516091E0,-1.2690372E0,9.933299E-2,-8.780762E-1,4.9563318E-1,-4.0231574E-1,-2.021788E-1,-7.9236585E-1,-1.7594601E0,-1.5606877E0,-1.0762671E0,-1.4413215E0,-1.5899056E-1,5.6582606E-1,-7.5734323E-1,-1.3087842E0,6.501565E-1,1.8486173E-1,-8.631387E-1,-4.284846E-2,-3.662372E-1,2.610593E-1,-1.007513E0,-5.336632E-1,-1.622776E0,-1.7742517E0,-1.2339991E0,-1.5964382E0,-9.8039484E-1,-1.431048E0,-1.3795626E0,-1.6218798E0,-7.7043563E-1,-2.5053535E-2,6.7158973E-1,-1.8994125E-2,-5.414948E-1,-1.0205599E0,-1.1778919E0,-1.515614E0,9.479426E-1,5.4824E-1,-2.4724379E-1,4.201492E-1,-6.555835E-1,-1.2486888E0,5.2897245E-1,-2.4803098E-1,-6.4761084E-1,-2.2568086E-1,1.2999845E-1,5.583955E-1,-8.667794E-1,-1.1945258E0,-3.77137E-1,-8.415723E-1,-8.514807E-2,-7.1782984E-2,-8.98314E-2,-8.6293936E-2,-5.3302E-2,-7.246095E-2,-8.592753E-2,-7.676942E-2,-2.3595918E-2,-5.278132E-2,-7.5162135E-2,-6.2298156E-2,-6.3683E-2,-7.587228E-2,-8.1890576E-2,-7.094555E-2,-5.821119E-2,-2.5589395E-2,8.591975E-3,-2.1812825E-2,-1.4914823E-2,3.9613724E-2,-2.7492137E-3,-3.2033365E-2,-6.8394974E-2,-4.7770437E-2,-7.879421E-2,-5.5262923E-2,-7.743903E-2,-5.607819E-2,-7.970828E-3,4.8476443E-2,3.1574514E-2,9.828768E-3,-1.3165189E-3,-2.4716387E-2,3.3230644E-2,1.0341205E-2,4.1509788E-3,-3.8429264E-2,-6.554355E-2,-3.5299394E-2,3.80461E-2,-9.669441E-3,-6.0615474E-3,-4.430776E-2,-4.8317373E-2,-2.77848E-2,-5.758025E-3,-1.9319858E-2,-3.338577E-4,1.2061122E-2,5.7096552E-2,2.3179661E-2,-5.4825485E-2,-3.6555145E-2,-6.4312235E-2,-4.9324255E-2,-2.3701897E-2,5.8014253E-3,-1.4852978E-2,-4.6487644E-2],"categories":[],"categories_nodes":[],"categories_segments":[],"categories_sizes":[],"default_left":[0,0,0,0,0,0,0,0,0,0,0,0,0,0,0,0,0,0,0,0,0,0,0,0,0,0,0,0,0,0,0,0,0,0,0,0,0,0,0,0,0,0,0,0,0,0,0,0,0,0,0,0,0,0,0,0,0,0,0,0,0,0,0,0,0,0,0,0,0,0,0,0,0,0,0,0,0,0,0,0,0,0,0,0,0,0,0,0,0,0,0,0,0,0,0,0,0,0,0,0,0,0,0,0,0,0,0,0,0,0,0,0,0,0,0,0,0,0,0,0,0,0,0,0,0],"id":3,"left_children":[1,3,5,7,9,11,13,15,17,19,21,23,25,27,29,31,33,35,37,39,41,43,45,47,49,51,53,55,57,59,61,63,65,67,69,71,73,75,77,79,81,83,-1,85,87,89,91,93,95,97,99,101,103,105,107,109,111,113,115,117,119,121,123,-1,-1,-1,-1,-1,-1,-1,-1,-1,-1,-1,-1,-1,-1,-1,-1,-1,-1,-1,-1,-1,-1,-1,-1,-1,-1,-1,-1,-1,-1,-1,-1,-1,-1,-1,-1,-1,-1,-1,-1,-1,-1,-1,-1,-1,-1,-1,-1,-1,-1,-1,-1,-1,-1,-1,-1,-1,-1,-1,-1,-1,-1],"loss_changes":[5.2571742E4,4.1140117E3,1.2751866E4,6.1516797E2,1.6275205E3,6.957877E3,1.7150371E3,8.230469E1,2.7112012E2,2.3235454E2,7.643838E2,4.867705E3,1.5624585E3,9.293389E2,4.58354E2,5.126953E0,5.3097656E1,1.3052539E2,4.607422E1,1.01634155E2,6.8984436E1,6.527295E2,8.541846E1,2.0542324E3,3.4228325E3,3.2995117E2,6.2197107E2,3.5697205E2,1.2456593E2,1.1740381E2,1.8020251E2,3.5321045E0,7.5390625E-1,1.5425964E1,2.9018555E1,1.1643115E2,9.123901E0,4.5305664E1,1.2282715E0,2.2118073E1,8.259698E1,7.261905E1,0E0,3.0488562E2,1.1590625E2,5.5413574E1,1.4533691E1,4.1277344E2,1.4766445E3,6.4786084E2,1.1365881E3,2.245022E2,4.785083E1,2.347009E2,3.1554974E2,8.757373E1,1.0694324E2,3.376743E1,5.3584625E1,7.934741E1,3.5552002E1,1.1880957E2,6.0296814E1,0E0,0E0,0E0,0E0,0E0,0E0,0E0,0E0,0E0,0E0,0E0,0E0,0E0,0E0,0E0,0E0,0E0,0E0,0E0,0E0,0E0,0E0,0E0,0E0,0E0,0E0,0E0,0E0,0E0,0E0,0E0,0E0,0E0,0E0,0E0,0E0,0E0,0E0,0E0,0E0,0E0,0E0,0E0,0E0,0E0,0E0,0E0,0E0,0E0,0E0,0E0,0E0,0E0,0E0,0E0,0E0,0E0,0E0,0E0,0E0,0E0,0E0],"parents":[2147483647,0,0,1,1,2,2,3,3,4,4,5,5,6,6,7,7,8,8,9,9,10,10,11,11,12,12,13,13,14,14,15,15,16,16,17,17,18,18,19,19,20,20,21,21,22,22,23,23,24,24,25,25,26,26,27,27,28,28,29,29,30,30,31,31,32,32,33,33,34,34,35,35,36,36,37,37,38,38,39,39,40,40,41,41,43,43,44,44,45,45,46,46,47,47,48,48,49,49,50,50,51,51,52,52,53,53,54,54,55,55,56,56,57,57,58,58,59,59,60,60,61,61,62,62],"right_children":[2,4,6,8,10,12,14,16,18,20,22,24,26,28,30,32,34,36,38,40,42,44,46,48,50,52,54,56,58,60,62,64,66,68,70,72,74,76,78,80,82,84,-1,86,88,90,92,94,96,98,100,102,104,106,108,110,112,114,116,118,120,122,124,-1,-1,-1,-1,-1,-1,-1,-1,-1,-1,-1,-1,-1,-1,-1,-1,-1,-1,-1,-1,-1,-1,-1,-1,-1,-1,-1,-1,-1,-1,-1,-1,-1,-1,-1,-1,-1,-1,-1,-1,-1,-1,-1,-1,-1,-1,-1,-1,-1,-1,-1,-1,-1,-1,-1,-1,-1,-1,-1,-1,-1,-1],"split_conditions":[1.5410779E0,1.1907469E0,3.2320776E0,9.259381E-1,2E0,9.125427E-1,3.5703971E0,6.623921E-1,2.8619462E-1,9.8E-1,7.5667113E-1,2.5145018E-1,2.072257E0,8.4033614E-1,8.0138E-1,2.1358724E-1,2.1358724E-1,7.1020293E-1,7.215469E-1,-6.947552E-1,7.3302436E-1,3.0890805E-1,1.1387305E0,1.5330622E-1,1.9678935E0,1.2560866E0,1E0,7.692308E-1,8.863513E-1,3.7977817E0,3.860462E0,5.395843E-1,5.395843E-1,3.1927437E-1,6.783069E-1,1.9582245E-1,3.1023794E-1,3.4736842E-1,3.920104E-1,-1.0168889E0,3.206522E-1,-7.4094635E-1,-1.8994125E-2,2.1358724E-1,1E0,1E0,-1.9E-1,-1.2508292E0,2.9092457E0,3.3620483E-1,2.8E-1,2E0,1.71E0,1.2560866E0,1.3755573E0,7.032419E-1,3.4098203E0,8.106796E-1,7.6362535E-2,7.6243585E-1,7.6855206E-1,8.863513E-1,1.1107083E-1,-8.514807E-2,-7.1782984E-2,-8.98314E-2,-8.6293936E-2,-5.3302E-2,-7.246095E-2,-8.592753E-2,-7.676942E-2,-2.3595918E-2,-5.278132E-2,-7.5162135E-2,-6.2298156E-2,-6.3683E-2,-7.587228E-2,-8.1890576E-2,-7.094555E-2,-5.821119E-2,-2.5589395E-2,8.591975E-3,-2.1812825E-2,-1.4914823E-2,3.9613724E-2,-2.7492137E-3,-3.2033365E-2,-6.8394974E-2,-4.7770437E-2,-7.879421E-2,-5.5262923E-2,-7.743903E-2,-5.607819E-2,-7.970828E-3,4.8476443E-2,3.1574514E-2,9.828768E-3,-1.3165189E-3,-2.4716387E-2,3.3230644E-2,1.0341205E-2,4.1509788E-3,-3.8429264E-2,-6.554355E-2,-3.5299394E-2,3.80461E-2,-9.669441E-3,-6.0615474E-3,-4.430776E-2,-4.8317373E-2,-2.77848E-2,-5.758025E-3,-1.9319858E-2,-3.338577E-4,1.2061122E-2,5.7096552E-2,2.3179661E-2,-5.4825485E-2,-3.6555145E-2,-6.4312235E-2,-4.9324255E-2,-2.3701897E-2,5.8014253E-3,-1.4852978E-2,-4.6487644E-2],"split_indices":[8,8,8,8,9,7,8,8,78,3,7,78,8,30,30,73,73,7,7,7,7,78,7,78,8,7,28,30,30,8,8,8,8,7,31,73,24,73,24,7,73,7,0,73,16,16,4,7,8,78,3,9,4,7,7,30,8,33,71,30,25,30,71,0,0,0,0,0,0,0,0,0,0,0,0,0,0,0,0,0,0,0,0,0,0,0,0,0,0,0,0,0,0,0,0,0,0,0,0,0,0,0,0,0,0,0,0,0,0,0,0,0,0,0,0,0,0,0,0,0,0,0,0,0,0],"split_type":[0,0,0,0,0,0,0,0,0,0,0,0,0,0,0,0,0,0,0,0,0,0,0,0,0,0,0,0,0,0,0,0,0,0,0,0,0,0,0,0,0,0,0,0,0,0,0,0,0,0,0,0,0,0,0,0,0,0,0,0,0,0,0,0,0,0,0,0,0,0,0,0,0,0,0,0,0,0,0,0,0,0,0,0,0,0,0,0,0,0,0,0,0,0,0,0,0,0,0,0,0,0,0,0,0,0,0,0,0,0,0,0,0,0,0,0,0,0,0,0,0,0,0,0,0],"sum_hessian":[1.647938E5,3.3525656E4,1.3126814E5,1.6881691E4,1.6643963E4,1.1079826E5,2.0469877E4,8.672491E3,8.2092E3,1.9264086E3,1.4717555E4,1.0136679E5,9.431468E3,1.2226192E4,8.243684E3,3.958529E3,4.713963E3,3.877681E3,4.3315195E3,1.2402637E3,6.861449E2,1.1497435E4,3.2201194E3,6.770239E4,3.3664402E4,4.1324404E3,5.299028E3,9.028802E3,3.1973914E3,4.499134E3,3.74455E3,3.973617E2,3.5611672E3,4.6848248E2,4.24548E3,3.0557026E3,8.219783E2,3.233992E3,1.0975277E3,2.2200795E2,1.0182558E3,6.1738885E2,6.875605E1,6.318809E3,5.178626E3,1.9761844E3,1.243935E3,1.7260691E4,5.04417E4,1.186827E4,2.1796133E4,2.6880623E3,1.4443782E3,1.3988922E3,3.9001355E3,3.0065374E3,6.022264E3,2.220201E3,9.771905E2,2.5704297E3,1.9287041E3,2.4840188E3,1.2605312E3,2.7249002E2,1.2487169E2,2.4101497E3,1.1510177E3,2.6647598E2,2.020065E2,1.4060134E3,2.8394668E3,3.9477322E2,2.6609294E3,5.862012E2,2.3577713E2,1.8349081E3,1.3990837E3,1.0110946E3,8.643316E1,8.66235E1,1.3538445E2,6.8895233E2,3.2930344E2,6.815861E1,5.492302E2,1.0702135E3,5.2485957E3,8.1478375E2,4.3638423E3,3.0179767E2,1.6743867E3,1.1446603E3,9.927474E1,3.2991504E2,1.6930777E4,4.078564E4,9.656058E3,6.266557E3,5.601713E3,1.0155802E4,1.1640331E4,3.567216E2,2.3313408E3,1.2946257E3,1.4975237E2,1.0588448E3,3.400474E2,3.2546104E3,6.4552527E2,6.708142E2,2.3357231E3,3.569399E3,2.4528652E3,9.965492E2,1.2236516E3,1.3502533E2,8.4216516E2,9.517775E2,1.6186522E3,1.3349728E3,5.937313E2,2.0761248E3,4.0789417E2,1.762933E2,1.0842379E3],"tree_param":{"num_deleted":"0","num_feature":"80","num_nodes":"125","size_leaf_vector":"1"}},{"base_weights":[1.730798E-3,-1.0102434E0,2.8778368E-1,-1.3790011E0,-6.6012025E-1,4.226021E-1,-4.219714E-1,-1.5807072E0,-1.188075E0,1.9047613E-1,-7.8182095E-1,4.8670828E-1,-4.2354867E-1,-1.9644496E-1,-7.5673974E-1,-1.6853367E0,-1.4923887E0,-1.3725563E0,-9.573917E-1,-6.3150354E-2,6.168175E-1,-9.811095E-1,-4.8852873E-1,4.8110258E-2,5.6547946E-1,-8.10439E-1,-6.377514E-2,-4.1735494E-1,3.0196555E-2,-9.5253795E-1,-5.4936427E-1,-1.5496769E0,-1.7001308E0,-1.6174352E0,-1.3661475E0,-8.3717775E-1,-1.4173377E0,-4.8668092E-1,-1.0604566E0,-6.916605E-1,6.8601295E-2,7.148E-1,-2.2525392E-2,-8.600572E-1,-1.3811505E0,-3.749547E-1,-1.1683601E0,7.473346E-1,-1.7681853E-1,3.4077072E-1,6.931676E-1,-6.228424E-1,-1.1958884E0,5.118501E-1,-2.7057317E-1,-5.5163586E-1,-2.0550455E-1,-8.109917E-2,3.5045323E-1,-7.7362174E-1,-1.1095774E0,-4.1027182E-1,-8.202143E-1,-8.121159E-2,-6.86894E-2,-8.6107664E-2,-8.265192E-2,-8.221878E-2,-6.929427E-2,-7.8411125E-2,-6.313775E-2,-1.3605497E-2,-4.7657944E-2,-4.9847994E-2,-7.2936825E-2,-1.4354897E-2,-5.2758593E-2,-4.8721116E-2,-7.2243415E-2,-5.3928126E-2,-2.151771E-2,8.753992E-3,-3.2966472E-2,-1.611885E-2,4.024874E-2,-1.8485112E-2,-4.7978144E-2,-6.214968E-2,-7.643024E-2,8.4922835E-3,-2.5435934E-2,-4.761233E-2,-6.821411E-2,-1.6850295E-2,4.462171E-2,-1.8398993E-2,7.918227E-3,2.1147778E-2,1.1354757E-4,-1.0621805E-2,3.5639364E-2,-4.4563722E-2,-1.0070979E-2,-7.0553705E-2,-4.915767E-2,3.3778414E-2,-1.8602896E-2,-7.068751E-3,-4.0449984E-2,-3.55389E-2,-2.0179672E-2,-5.31869E-3,-2.248676E-2,-1.17195705E-2,7.006829E-3,1.0024701E-2,2.978534E-2,-4.8067782E-2,-2.7439494E-2,-6.313837E-2,-4.969074E-2,-3.0703882E-2,-1.0600328E-2,-4.4712678E-2,-2.4392061E-2],"categories":[],"categories_nodes":[],"categories_segments":[],"categories_sizes":[],"default_left":[0,0,0,0,0,0,0,0,0,0,0,0,0,0,0,0,0,0,0,0,0,0,0,0,0,0,0,0,0,0,0,0,0,0,0,0,0,0,0,0,0,0,0,0,0,0,0,0,0,0,0,0,0,0,0,0,0,0,0,0,0,0,0,0,0,0,0,0,0,0,0,0,0,0,0,0,0,0,0,0,0,0,0,0,0,0,0,0,0,0,0,0,0,0,0,0,0,0,0,0,0,0,0,0,0,0,0,0,0,0,0,0,0,0,0,0,0,0,0,0,0,0,0,0,0],"id":4,"left_children":[1,3,5,7,9,11,13,15,17,19,21,23,25,27,29,31,33,35,37,39,41,43,45,47,49,51,53,55,57,59,61,63,65,67,69,71,73,75,77,79,81,83,-1,85,87,89,91,93,95,97,99,101,103,105,107,109,111,113,115,117,119,121,123,-1,-1,-1,-1,-1,-1,-1,-1,-1,-1,-1,-1,-1,-1,-1,-1,-1,-1,-1,-1,-1,-1,-1,-1,-1,-1,-1,-1,-1,-1,-1,-1,-1,-1,-1,-1,-1,-1,-1,-1,-1,-1,-1,-1,-1,-1,-1,-1,-1,-1,-1,-1,-1,-1,-1,-1,-1,-1,-1,-1,-1,-1],"loss_changes":[4.761096E4,4.6787695E3,1.2269893E4,6.7791797E2,1.9250083E3,5.845385E3,1.5452517E3,7.677539E1,3.8477734E2,2.5179434E2,9.5033496E2,3.4607188E3,1.056361E3,6.124048E2,3.3400146E2,5.232422E0,7.1381836E1,1.1961621E2,1.9522144E2,1.2100526E2,9.115103E1,4.6780762E2,5.078723E2,2.3989385E3,2.436293E3,2.6368042E2,4.6839673E2,1.760924E2,2.1525258E2,1.1816846E2,1.504862E2,2.9713745E0,8.076172E-1,1.2296875E1,4.6621582E1,2.5389893E1,7.944141E1,8.213579E1,1.0803247E2,2.513726E1,9.378401E1,7.469577E1,0E0,3.625503E2,4.3899414E1,4.1127838E2,3.8583252E1,5.844033E2,7.395252E2,8.5604663E2,9.6223047E2,2.7831018E2,5.3365112E1,1.5075674E2,2.0124788E2,8.901648E1,5.816867E1,1.5202922E2,5.716017E1,8.3194214E1,3.8712646E1,1.0683246E2,3.2966553E1,0E0,0E0,0E0,0E0,0E0,0E0,0E0,0E0,0E0,0E0,0E0,0E0,0E0,0E0,0E0,0E0,0E0,0E0,0E0,0E0,0E0,0E0,0E0,0E0,0E0,0E0,0E0,0E0,0E0,0E0,0E0,0E0,0E0,0E0,0E0,0E0,0E0,0E0,0E0,0E0,0E0,0E0,0E0,0E0,0E0,0E0,0E0,0E0,0E0,0E0,0E0,0E0,0E0,0E0,0E0,0E0,0E0,0E0,0E0,0E0,0E0,0E0],"parents":[2147483647,0,0,1,1,2,2,3,3,4,4,5,5,6,6,7,7,8,8,9,9,10,10,11,11,12,12,13,13,14,14,15,15,16,16,17,17,18,18,19,19,20,20,21,21,22,22,23,23,24,24,25,25,26,26,27,27,28,28,29,29,30,30,31,31,32,32,33,33,34,34,35,35,36,36,37,37,38,38,39,39,40,40,41,41,43,43,44,44,45,45,46,46,47,47,48,48,49,49,50,50,51,51,52,52,53,53,54,54,55,55,56,56,57,57,58,58,59,59,60,60,61,61,62,62],"right_children":[2,4,6,8,10,12,14,16,18,20,22,24,26,28,30,32,34,36,38,40,42,44,46,48,50,52,54,56,58,60,62,64,66,68,70,72,74,76,78,80,82,84,-1,86,88,90,92,94,96,98,100,102,104,106,108,110,112,114,116,118,120,122,124,-1,-1,-1,-1,-1,-1,-1,-1,-1,-1,-1,-1,-1,-1,-1,-1,-1,-1,-1,-1,-1,-1,-1,-1,-1,-1,-1,-1,-1,-1,-1,-1,-1,-1,-1,-1,-1,-1,-1,-1,-1,-1,-1,-1,-1,-1,-1,-1,-1,-1,-1,-1,-1,-1,-1,-1,-1,-1,-1,-1,-1,-1],"split_conditions":[1.592169E0,1.2144467E0,3.2320776E0,9.259381E-1,2E0,9.6668774E-1,3.5703971E0,6.623921E-1,2E0,9.7E-1,2E0,1.8634355E0,2.1486921E0,7.7170265E-1,7.7170265E-1,2.1358724E-1,2E0,2E0,2.4173748E-1,-7.17273E-1,7.941064E-1,6.88847E-1,1.0081103E0,2E0,7.553522E-1,1.3087319E0,1E0,2E0,9.1197884E-1,3.7469606E0,3.860462E0,5.395843E-1,5.395843E-1,7.9056525E-1,6.863667E-1,2.4173748E-1,2.1358724E-1,6.7817134E-1,9.125427E-1,-1.0168889E0,6.476757E-1,-8.4873027E-1,-2.2525392E-2,2.4173748E-1,9.866588E-1,2.4823196E-1,1.2560866E0,-8.334367E-1,2E0,2.9186366E0,-1.2508292E0,2E0,2E0,1.3755573E0,1.3755573E0,8.500882E-1,2.913985E-1,2E0,8.643068E-1,2E0,2E0,2E0,8.576973E-1,-8.121159E-2,-6.86894E-2,-8.6107664E-2,-8.265192E-2,-8.221878E-2,-6.929427E-2,-7.8411125E-2,-6.313775E-2,-1.3605497E-2,-4.7657944E-2,-4.9847994E-2,-7.2936825E-2,-1.4354897E-2,-5.2758593E-2,-4.8721116E-2,-7.2243415E-2,-5.3928126E-2,-2.151771E-2,8.753992E-3,-3.2966472E-2,-1.611885E-2,4.024874E-2,-1.8485112E-2,-4.7978144E-2,-6.214968E-2,-7.643024E-2,8.4922835E-3,-2.5435934E-2,-4.761233E-2,-6.821411E-2,-1.6850295E-2,4.462171E-2,-1.8398993E-2,7.918227E-3,2.1147778E-2,1.1354757E-4,-1.0621805E-2,3.5639364E-2,-4.4563722E-2,-1.0070979E-2,-7.0553705E-2,-4.915767E-2,3.3778414E-2,-1.8602896E-2,-7.068751E-3,-4.0449984E-2,-3.55389E-2,-2.0179672E-2,-5.31869E-3,-2.248676E-2,-1.17195705E-2,7.006829E-3,1.0024701E-2,2.978534E-2,-4.8067782E-2,-2.7439494E-2,-6.313837E-2,-4.969074E-2,-3.0703882E-2,-1.0600328E-2,-4.4712678E-2,-2.4392061E-2],"split_indices":[8,8,8,8,9,7,8,8,12,3,12,8,8,25,25,73,12,9,73,7,7,7,7,9,25,7,28,12,36,8,8,8,8,31,31,73,73,7,7,7,7,7,0,73,7,73,7,7,12,8,7,12,12,7,7,36,27,12,33,12,12,12,33,0,0,0,0,0,0,0,0,0,0,0,0,0,0,0,0,0,0,0,0,0,0,0,0,0,0,0,0,0,0,0,0,0,0,0,0,0,0,0,0,0,0,0,0,0,0,0,0,0,0,0,0,0,0,0,0,0,0,0,0,0,0],"split_type":[0,0,0,0,0,0,0,0,0,0,0,0,0,0,0,0,0,0,0,0,0,0,0,0,0,0,0,0,0,0,0,0,0,0,0,0,0,0,0,0,0,0,0,0,0,0,0,0,0,0,0,0,0,0,0,0,0,0,0,0,0,0,0,0,0,0,0,0,0,0,0,0,0,0,0,0,0,0,0,0,0,0,0,0,0,0,0,0,0,0,0,0,0,0,0,0,0,0,0,0,0,0,0,0,0,0,0,0,0,0,0,0,0,0,0,0,0,0,0,0,0,0,0,0,0],"sum_hessian":[1.6446969E5,3.624447E4,1.2822522E5,1.7651047E4,1.8593422E4,1.077571E5,2.0468121E4,8.579676E3,9.071371E3,2.3272344E3,1.62661875E4,1.0016854E5,7.588559E3,1.2230365E4,8.237756E3,3.9189155E3,4.6607607E3,5.0376914E3,4.0336797E3,1.4597152E3,8.675191E2,9.68381E3,6.582378E3,1.5251238E4,8.4917305E4,3.655878E3,3.932681E3,6.1930703E3,6.037295E3,4.2353037E3,4.002452E3,3.9574222E2,3.5231733E3,2.3355264E3,2.3252344E3,3.9036908E2,4.6473223E3,7.255812E2,3.3080984E3,2.5222887E2,1.2074865E3,7.948781E2,7.264103E1,7.4366357E3,2.247174E3,5.641456E3,9.409217E2,3.7114197E3,1.1539818E4,3.0770434E4,5.414687E4,2.4608218E3,1.1950563E3,1.0390356E3,2.8936453E3,3.7894993E3,2.4035708E3,4.480854E3,1.5564412E3,1.9825249E3,2.2527788E3,2.6460918E3,1.3563602E3,2.7214996E2,1.23592255E2,2.3763284E3,1.146845E3,2.086648E3,2.4887839E2,7.822341E2,1.5430002E3,6.7048805E1,3.2332025E2,4.1888797E2,4.2284346E3,5.381538E2,1.8742734E2,2.7060076E3,6.02091E2,1.0041794E2,1.5181093E2,1.0540623E3,1.5342416E2,6.3374886E1,7.3150323E2,1.2553075E3,6.181328E3,1.1650306E3,1.0821434E3,1.1120352E3,4.529421E3,4.501931E2,4.9072855E2,4.3786887E2,3.2735508E3,7.348647E3,4.191172E3,2.475893E4,6.0115034E3,1.1479913E3,5.299888E4,1.5026007E3,9.58221E2,5.913057E2,6.0375055E2,8.768589E2,1.6217679E2,2.3346877E3,5.5895764E2,1.8244536E3,1.9650458E3,1.7106648E3,6.92906E2,2.6468298E3,1.8340239E3,9.6699426E2,5.894469E2,1.0786117E3,9.0391315E2,9.6537744E2,1.2874015E3,1.3037802E3,1.3423116E3,1.107879E3,2.4848114E2],"tree_param":{"num_deleted":"0","num_feature":"80","num_nodes":"125","size_leaf_vector":"1"}},{"base_weights":[5.7300634E-4,-1.0350072E0,2.5455788E-1,-1.4073727E0,-7.6055956E-1,3.6387378E-1,-4.7097257E-1,-1.5707479E0,-1.2701505E0,-5.040751E-1,-1.031868E0,-1.2117012E-1,4.7106954E-1,-2.8965038E-1,-8.123173E-1,-1.6215252E0,-1.486321E0,-1.4328687E0,-1.083809E0,-3.7414405E-1,-1.107439E0,-1.2031013E0,-7.9217094E-1,6.373324E-1,-3.2905975E-1,5.1629263E-1,-2.5640637E-1,5.0056595E-2,-4.9429518E-1,-4.1836247E-1,-9.1588056E-1,-1.5005374E0,-1.6355371E0,-1.5944786E0,-1.3847017E0,-1.3277661E0,-1.5638206E0,-6.7047054E-1,-1.1842613E0,5.454144E-1,-4.4544503E-1,-1.308703E0,-8.534718E-1,-1.1064367E0,-1.4516393E0,-7.0793015E-1,-1.3679245E0,-4.5082784E-1,7.498044E-1,-1.8067527E-1,-8.9907223E-1,7.721382E-1,4.0803003E-1,-6.0683165E-2,-7.33966E-1,3.329931E-1,-1.2200217E-1,-6.3654256E-1,-2.9242733E-1,1.5815526E-1,-5.023702E-1,-1.0736156E0,-7.9087526E-1,-8.046529E-2,-6.889361E-2,-8.280875E-2,-7.954082E-2,-8.101124E-2,-7.35645E-2,-7.4060194E-2,-6.1741967E-2,-6.1824083E-2,-7.597324E-2,-8.035719E-2,-7.5506054E-2,-2.680192E-2,-5.502934E-2,-5.4355737E-2,-7.0520826E-2,9.031078E-3,3.927244E-2,-3.3986386E-2,-9.803353E-3,-5.60411E-2,-7.193589E-2,-2.9377459E-2,-5.9525676E-2,-6.317419E-2,-4.7728445E-2,-6.8949744E-2,-7.868715E-2,-2.984511E-2,-5.1131755E-2,-6.016332E-2,-7.310706E-2,-5.248755E-2,-1.1341135E-2,4.1885987E-2,-6.5170475E-3,-7.925957E-4,-2.6676023E-2,-5.6935396E-2,-2.8206522E-2,5.129331E-2,3.4451544E-2,2.500296E-2,2.281463E-3,2.0739494E-2,-1.1584332E-2,-4.75705E-2,-2.0565396E-2,4.8630282E-2,1.4028626E-2,-1.4164733E-2,4.5498717E-3,-2.8409151E-2,-5.1092204E-2,-1.1958639E-2,-4.0473387E-2,2.626932E-2,-2.3605467E-3,-2.0736383E-2,-4.5002706E-2,-4.858075E-2,-6.173114E-2,-3.2577515E-2,-5.1872283E-2],"categories":[],"categories_nodes":[],"categories_segments":[],"categories_sizes":[],"default_left":[0,0,0,0,0,0,0,0,0,0,0,0,0,0,0,0,0,0,0,0,0,0,0,0,0,0,0,0,0,0,0,0,0,0,0,0,0,0,0,0,0,0,0,0,0,0,0,0,0,0,0,0,0,0,0,0,0,0,0,0,0,0,0,0,0,0,0,0,0,0,0,0,0,0,0,0,0,0,0,0,0,0,0,0,0,0,0,0,0,0,0,0,0,0,0,0,0,0,0,0,0,0,0,0,0,0,0,0,0,0,0,0,0,0,0,0,0,0,0,0,0,0,0,0,0,0,0],"id":5,"left_children":[1,3,5,7,9,11,13,15,17,19,21,23,25,27,29,31,33,35,37,39,41,43,45,47,49,51,53,55,57,59,61,63,65,67,69,71,73,75,77,79,81,83,85,87,89,91,93,95,97,99,101,103,105,107,109,111,113,115,117,119,121,123,125,-1,-1,-1,-1,-1,-1,-1,-1,-1,-1,-1,-1,-1,-1,-1,-1,-1,-1,-1,-1,-1,-1,-1,-1,-1,-1,-1,-1,-1,-1,-1,-1,-1,-1,-1,-1,-1,-1,-1,-1,-1,-1,-1,-1,-1,-1,-1,-1,-1,-1,-1,-1,-1,-1,-1,-1,-1,-1,-1,-1,-1,-1,-1,-1],"loss_changes":[4.3127992E4,3.299289E3,1.0443697E4,3.051797E2,1.2933711E3,5.9500713E3,1.0669509E3,2.4385742E1,2.244043E2,7.4905615E2,3.698789E2,3.2664336E3,3.0834805E3,7.829662E2,2.4364111E2,4.1435547E0,2.3725098E1,5.2634766E1,1.4361548E2,5.1609033E2,8.544141E1,1.2496045E2,1.817749E2,5.4572644E2,1.3749883E3,2.4437344E3,5.12718E2,2.062005E2,2.016344E2,6.046759E1,9.251929E1,3.3341064E0,5.751953E-1,1.2202148E0,1.5874023E1,3.6826416E1,1.6777344E0,3.886145E1,5.9911133E1,4.9470993E1,4.2648987E2,2.1418945E1,6.666077E1,8.93584E1,1.0886719E1,1.1430774E2,5.6847534E0,5.5851364E1,3.1265332E2,7.503042E2,2.6887646E2,5.525039E2,2.0678828E3,3.165635E2,1.1148981E2,5.3430283E1,9.052274E1,1.0799414E2,7.985481E1,1.2041795E1,3.7566162E1,3.313623E1,9.020557E1,0E0,0E0,0E0,0E0,0E0,0E0,0E0,0E0,0E0,0E0,0E0,0E0,0E0,0E0,0E0,0E0,0E0,0E0,0E0,0E0,0E0,0E0,0E0,0E0,0E0,0E0,0E0,0E0,0E0,0E0,0E0,0E0,0E0,0E0,0E0,0E0,0E0,0E0,0E0,0E0,0E0,0E0,0E0,0E0,0E0,0E0,0E0,0E0,0E0,0E0,0E0,0E0,0E0,0E0,0E0,0E0,0E0,0E0,0E0,0E0,0E0,0E0,0E0,0E0],"parents":[2147483647,0,0,1,1,2,2,3,3,4,4,5,5,6,6,7,7,8,8,9,9,10,10,11,11,12,12,13,13,14,14,15,15,16,16,17,17,18,18,19,19,20,20,21,21,22,22,23,23,24,24,25,25,26,26,27,27,28,28,29,29,30,30,31,31,32,32,33,33,34,34,35,35,36,36,37,37,38,38,39,39,40,40,41,41,42,42,43,43,44,44,45,45,46,46,47,47,48,48,49,49,50,50,51,51,52,52,53,53,54,54,55,55,56,56,57,57,58,58,59,59,60,60,61,61,62,62],"right_children":[2,4,6,8,10,12,14,16,18,20,22,24,26,28,30,32,34,36,38,40,42,44,46,48,50,52,54,56,58,60,62,64,66,68,70,72,74,76,78,80,82,84,86,88,90,92,94,96,98,100,102,104,106,108,110,112,114,116,118,120,122,124,126,-1,-1,-1,-1,-1,-1,-1,-1,-1,-1,-1,-1,-1,-1,-1,-1,-1,-1,-1,-1,-1,-1,-1,-1,-1,-1,-1,-1,-1,-1,-1,-1,-1,-1,-1,-1,-1,-1,-1,-1,-1,-1,-1,-1,-1,-1,-1,-1,-1,-1,-1,-1,-1,-1,-1,-1,-1,-1,-1,-1,-1,-1,-1,-1],"split_conditions":[1.5278862E0,1.1098E0,3.3060737E0,8.181546E-1,2.8756407E-1,1.8634355E0,3.6641812E0,6.623921E-1,2E0,7.689054E-1,2E0,2E0,9.866588E-1,1.7115816E-1,1.4322251E-1,2.4146147E-1,2E0,3.0645162E-1,2.5E-1,1E0,2E0,6.1835015E-1,1.0801411E0,-8.968735E-1,7.5667113E-1,1.5476042E-1,1.3087319E0,1.307001E-1,2E0,9.283181E-2,2E0,5.8379203E-1,5.395843E-1,3.4780318E-1,7.0741904E-1,4.726634E-1,5.0308645E-1,6.88847E-1,3.5433906E-1,1.3574294E0,4.9060082E-1,9.6668774E-1,1.1387305E0,1.3395844E0,1.0304123E0,3.827672E-1,1.2560866E0,-1.2508292E0,7.689054E-1,3.3620483E-1,2E0,1.1747971E-1,2.9477513E0,1E0,2.3838105E0,7.6362535E-2,2E0,2.5121856E-1,2.6194277E-1,6.3E0,4.0753646E0,3.860462E0,3.9427807E0,-8.046529E-2,-6.889361E-2,-8.280875E-2,-7.954082E-2,-8.101124E-2,-7.35645E-2,-7.4060194E-2,-6.1741967E-2,-6.1824083E-2,-7.597324E-2,-8.035719E-2,-7.5506054E-2,-2.680192E-2,-5.502934E-2,-5.4355737E-2,-7.0520826E-2,9.031078E-3,3.927244E-2,-3.3986386E-2,-9.803353E-3,-5.60411E-2,-7.193589E-2,-2.9377459E-2,-5.9525676E-2,-6.317419E-2,-4.7728445E-2,-6.8949744E-2,-7.868715E-2,-2.984511E-2,-5.1131755E-2,-6.016332E-2,-7.310706E-2,-5.248755E-2,-1.1341135E-2,4.1885987E-2,-6.5170475E-3,-7.925957E-4,-2.6676023E-2,-5.6935396E-2,-2.8206522E-2,5.129331E-2,3.4451544E-2,2.500296E-2,2.281463E-3,2.0739494E-2,-1.1584332E-2,-4.75705E-2,-2.0565396E-2,4.8630282E-2,1.4028626E-2,-1.4164733E-2,4.5498717E-3,-2.8409151E-2,-5.1092204E-2,-1.1958639E-2,-4.0473387E-2,2.626932E-2,-2.3605467E-3,-2.0736383E-2,-4.5002706E-2,-4.858075E-2,-6.173114E-2,-3.2577515E-2,-5.1872283E-2],"split_indices":[8,8,8,8,78,8,8,8,12,7,12,9,7,71,71,72,12,78,78,9,12,7,7,7,7,71,7,71,12,71,12,79,8,24,37,7,79,7,78,8,79,7,7,8,7,78,7,7,7,78,12,78,8,28,8,71,12,71,71,6,8,8,8,0,0,0,0,0,0,0,0,0,0,0,0,0,0,0,0,0,0,0,0,0,0,0,0,0,0,0,0,0,0,0,0,0,0,0,0,0,0,0,0,0,0,0,0,0,0,0,0,0,0,0,0,0,0,0,0,0,0,0,0,0,0,0,0],"split_type":[0,0,0,0,0,0,0,0,0,0,0,0,0,0,0,0,0,0,0,0,0,0,0,0,0,0,0,0,0,0,0,0,0,0,0,0,0,0,0,0,0,0,0,0,0,0,0,0,0,0,0,0,0,0,0,0,0,0,0,0,0,0,0,0,0,0,0,0,0,0,0,0,0,0,0,0,0,0,0,0,0,0,0,0,0,0,0,0,0,0,0,0,0,0,0,0,0,0,0,0,0,0,0,0,0,0,0,0,0,0,0,0,0,0,0,0,0,0,0,0,0,0,0,0,0,0,0],"sum_hessian":[1.6396922E5,3.2293771E4,1.3167545E5,1.3700735E4,1.8593035E4,1.14434125E5,1.724133E4,6.249594E3,7.451141E3,9.559097E3,9.033939E3,2.0712627E4,9.372149E4,1.1261222E4,5.980108E3,3.891127E3,2.3584673E3,3.974136E3,3.4770051E3,7.8666724E3,1.6924244E3,5.2671826E3,3.7667566E3,4.4552417E3,1.6257385E4,8.823661E4,5.484882E3,4.2338525E3,7.027369E3,1.2458666E3,4.734241E3,4.1508997E2,3.476037E3,1.1353629E3,1.2231044E3,2.2108423E3,1.7632937E3,6.8129694E2,2.7957083E3,5.655972E2,7.301075E3,9.4186316E2,7.505613E2,3.796177E3,1.4710054E3,3.287918E3,4.788388E2,4.1707318E2,4.0381687E3,1.2900477E4,3.3569082E3,2.6234127E4,6.2002484E4,3.891227E3,1.5936548E3,1.6006991E3,2.6331536E3,4.121193E3,2.9061765E3,1.5834091E2,1.0875256E3,2.0897505E3,2.6444907E3,2.1358386E2,2.015061E2,2.353784E3,1.1222532E3,9.290419E2,2.0632104E2,7.3860516E2,4.8449924E2,1.5027183E3,7.0812396E2,9.599265E2,8.033672E2,5.207756E2,1.6052135E2,1.959708E3,8.3600024E2,2.2516084E2,3.4043637E2,3.763583E3,3.5374924E3,3.8914316E2,5.5272003E2,4.2107794E2,3.2948334E2,1.8626674E3,1.9335098E3,9.300025E2,5.4100287E2,2.432595E3,8.5532294E2,1.7928395E2,2.9955484E2,1.1252597E2,3.045472E2,3.6714822E3,3.6668643E2,8.793734E3,4.106742E3,1.9554635E3,1.4014448E3,6.469943E3,1.9764184E4,4.944571E4,1.2556774E4,1.0289153E3,2.8623118E3,9.5088837E2,6.427664E2,1.1992117E2,1.480778E3,1.4982694E3,1.1348842E3,3.5022957E3,6.188971E2,2.6361216E3,2.7005487E2,5.6231228E1,1.0210969E2,8.928092E2,1.9471645E2,1.2836033E3,8.0614734E2,1.6920424E3,9.524483E2],"tree_param":{"num_deleted":"0","num_feature":"80","num_nodes":"127","size_leaf_vector":"1"}},{"base_weights":[6.2050894E-5,-9.510871E-1,2.5298822E-1,-1.3111411E0,-6.549086E-1,3.740425E-1,-3.6993724E-1,-1.4879925E0,-1.1536453E0,-5.396866E-1,-1.1337824E0,4.404998E-1,-3.470299E-1,-1.5042783E-1,-6.6696423E-1,-1.5646492E0,-1.4034066E0,-1.3201607E0,-9.55818E-1,-8.0185974E-1,-3.3165273E-1,-1.3130429E0,-9.117897E-1,4.809714E-3,5.154041E-1,-7.7306634E-1,-5.655931E-2,-2.922349E-1,2.5000885E-1,-8.1432307E-1,-3.5907033E-1,-7.956743E-2,-1.5082042E0,-1.5160704E0,-1.2952598E0,-1.361645E0,-9.528698E-1,-4.3076938E-1,-1.03472E0,-8.708134E-1,-2.8854254E-1,-4.2551157E-1,2.15698E-1,-1.212277E0,-1.4767781E0,-7.216044E-1,-1.2496041E0,-1.4791216E-1,5.302558E-1,3.089634E-1,6.328836E-1,-5.57533E-1,-1.0874146E0,6.6685304E-2,-7.1470517E-1,-5.5043757E-1,-1.6331738E-1,1.4098145E-1,4.9899125E-1,-6.928438E-1,-1.0018997E0,-2.0722145E-1,-6.878854E-1,-7.94874E-2,-7.1833424E-2,-7.703389E-2,-6.506126E-2,-7.2429284E-2,-5.8700144E-2,-6.421772E-2,-7.530659E-2,-6.238824E-2,-3.9127346E-2,-1.5093795E-2,-4.635E-2,-4.7482032E-2,-6.9122374E-2,-5.1624656E-2,-3.062566E-2,-3.1136943E-2,1.478629E-2,-3.205564E-2,-5.0138957E-3,-6.6019925E-3,2.7613332E-2,-6.413307E-2,-4.6751555E-2,-7.4916594E-2,-6.1029863E-2,-2.4714038E-2,-4.6596505E-2,-5.616153E-2,-7.022443E-2,-2.4799814E-2,7.583103E-4,-2.303229E-2,3.3367585E-2,1.9233877E-2,2.7453841E-3,-1.2454817E-2,3.2629456E-2,-3.972463E-2,-9.320023E-3,-6.547202E-2,-4.2023852E-2,-1.1148157E-2,1.153115E-2,-4.6376254E-2,-2.3278577E-2,-3.4013398E-2,-1.7016975E-2,-1.4576084E-2,1.4669352E-3,1.9235936E-3,1.9784734E-2,5.100872E-2,2.0775557E-2,-4.3197926E-2,-2.4885295E-2,-6.0920354E-2,-4.584551E-2,-2.0869551E-2,3.8234884E-4,-3.724802E-2,-8.75639E-3],"categories":[],"categories_nodes":[],"categories_segments":[],"categories_sizes":[],"default_left":[0,0,0,0,0,0,0,0,0,0,0,0,0,0,0,0,0,0,0,0,0,0,0,0,0,0,0,0,0,0,0,0,0,0,0,0,0,0,0,0,0,0,0,0,0,0,0,0,0,0,0,0,0,0,0,0,0,0,0,0,0,0,0,0,0,0,0,0,0,0,0,0,0,0,0,0,0,0,0,0,0,0,0,0,0,0,0,0,0,0,0,0,0,0,0,0,0,0,0,0,0,0,0,0,0,0,0,0,0,0,0,0,0,0,0,0,0,0,0,0,0,0,0,0,0],"id":6,"left_children":[1,3,5,7,9,11,13,15,17,19,21,23,25,27,29,31,33,35,37,39,41,43,45,47,49,51,53,55,57,59,61,-1,63,65,67,69,71,73,75,77,79,81,83,85,87,89,91,93,95,97,99,101,103,105,107,109,111,113,115,117,119,121,123,-1,-1,-1,-1,-1,-1,-1,-1,-1,-1,-1,-1,-1,-1,-1,-1,-1,-1,-1,-1,-1,-1,-1,-1,-1,-1,-1,-1,-1,-1,-1,-1,-1,-1,-1,-1,-1,-1,-1,-1,-1,-1,-1,-1,-1,-1,-1,-1,-1,-1,-1,-1,-1,-1,-1,-1,-1,-1,-1,-1,-1,-1],"loss_changes":[3.937155E4,3.6652168E3,9.748944E3,4.3042578E2,1.0402485E3,5.1873613E3,1.371456E3,4.516992E1,2.692168E2,8.2915967E2,1.4435938E2,3.2345195E3,1.1304375E3,6.8704285E2,4.0529077E2,3.3623047E0,4.0467773E1,6.659326E1,1.5516699E2,2.3786963E2,4.3578668E2,3.1559814E1,1.042937E2,1.1669313E3,2.0508965E3,2.503003E2,4.4072128E2,2.973097E2,8.582854E1,1.3705078E2,1.444208E2,0E0,4.989258E0,6.9816895E0,3.1462646E1,4.2748047E1,2.1902802E1,3.1217384E1,9.5275635E1,2.4702979E2,1.560373E2,5.0759717E2,1.4544286E2,2.332666E1,2.3978271E0,4.973932E1,9.939514E0,6.395778E2,4.4517914E2,5.900237E2,9.3691016E2,1.932392E2,8.142908E1,2.1738045E2,4.5005707E1,8.091516E1,1.4723012E2,5.748214E1,4.1486298E1,1.22186646E2,4.2563232E1,8.951102E1,2.6625305E1,0E0,0E0,0E0,0E0,0E0,0E0,0E0,0E0,0E0,0E0,0E0,0E0,0E0,0E0,0E0,0E0,0E0,0E0,0E0,0E0,0E0,0E0,0E0,0E0,0E0,0E0,0E0,0E0,0E0,0E0,0E0,0E0,0E0,0E0,0E0,0E0,0E0,0E0,0E0,0E0,0E0,0E0,0E0,0E0,0E0,0E0,0E0,0E0,0E0,0E0,0E0,0E0,0E0,0E0,0E0,0E0,0E0,0E0,0E0,0E0,0E0,0E0],"parents":[2147483647,0,0,1,1,2,2,3,3,4,4,5,5,6,6,7,7,8,8,9,9,10,10,11,11,12,12,13,13,14,14,15,15,16,16,17,17,18,18,19,19,20,20,21,21,22,22,23,23,24,24,25,25,26,26,27,27,28,28,29,29,30,30,32,32,33,33,34,34,35,35,36,36,37,37,38,38,39,39,40,40,41,41,42,42,43,43,44,44,45,45,46,46,47,47,48,48,49,49,50,50,51,51,52,52,53,53,54,54,55,55,56,56,57,57,58,58,59,59,60,60,61,61,62,62],"right_children":[2,4,6,8,10,12,14,16,18,20,22,24,26,28,30,32,34,36,38,40,42,44,46,48,50,52,54,56,58,60,62,-1,64,66,68,70,72,74,76,78,80,82,84,86,88,90,92,94,96,98,100,102,104,106,108,110,112,114,116,118,120,122,124,-1,-1,-1,-1,-1,-1,-1,-1,-1,-1,-1,-1,-1,-1,-1,-1,-1,-1,-1,-1,-1,-1,-1,-1,-1,-1,-1,-1,-1,-1,-1,-1,-1,-1,-1,-1,-1,-1,-1,-1,-1,-1,-1,-1,-1,-1,-1,-1,-1,-1,-1,-1,-1,-1,-1,-1,-1,-1,-1,-1,-1,-1],"split_conditions":[1.5669959E0,1.1655508E0,3.2183595E0,8.767549E-1,7.689054E-1,9.125427E-1,3.5433276E0,6.623921E-1,2E0,7.09375E-1,2E0,1.8357302E0,2.0489717E0,8.4033614E-1,8.278497E-1,5.395843E-1,2E0,7.9056525E-1,2.5E-1,9.12E1,9.1E1,1.1083732E0,1.2118917E0,9.09E1,7.553522E-1,1.2118917E0,1.3755573E0,7.692308E-1,8.863513E-1,3.7977817E0,3.860462E0,-7.956743E-2,2E0,7.9056525E-1,7.1399033E-1,4.726634E-1,4.598135E-1,7.5667113E-1,8.64405E-1,2E0,8.3E-1,2E0,7.6E-1,7.97614E-1,-1.9E-1,3.121673E-1,1.4647754E0,6.77673E-1,-8.191718E-1,2.8546622E0,-1.2508292E0,2E0,2E0,6.860687E-1,-1.16E0,2E0,2E0,5.9791124E-1,7.6362535E-2,2E0,7.6096326E-1,2E0,9.0453017E-1,-7.94874E-2,-7.1833424E-2,-7.703389E-2,-6.506126E-2,-7.2429284E-2,-5.8700144E-2,-6.421772E-2,-7.530659E-2,-6.238824E-2,-3.9127346E-2,-1.5093795E-2,-4.635E-2,-4.7482032E-2,-6.9122374E-2,-5.1624656E-2,-3.062566E-2,-3.1136943E-2,1.478629E-2,-3.205564E-2,-5.0138957E-3,-6.6019925E-3,2.7613332E-2,-6.413307E-2,-4.6751555E-2,-7.4916594E-2,-6.1029863E-2,-2.4714038E-2,-4.6596505E-2,-5.616153E-2,-7.022443E-2,-2.4799814E-2,7.583103E-4,-2.303229E-2,3.3367585E-2,1.9233877E-2,2.7453841E-3,-1.2454817E-2,3.2629456E-2,-3.972463E-2,-9.320023E-3,-6.547202E-2,-4.2023852E-2,-1.1148157E-2,1.153115E-2,-4.6376254E-2,-2.3278577E-2,-3.4013398E-2,-1.7016975E-2,-1.4576084E-2,1.4669352E-3,1.9235936E-3,1.9784734E-2,5.100872E-2,2.0775557E-2,-4.3197926E-2,-2.4885295E-2,-6.0920354E-2,-4.584551E-2,-2.0869551E-2,3.8234884E-4,-3.724802E-2,-8.75639E-3],"split_indices":[8,8,8,8,7,7,8,8,12,31,12,8,8,30,30,8,12,31,72,0,0,7,7,0,25,7,7,30,30,8,8,0,12,31,31,7,77,7,7,12,3,12,3,25,4,72,7,31,7,8,7,12,12,31,4,12,12,79,71,12,30,12,30,0,0,0,0,0,0,0,0,0,0,0,0,0,0,0,0,0,0,0,0,0,0,0,0,0,0,0,0,0,0,0,0,0,0,0,0,0,0,0,0,0,0,0,0,0,0,0,0,0,0,0,0,0,0,0,0,0,0,0,0,0,0],"split_type":[0,0,0,0,0,0,0,0,0,0,0,0,0,0,0,0,0,0,0,0,0,0,0,0,0,0,0,0,0,0,0,0,0,0,0,0,0,0,0,0,0,0,0,0,0,0,0,0,0,0,0,0,0,0,0,0,0,0,0,0,0,0,0,0,0,0,0,0,0,0,0,0,0,0,0,0,0,0,0,0,0,0,0,0,0,0,0,0,0,0,0,0,0,0,0,0,0,0,0,0,0,0,0,0,0,0,0,0,0,0,0,0,0,0,0,0,0,0,0,0,0,0,0,0,0],"sum_hessian":[1.6365708E5,3.437697E4,1.2928012E5,1.5513869E4,1.88631E4,1.0824505E5,2.103507E4,7.303903E3,8.209966E3,1.5206408E4,3.6566914E3,9.911092E4,9.134124E3,1.2096787E4,8.938283E3,3.8223586E3,3.481544E3,4.454686E3,3.75528E3,6.726514E3,8.479894E3,2.0203401E3,1.6363513E3,1.4539747E4,8.457118E4,3.7022827E3,5.431841E3,8.933446E3,3.1633408E3,6.043975E3,2.8943079E3,2.5764612E3,1.2458976E3,1.6987856E3,1.7827584E3,4.0001729E3,4.5451318E2,4.9144504E2,3.263835E3,5.929333E3,7.9718134E2,7.2388154E3,1.2410782E3,1.2558625E3,7.6447754E2,1.0489447E3,5.874067E2,1.1265985E4,3.273761E3,3.067362E4,5.389756E4,2.1979968E3,1.504286E3,4.575862E3,8.5597876E2,2.9738984E3,5.959548E3,2.2010742E3,9.622665E2,3.6711445E3,2.3728306E3,1.9810681E3,9.132396E2,5.7230383E2,6.7359375E2,1.5186722E3,1.8011346E2,7.8243976E2,1.00031866E3,2.6125332E3,1.3876398E3,1.640877E2,2.9042548E2,3.9139136E2,1.0005368E2,2.625242E3,6.385931E2,3.644874E3,2.284459E3,5.0707382E2,2.9010754E2,4.3525127E3,2.8863025E3,6.1070966E2,6.3036865E2,9.986974E2,2.5716516E2,7.006778E2,6.3799767E1,5.0571213E2,5.4323254E2,3.280202E2,2.5938647E2,3.5935845E3,7.672401E3,3.9760358E2,2.8761575E3,2.3630656E4,7.0429634E3,1.1776243E3,5.2719934E4,1.3407916E3,8.572052E2,7.898318E2,7.144542E2,1.6537041E3,2.922158E3,4.6016464E2,3.9581415E2,1.8366813E3,1.1372172E3,3.5780183E3,2.3815295E3,1.570269E3,6.3080524E2,1.3130193E2,8.3096454E2,1.9541444E3,1.7170001E3,6.6512225E2,1.7077083E3,1.0010081E3,9.8006006E2,8.213612E2,9.1878456E1],"tree_param":{"num_deleted":"0","num_feature":"80","num_nodes":"125","size_leaf_vector":"1"}},{"base_weights":[5.4701115E-4,-9.518672E-1,2.3175062E-1,-1.2834239E0,-6.806582E-1,3.4586158E-1,-3.45581E-1,-1.4370372E0,-1.1283631E0,-5.693127E-1,-1.114011E0,-5.181326E-2,4.6597674E-1,-1.1111768E-1,-5.9977597E-1,-1.5121081E0,-1.3543533E0,-1.2880219E0,-9.414181E-1,-8.15461E-1,-3.7652186E-1,-1.2854004E0,-9.065655E-1,7.861057E-2,-7.286397E-1,5.000828E-1,-3.1730536E-1,-2.492141E-1,2.7794948E-1,-7.810365E-1,-3.5684484E-1,-1.3879822E0,-1.5259165E0,-1.4662127E0,-1.2467533E0,-8.911902E-1,-1.3273464E0,-4.6986383E-1,-1.0277036E0,-9.8821956E-1,-6.3948715E-1,-5.2977794E-1,-7.7457234E-2,-1.1798186E0,-1.4270655E0,-6.882925E-1,-1.1994725E0,-1.00767784E-1,5.559523E-1,-9.4259286E-1,-4.2247787E-1,7.4510306E-1,4.0081123E-1,-1.8921216E-1,-8.647056E-1,-5.020288E-1,-1.2948108E-1,1.6371247E-1,5.172765E-1,-9.8398024E-1,-6.743368E-1,-1.8143417E-1,-5.943989E-1,-7.314857E-2,-6.097394E-2,-7.7401124E-2,-7.39462E-2,-6.5790005E-2,-7.483919E-2,-7.2012715E-2,-5.7750016E-2,-5.4636147E-2,-2.7653089E-2,-6.307795E-2,-7.3479116E-2,-1.3784029E-2,-4.5595936E-2,-6.258918E-2,-4.5906E-2,-5.636375E-2,-3.9056897E-2,-3.6416903E-2,-8.702021E-3,-3.166325E-2,3.2225733E-3,-1.2188443E-2,1.2221713E-2,-5.050363E-2,-6.562307E-2,-6.0019076E-2,-7.2575115E-2,-5.549682E-2,-2.8601909E-2,-6.2419105E-2,-3.652817E-2,2.0548673E-2,-1.0429161E-2,-1.9606842E-2,3.473244E-2,-3.5223857E-2,-6.0144275E-2,-1.060005E-2,-4.9459796E-2,7.6842855E-4,3.8356077E-2,2.4096008E-2,7.4041486E-3,-2.0344857E-2,4.9776835E-3,-5.362578E-2,-2.9003164E-2,-3.6409978E-2,-1.9690938E-2,-1.2029346E-2,2.076549E-3,1.8635402E-3,1.771949E-2,4.9173586E-2,2.2868304E-2,-4.25438E-2,-5.61705E-2,-2.8065894E-2,-4.473591E-2,-1.3467709E-2,1.3894999E-2,-3.35461E-2,-1.2153763E-2],"categories":[],"categories_nodes":[],"categories_segments":[],"categories_sizes":[],"default_left":[0,0,0,0,0,0,0,0,0,0,0,0,0,0,0,0,0,0,0,0,0,0,0,0,0,0,0,0,0,0,0,0,0,0,0,0,0,0,0,0,0,0,0,0,0,0,0,0,0,0,0,0,0,0,0,0,0,0,0,0,0,0,0,0,0,0,0,0,0,0,0,0,0,0,0,0,0,0,0,0,0,0,0,0,0,0,0,0,0,0,0,0,0,0,0,0,0,0,0,0,0,0,0,0,0,0,0,0,0,0,0,0,0,0,0,0,0,0,0,0,0,0,0,0,0,0,0],"id":7,"left_children":[1,3,5,7,9,11,13,15,17,19,21,23,25,27,29,31,33,35,37,39,41,43,45,47,49,51,53,55,57,59,61,63,65,67,69,71,73,75,77,79,81,83,85,87,89,91,93,95,97,99,101,103,105,107,109,111,113,115,117,119,121,123,125,-1,-1,-1,-1,-1,-1,-1,-1,-1,-1,-1,-1,-1,-1,-1,-1,-1,-1,-1,-1,-1,-1,-1,-1,-1,-1,-1,-1,-1,-1,-1,-1,-1,-1,-1,-1,-1,-1,-1,-1,-1,-1,-1,-1,-1,-1,-1,-1,-1,-1,-1,-1,-1,-1,-1,-1,-1,-1,-1,-1,-1,-1,-1,-1],"loss_changes":[3.589002E4,2.8619746E3,8.640249E3,3.395625E2,8.444756E2,5.2307803E3,1.2899363E3,4.2591797E1,2.1168848E2,6.61042E2,1.2608984E2,2.2425576E3,2.246955E3,6.050825E2,4.5701514E2,4.328125E0,3.9479492E1,5.881201E1,1.3335815E2,1.8542969E2,3.5824194E2,2.7595947E1,1.0291797E2,1.8238895E3,2.6846216E2,1.9600488E3,2.4594327E2,2.5151782E2,8.057623E1,1.2810425E2,1.8488226E2,3.113037E0,1.215332E0,5.741699E0,2.9512451E1,2.3223694E1,3.0858398E1,4.3582138E1,6.710986E1,8.799805E1,1.253761E2,3.178656E2,1.4191266E2,2.4058105E1,2.8616943E0,4.5056732E1,1.4947754E1,8.5434534E2,7.6534265E2,1.4884961E2,2.0140115E2,3.7335254E2,1.1756914E3,1.7891415E2,3.873111E1,6.5078E1,1.07199524E2,4.816997E1,2.6161255E1,3.703296E1,9.665222E1,1.0326559E2,5.0521057E1,0E0,0E0,0E0,0E0,0E0,0E0,0E0,0E0,0E0,0E0,0E0,0E0,0E0,0E0,0E0,0E0,0E0,0E0,0E0,0E0,0E0,0E0,0E0,0E0,0E0,0E0,0E0,0E0,0E0,0E0,0E0,0E0,0E0,0E0,0E0,0E0,0E0,0E0,0E0,0E0,0E0,0E0,0E0,0E0,0E0,0E0,0E0,0E0,0E0,0E0,0E0,0E0,0E0,0E0,0E0,0E0,0E0,0E0,0E0,0E0,0E0,0E0,0E0,0E0],"parents":[2147483647,0,0,1,1,2,2,3,3,4,4,5,5,6,6,7,7,8,8,9,9,10,10,11,11,12,12,13,13,14,14,15,15,16,16,17,17,18,18,19,19,20,20,21,21,22,22,23,23,24,24,25,25,26,26,27,27,28,28,29,29,30,30,31,31,32,32,33,33,34,34,35,35,36,36,37,37,38,38,39,39,40,40,41,41,42,42,43,43,44,44,45,45,46,46,47,47,48,48,49,49,50,50,51,51,52,52,53,53,54,54,55,55,56,56,57,57,58,58,59,59,60,60,61,61,62,62],"right_children":[2,4,6,8,10,12,14,16,18,20,22,24,26,28,30,32,34,36,38,40,42,44,46,48,50,52,54,56,58,60,62,64,66,68,70,72,74,76,78,80,82,84,86,88,90,92,94,96,98,100,102,104,106,108,110,112,114,116,118,120,122,124,126,-1,-1,-1,-1,-1,-1,-1,-1,-1,-1,-1,-1,-1,-1,-1,-1,-1,-1,-1,-1,-1,-1,-1,-1,-1,-1,-1,-1,-1,-1,-1,-1,-1,-1,-1,-1,-1,-1,-1,-1,-1,-1,-1,-1,-1,-1,-1,-1,-1,-1,-1,-1,-1,-1,-1,-1,-1,-1,-1,-1,-1,-1,-1,-1],"split_conditions":[1.5278862E0,1.1384876E0,3.2045987E0,8.767549E-1,7.447861E-1,1.9341301E0,3.4940531E0,6.623921E-1,2E0,7.09375E-1,2E0,7.941064E-1,1.0801411E0,8.4033614E-1,8.0643433E-1,2.1358724E-1,2E0,2.1358724E-1,2.3541088E-1,1.3574294E0,5.567515E-1,1.0543206E0,1.1387305E0,9.01E1,2E0,1.543901E-1,1.4647754E0,7.68298E-1,8.85164E-1,7.6243585E-1,3.7469606E0,5.395843E-1,5.395843E-1,2.4173748E-1,6.8491733E-1,3.0546293E-1,5.2918154E-1,5.8135563E-1,6.7352414E-1,2E0,9.04E1,9.07E1,7.329402E-1,3.0890805E-1,2.2486144E-1,6.1908394E-1,1E-2,2.4173748E-1,-8.191718E-1,1.0543206E0,1.3087319E0,-1.1625911E0,2.8457575E0,2E0,-1.16E0,7.188552E-1,2E0,2E0,6.6622905E-2,3.7026575E0,3.7977817E0,8.893617E-1,8.86424E-1,-7.314857E-2,-6.097394E-2,-7.7401124E-2,-7.39462E-2,-6.5790005E-2,-7.483919E-2,-7.2012715E-2,-5.7750016E-2,-5.4636147E-2,-2.7653089E-2,-6.307795E-2,-7.3479116E-2,-1.3784029E-2,-4.5595936E-2,-6.258918E-2,-4.5906E-2,-5.636375E-2,-3.9056897E-2,-3.6416903E-2,-8.702021E-3,-3.166325E-2,3.2225733E-3,-1.2188443E-2,1.2221713E-2,-5.050363E-2,-6.562307E-2,-6.0019076E-2,-7.2575115E-2,-5.549682E-2,-2.8601909E-2,-6.2419105E-2,-3.652817E-2,2.0548673E-2,-1.0429161E-2,-1.9606842E-2,3.473244E-2,-3.5223857E-2,-6.0144275E-2,-1.060005E-2,-4.9459796E-2,7.6842855E-4,3.8356077E-2,2.4096008E-2,7.4041486E-3,-2.0344857E-2,4.9776835E-3,-5.362578E-2,-2.9003164E-2,-3.6409978E-2,-1.9690938E-2,-1.2029346E-2,2.076549E-3,1.8635402E-3,1.771949E-2,4.9173586E-2,2.2868304E-2,-4.25438E-2,-5.61705E-2,-2.8065894E-2,-4.473591E-2,-1.3467709E-2,1.3894999E-2,-3.35461E-2,-1.2153763E-2],"split_indices":[8,8,8,8,7,8,8,8,12,31,12,7,7,30,30,73,12,73,73,8,79,7,7,0,12,71,7,30,30,30,8,8,8,73,31,24,7,7,31,12,0,0,37,72,73,37,4,73,7,7,7,7,8,12,4,30,12,12,71,8,8,30,30,0,0,0,0,0,0,0,0,0,0,0,0,0,0,0,0,0,0,0,0,0,0,0,0,0,0,0,0,0,0,0,0,0,0,0,0,0,0,0,0,0,0,0,0,0,0,0,0,0,0,0,0,0,0,0,0,0,0,0,0,0,0,0,0],"split_type":[0,0,0,0,0,0,0,0,0,0,0,0,0,0,0,0,0,0,0,0,0,0,0,0,0,0,0,0,0,0,0,0,0,0,0,0,0,0,0,0,0,0,0,0,0,0,0,0,0,0,0,0,0,0,0,0,0,0,0,0,0,0,0,0,0,0,0,0,0,0,0,0,0,0,0,0,0,0,0,0,0,0,0,0,0,0,0,0,0,0,0,0,0,0,0,0,0,0,0,0,0,0,0,0,0,0,0,0,0,0,0,0,0,0,0,0,0,0,0,0,0,0,0,0,0,0,0],"sum_hessian":[1.6298508E5,3.1836305E4,1.3114877E5,1.432278E4,1.7513523E4,1.0950521E5,2.1643562E4,7.1908228E3,7.1319575E3,1.3935305E4,3.578219E3,2.5402773E4,8.410244E4,1.1259505E4,1.0384059E4,3.7598562E3,3.4309663E3,3.8435305E3,3.288427E3,6.1192446E3,7.81606E3,1.9565452E3,1.621674E3,2.12993E4,4.1034717E3,8.0593555E4,3.508884E3,8.310217E3,2.9492886E3,5.945598E3,4.43846E3,3.865545E2,3.3733018E3,1.6759984E3,1.754968E3,3.4867212E2,3.4948584E3,5.0964417E2,2.778783E3,3.0855022E3,3.0337422E3,5.1672993E3,2.6487607E3,1.1263866E3,8.301585E2,9.311416E2,6.9053235E2,1.5482124E4,5.817177E3,2.4142546E3,1.6892172E3,2.3236111E4,5.7357438E4,2.8445881E3,6.642959E2,2.6697922E3,5.6404243E3,1.9975095E3,9.51779E2,2.0459535E3,3.8996445E3,2.5541968E3,1.8842635E3,2.6218985E2,1.2436465E2,2.2723875E3,1.1009144E3,2.9054205E2,1.3854564E3,5.5976465E2,1.1952034E3,2.1706462E2,1.316075E2,2.3963552E3,1.0985032E3,3.5522614E2,1.5441803E2,9.0920026E2,1.8695826E3,1.843289E3,1.2422133E3,2.5469756E3,4.8676666E2,4.400817E3,7.664825E2,1.746592E3,9.0216876E2,4.978678E2,6.285188E2,8.5660866E1,7.444977E2,1.9939755E2,7.317441E2,6.238042E2,6.672814E1,2.6937144E3,1.278841E4,7.421594E2,5.0750176E3,1.2627747E3,1.1514799E3,1.232752E3,4.564652E2,6.80624E2,2.2555488E4,4.3421215E4,1.3936225E4,1.621681E3,1.222907E3,3.8236966E2,2.8192624E2,8.62126E2,1.8076663E3,3.4188223E3,2.221602E3,1.2017815E3,7.95728E2,1.0662866E2,8.451503E2,1.0503536E3,9.9559985E2,2.5800535E3,1.3195911E3,2.1441953E3,4.1000143E2,1.5465038E3,3.377597E2],"tree_param":{"num_deleted":"0","num_feature":"80","num_nodes":"127","size_leaf_vector":"1"}},{"base_weights":[6.760813E-5,-9.4219106E-1,2.1388033E-1,-1.3027264E0,-7.273874E-1,3.1068316E-1,-3.8396204E-1,-1.4142748E0,-1.1764289E0,-4.131004E-2,-8.043712E-1,-1.03823684E-1,4.1694924E-1,-2.3056668E-1,-7.085972E-1,-1.4925133E0,-1.3582735E0,-1.3197225E0,-1.020435E0,-2.6468694E-1,3.4548602E-1,-9.8199296E-1,-5.622792E-1,5.860717E-1,-2.918898E-1,2.1634926E-1,5.329836E-1,-4.0842187E-1,5.119055E-2,-8.7645847E-1,-5.1382285E-1,-1.3946253E0,-7.51482E-2,-1.4544022E0,-1.2713058E0,-9.922558E-1,-1.3541784E0,-5.223412E-1,-1.0820682E0,-5.709995E-1,-6.789806E-2,9.64392E-2,6.349056E-1,-4.588738E-1,-1.0339712E0,-1.1632518E-1,-6.721155E-1,3.0833468E-1,7.558519E-1,-6.608546E-1,-1.5560363E-1,2.7259362E-1,-9.660584E-2,7.876508E-1,4.691721E-1,-5.4219294E-1,-2.1743374E-1,2.8268397E-1,-8.420301E-2,-9.456383E-1,-6.3601595E-1,-6.354679E-2,-5.757442E-1,-7.236571E-2,-6.277405E-2,-6.4249456E-2,-7.3627114E-2,-4.9717125E-2,-6.596393E-2,-3.6156837E-2,-5.6896146E-2,-5.0972816E-2,-6.8713106E-2,-3.3386655E-2,-8.073409E-3,-4.918879E-2,-6.520454E-2,-4.3662816E-2,-1.9778876E-2,-1.9389391E-2,5.7715047E-3,1.2042262E-2,-1.8287538E-2,2.4296267E-2,4.528457E-2,-3.220508E-2,-7.4188695E-3,-5.751848E-2,-4.359061E-2,-1.5914243E-2,6.006557E-3,-4.028971E-2,-2.318174E-2,7.5135245E-3,3.0347988E-2,4.0468123E-2,2.8765097E-2,-1.1119212E-2,-3.7230525E-2,1.5791975E-3,-2.201424E-2,1.944787E-2,5.590589E-3,3.902904E-3,-1.8866591E-2,4.5159295E-2,3.209766E-2,2.6366776E-2,8.659037E-3,-3.6169108E-2,-2.0301549E-2,-3.235961E-2,-7.944672E-3,1.1592778E-2,4.141804E-2,2.249844E-3,-1.1611331E-2,-5.402679E-2,-4.17071E-2,-2.6607335E-2,-4.2142656E-2,6.9715916E-3,-1.7542116E-2,-2.2093793E-2,-3.6531713E-2],"categories":[],"categories_nodes":[],"categories_segments":[],"categories_sizes":[],"default_left":[0,0,0,0,0,0,0,0,0,0,0,0,0,0,0,0,0,0,0,0,0,0,0,0,0,0,0,0,0,0,0,0,0,0,0,0,0,0,0,0,0,0,0,0,0,0,0,0,0,0,0,0,0,0,0,0,0,0,0,0,0,0,0,0,0,0,0,0,0,0,0,0,0,0,0,0,0,0,0,0,0,0,0,0,0,0,0,0,0,0,0,0,0,0,0,0,0,0,0,0,0,0,0,0,0,0,0,0,0,0,0,0,0,0,0,0,0,0,0,0,0,0,0,0,0],"id":8,"left_children":[1,3,5,7,9,11,13,15,17,19,21,23,25,27,29,31,33,35,37,39,41,43,45,47,49,51,53,55,57,59,61,63,-1,65,67,69,71,73,75,77,79,81,83,85,87,89,91,93,95,97,99,101,103,105,107,109,111,113,115,117,119,121,123,-1,-1,-1,-1,-1,-1,-1,-1,-1,-1,-1,-1,-1,-1,-1,-1,-1,-1,-1,-1,-1,-1,-1,-1,-1,-1,-1,-1,-1,-1,-1,-1,-1,-1,-1,-1,-1,-1,-1,-1,-1,-1,-1,-1,-1,-1,-1,-1,-1,-1,-1,-1,-1,-1,-1,-1,-1,-1,-1,-1,-1,-1],"loss_changes":[3.2737174E4,2.3264766E3,7.6648667E3,1.5639258E2,9.947637E2,5.020867E3,9.189441E2,2.4052734E1,1.163999E2,1.6436345E2,7.276494E2,3.018063E3,2.1116748E3,6.282115E2,1.9317505E2,4.3408203E-1,2.7247559E1,2.9596191E1,7.699463E1,7.264568E1,5.0139267E1,2.6508594E2,3.5107422E2,2.3472742E2,9.1901294E2,5.8528064E2,9.336865E2,1.9622168E2,1.5209288E2,5.2284424E1,7.646344E1,3.363037E-2,0E0,3.166504E0,2.3071533E1,9.5578E0,1.5259766E1,1.4589935E1,4.7760742E1,2.4655563E1,4.3165478E1,2.5151491E1,1.2547668E1,5.0775238E1,1.6666602E2,6.775258E1,1.599331E2,8.9218506E1,2.9404663E1,1.8088794E2,7.1137427E2,5.272634E2,2.4842896E2,1.932539E2,7.912168E2,1.1118921E2,7.957701E1,4.9474915E1,5.8572067E1,3.620337E1,1.4879089E1,1.9457508E1,4.9687805E1,0E0,0E0,0E0,0E0,0E0,0E0,0E0,0E0,0E0,0E0,0E0,0E0,0E0,0E0,0E0,0E0,0E0,0E0,0E0,0E0,0E0,0E0,0E0,0E0,0E0,0E0,0E0,0E0,0E0,0E0,0E0,0E0,0E0,0E0,0E0,0E0,0E0,0E0,0E0,0E0,0E0,0E0,0E0,0E0,0E0,0E0,0E0,0E0,0E0,0E0,0E0,0E0,0E0,0E0,0E0,0E0,0E0,0E0,0E0,0E0,0E0,0E0],"parents":[2147483647,0,0,1,1,2,2,3,3,4,4,5,5,6,6,7,7,8,8,9,9,10,10,11,11,12,12,13,13,14,14,15,15,16,16,17,17,18,18,19,19,20,20,21,21,22,22,23,23,24,24,25,25,26,26,27,27,28,28,29,29,30,30,31,31,33,33,34,34,35,35,36,36,37,37,38,38,39,39,40,40,41,41,42,42,43,43,44,44,45,45,46,46,47,47,48,48,49,49,50,50,51,51,52,52,53,53,54,54,55,55,56,56,57,57,58,58,59,59,60,60,61,61,62,62],"right_children":[2,4,6,8,10,12,14,16,18,20,22,24,26,28,30,32,34,36,38,40,42,44,46,48,50,52,54,56,58,60,62,64,-1,66,68,70,72,74,76,78,80,82,84,86,88,90,92,94,96,98,100,102,104,106,108,110,112,114,116,118,120,122,124,-1,-1,-1,-1,-1,-1,-1,-1,-1,-1,-1,-1,-1,-1,-1,-1,-1,-1,-1,-1,-1,-1,-1,-1,-1,-1,-1,-1,-1,-1,-1,-1,-1,-1,-1,-1,-1,-1,-1,-1,-1,-1,-1,-1,-1,-1,-1,-1,-1,-1,-1,-1,-1,-1,-1,-1,-1,-1,-1,-1,-1,-1],"split_conditions":[1.5001836E0,1.0460532E0,3.2752805E0,8.181546E-1,2E0,1.8815557E0,3.6641812E0,5.395843E-1,2E0,9.3E-1,2E0,2E0,7.553522E-1,8.142314E-1,8.0138E-1,2.1358724E-1,2E0,2.1358724E-1,2.4146147E-1,6.541555E-1,1.3746953E0,2.1358724E-1,2.4823196E-1,7.5E-1,1E0,3.00774E0,1.2118891E-1,2E0,1.307001E-1,7.7697015E-1,1.0725678E-1,5.119511E-1,-7.51482E-2,2.1358724E-1,2.3180076E-1,2.5026123E1,2E0,3.1923985E-1,3.4042552E-1,1.2808875E0,1.2808875E0,3.3052436E-1,8.825851E-1,1.3574294E0,1.3395844E0,1.3017206E0,1.3395844E0,8.859416E-1,2.6001996E-1,2.4404761E-1,3.136289E-1,3E0,2.2735043E-1,2E0,2.977265E0,7.717453E-1,7.188552E-1,9.2615384E-1,3.450076E0,2E0,3.9427807E0,6.6E0,3.860462E0,-7.236571E-2,-6.277405E-2,-6.4249456E-2,-7.3627114E-2,-4.9717125E-2,-6.596393E-2,-3.6156837E-2,-5.6896146E-2,-5.0972816E-2,-6.8713106E-2,-3.3386655E-2,-8.073409E-3,-4.918879E-2,-6.520454E-2,-4.3662816E-2,-1.9778876E-2,-1.9389391E-2,5.7715047E-3,1.2042262E-2,-1.8287538E-2,2.4296267E-2,4.528457E-2,-3.220508E-2,-7.4188695E-3,-5.751848E-2,-4.359061E-2,-1.5914243E-2,6.006557E-3,-4.028971E-2,-2.318174E-2,7.5135245E-3,3.0347988E-2,4.0468123E-2,2.8765097E-2,-1.1119212E-2,-3.7230525E-2,1.5791975E-3,-2.201424E-2,1.944787E-2,5.590589E-3,3.902904E-3,-1.8866591E-2,4.5159295E-2,3.209766E-2,2.6366776E-2,8.659037E-3,-3.6169108E-2,-2.0301549E-2,-3.235961E-2,-7.944672E-3,1.1592778E-2,4.141804E-2,2.249844E-3,-1.1611331E-2,-5.402679E-2,-4.17071E-2,-2.6607335E-2,-4.2142656E-2,6.9715916E-3,-1.7542116E-2,-2.2093793E-2,-3.6531713E-2],"split_indices":[8,8,8,8,9,8,8,8,12,3,12,9,25,30,30,73,12,73,72,39,8,73,73,3,12,8,71,12,71,37,71,77,0,73,73,1,9,24,73,8,8,73,36,8,8,8,8,36,27,73,73,9,71,9,8,30,30,30,8,12,8,6,8,0,0,0,0,0,0,0,0,0,0,0,0,0,0,0,0,0,0,0,0,0,0,0,0,0,0,0,0,0,0,0,0,0,0,0,0,0,0,0,0,0,0,0,0,0,0,0,0,0,0,0,0,0,0,0,0,0,0,0,0,0,0],"split_type":[0,0,0,0,0,0,0,0,0,0,0,0,0,0,0,0,0,0,0,0,0,0,0,0,0,0,0,0,0,0,0,0,0,0,0,0,0,0,0,0,0,0,0,0,0,0,0,0,0,0,0,0,0,0,0,0,0,0,0,0,0,0,0,0,0,0,0,0,0,0,0,0,0,0,0,0,0,0,0,0,0,0,0,0,0,0,0,0,0,0,0,0,0,0,0,0,0,0,0,0,0,0,0,0,0,0,0,0,0,0,0,0,0,0,0,0,0,0,0,0,0,0,0,0,0],"sum_hessian":[1.6249206E5,3.00519E4,1.3244017E5,1.121803E4,1.8833871E4,1.1398427E5,1.8455893E4,5.9514194E3,5.266611E3,1.9002677E3,1.6933604E4,2.325901E4,9.072526E4,1.2534737E4,5.921156E3,2.4720725E3,3.479347E3,2.7411606E3,2.52545E3,1.2048029E3,6.954647E2,9.765581E3,7.168022E3,4.9818057E3,1.8277205E4,3.3248383E4,5.747688E4,7.683923E3,4.850815E3,3.1784185E3,2.7427373E3,2.51433E2,2.2206394E3,1.645163E3,1.834184E3,2.6380142E2,2.4773594E3,2.7912787E2,2.246322E3,4.7051663E2,7.3428625E2,3.74521E2,3.2094376E2,8.835168E2,8.882064E3,1.416964E3,5.751058E3,1.8910778E3,3.0907278E3,4.929047E3,1.3348158E4,2.8183387E4,5.064996E3,1.1513995E4,4.5962883E4,4.5177686E3,3.1661543E3,1.7897114E3,3.0611035E3,2.4659773E3,7.1244116E2,3.3182413E2,2.410913E3,1.7555524E2,7.5877754E1,1.6606851E2,1.4790945E3,2.7400204E2,1.5601819E3,9.473797E1,1.6906346E2,1.4315987E2,2.3341995E3,1.9836029E2,8.076758E1,1.5607764E3,6.855456E2,1.7133086E2,2.9918576E2,2.6710275E2,4.6718353E2,2.8572754E2,8.879345E1,2.088395E2,1.1210426E2,5.5271704E2,3.3079974E2,5.167045E3,3.7150195E3,7.640421E2,6.529219E2,3.502424E3,2.2486338E3,1.237542E3,6.5353577E2,2.381444E3,7.092837E2,7.911182E2,4.137928E3,8.053558E3,5.2946E3,1.6349341E4,1.1834046E4,3.1227717E3,1.9422244E3,6.418815E3,5.09518E3,3.841367E4,7.5492114E3,1.936533E3,2.5812356E3,3.7837262E2,2.7877817E3,1.638513E3,1.5119847E2,1.6348492E3,1.4262543E3,1.1119529E3,1.3540244E3,4.7665015E2,2.35791E2,1.9474706E2,1.3707706E2,1.295281E3,1.1156322E3],"tree_param":{"num_deleted":"0","num_feature":"80","num_nodes":"125","size_leaf_vector":"1"}},{"base_weights":[-1.5609525E-3,-8.206879E-1,2.2325695E-1,-1.1121359E0,-4.922012E-1,3.3324283E-1,-3.1491357E-1,-1.3038292E0,-9.2855734E-1,2.2631395E-1,-6.006169E-1,4.766047E-1,5.6152776E-2,-1.0620352E-1,-5.436212E-1,-1.424257E0,-1.2235523E0,-7.737907E-1,-1.1496099E0,-4.6445027E-1,3.4828585E-1,-7.7654856E-1,-3.452345E-1,5.133314E-1,-1.6616976E-1,-2.3606443E-1,2.6747724E-1,-2.718603E-1,1.5131298E-1,-7.238838E-1,-3.308014E-1,-1.2930764E0,-1.4387115E0,-1.3471353E0,-1.1016091E0,-9.5713997E-1,-5.3793067E-1,-1.282519E0,-9.866248E-1,-9.0994763E-1,-1.7485921E-1,7.3265575E-2,6.016198E-1,-6.569935E-1,-1.136055E0,-2.3025091E-1,-8.963136E-1,4.09869E-1,7.0737565E-1,-1.5732627E-3,-6.1030483E-1,-1.0141791E-1,-7.2796124E-1,5.799124E-1,1.18829265E-1,-6.6978735E-1,-2.0359011E-1,3.595036E-1,2.7572948E-2,-6.0456383E-1,-8.909541E-1,-1.9712082E-1,-5.8359146E-1,-7.037871E-2,-5.9083134E-2,-7.305928E-2,-6.95711E-2,-5.4531116E-2,-6.872865E-2,-4.904015E-2,-6.337541E-2,-4.3680165E-2,-6.531532E-2,-2.051646E-2,-4.78522E-2,-6.1401695E-2,-7.041468E-2,-4.5560665E-2,-6.463922E-2,-5.8264196E-2,-3.405134E-2,-2.1499867E-2,7.218445E-3,1.254975E-2,-1.9718526E-2,3.5448577E-2,-1.4287317E-2,-1.0410929E-2,-3.7474643E-2,-5.1284816E-2,-6.681844E-2,-2.5143388E-3,-2.6959052E-2,-3.4591734E-2,-5.6017518E-2,2.5037546E-2,8.156808E-3,-3.989333E-3,3.6799382E-2,-1.9666886E-2,6.569306E-3,-4.3919105E-2,-1.3750351E-2,-4.2322066E-2,-1.4393359E-3,-4.7003638E-2,-2.1114733E-2,3.3463337E-2,-2.2788695E-3,9.004629E-3,-1.694779E-2,-3.9606128E-2,-2.3176936E-2,-1.5834495E-2,-1.3990666E-3,1.1404892E-2,2.771858E-2,-1.0102895E-2,6.502925E-3,-3.740617E-2,-2.146876E-2,-4.8403826E-2,-3.452643E-2,-1.8744655E-2,-1.1194114E-5,-3.4828406E-2,-1.7458146E-2],"categories":[],"categories_nodes":[],"categories_segments":[],"categories_sizes":[],"default_left":[0,0,0,0,0,0,0,0,0,0,0,0,0,0,0,0,0,0,0,0,0,0,0,0,0,0,0,0,0,0,0,0,0,0,0,0,0,0,0,0,0,0,0,0,0,0,0,0,0,0,0,0,0,0,0,0,0,0,0,0,0,0,0,0,0,0,0,0,0,0,0,0,0,0,0,0,0,0,0,0,0,0,0,0,0,0,0,0,0,0,0,0,0,0,0,0,0,0,0,0,0,0,0,0,0,0,0,0,0,0,0,0,0,0,0,0,0,0,0,0,0,0,0,0,0,0,0],"id":9,"left_children":[1,3,5,7,9,11,13,15,17,19,21,23,25,27,29,31,33,35,37,39,41,43,45,47,49,51,53,55,57,59,61,63,65,67,69,71,73,75,77,79,81,83,85,87,89,91,93,95,97,99,101,103,105,107,109,111,113,115,117,119,121,123,125,-1,-1,-1,-1,-1,-1,-1,-1,-1,-1,-1,-1,-1,-1,-1,-1,-1,-1,-1,-1,-1,-1,-1,-1,-1,-1,-1,-1,-1,-1,-1,-1,-1,-1,-1,-1,-1,-1,-1,-1,-1,-1,-1,-1,-1,-1,-1,-1,-1,-1,-1,-1,-1,-1,-1,-1,-1,-1,-1,-1,-1,-1,-1,-1],"loss_changes":[2.9833873E4,3.3395566E3,7.524266E3,6.493125E2,1.2779614E3,4.192714E3,1.0295996E3,8.565625E1,3.222788E2,1.8142206E2,6.4013574E2,1.6421406E3,2.2225022E3,4.812295E2,3.946023E2,4.984375E0,8.036963E1,2.3989038E2,8.295654E1,4.1549873E1,1.2739041E2,3.6195508E2,3.6830725E2,1.3207031E3,2.748911E2,1.0003248E3,9.6993445E2,1.86349E2,1.1375971E2,1.1052734E2,1.5944543E2,3.0332642E0,1.4135742E0,1.7456055E1,5.3659668E1,9.005249E1,1.2976013E2,1.2923828E1,3.9242554E1,6.6371307E0,1.6121004E1,7.3083046E1,9.088379E1,2.6282202E2,4.5154297E1,2.6756305E2,4.5202026E1,9.623052E2,5.153916E2,1.4301297E2,9.1151E1,6.417206E2,2.1004785E2,3.7634717E2,3.97011E2,2.4985565E1,1.16392654E2,4.2028732E1,6.523887E1,8.149927E1,3.51792E1,1.081572E2,4.299951E1,0E0,0E0,0E0,0E0,0E0,0E0,0E0,0E0,0E0,0E0,0E0,0E0,0E0,0E0,0E0,0E0,0E0,0E0,0E0,0E0,0E0,0E0,0E0,0E0,0E0,0E0,0E0,0E0,0E0,0E0,0E0,0E0,0E0,0E0,0E0,0E0,0E0,0E0,0E0,0E0,0E0,0E0,0E0,0E0,0E0,0E0,0E0,0E0,0E0,0E0,0E0,0E0,0E0,0E0,0E0,0E0,0E0,0E0,0E0,0E0,0E0,0E0,0E0,0E0],"parents":[2147483647,0,0,1,1,2,2,3,3,4,4,5,5,6,6,7,7,8,8,9,9,10,10,11,11,12,12,13,13,14,14,15,15,16,16,17,17,18,18,19,19,20,20,21,21,22,22,23,23,24,24,25,25,26,26,27,27,28,28,29,29,30,30,31,31,32,32,33,33,34,34,35,35,36,36,37,37,38,38,39,39,40,40,41,41,42,42,43,43,44,44,45,45,46,46,47,47,48,48,49,49,50,50,51,51,52,52,53,53,54,54,55,55,56,56,57,57,58,58,59,59,60,60,61,61,62,62],"right_children":[2,4,6,8,10,12,14,16,18,20,22,24,26,28,30,32,34,36,38,40,42,44,46,48,50,52,54,56,58,60,62,64,66,68,70,72,74,76,78,80,82,84,86,88,90,92,94,96,98,100,102,104,106,108,110,112,114,116,118,120,122,124,126,-1,-1,-1,-1,-1,-1,-1,-1,-1,-1,-1,-1,-1,-1,-1,-1,-1,-1,-1,-1,-1,-1,-1,-1,-1,-1,-1,-1,-1,-1,-1,-1,-1,-1,-1,-1,-1,-1,-1,-1,-1,-1,-1,-1,-1,-1,-1,-1,-1,-1,-1,-1,-1,-1,-1,-1,-1,-1,-1,-1,-1,-1,-1,-1],"split_conditions":[1.592169E0,1.2602065E0,3.2045987E0,9.7046226E-1,2E0,2.5145018E-1,3.4940531E0,6.623921E-1,3.115604E-1,-7.17273E-1,2E0,9.866588E-1,2.064436E0,8.142314E-1,8.0138E-1,2.1358724E-1,2E0,2E0,2E0,-1.0168889E0,7.9E-1,6.378956E-1,9.125427E-1,8.331441E-1,1.3087319E0,7.1020293E-1,1E-1,7.266187E-1,1.307001E-1,3.7469606E0,3.7977817E0,5.753425E-1,5.395843E-1,2.1358724E-1,3.115604E-1,7.1020293E-1,7.1020293E-1,6.1835015E-1,8.9584225E-1,7.7630556E-1,-1.2E0,3.3880904E-1,7.447861E-1,2.4173748E-1,1.0543206E0,3.2549942E-1,1.2118917E0,2.802955E0,-1.1272922E0,2.0006833E0,2.2895157E0,-9.141873E-1,2E0,7.5667113E-1,8.4900427E-1,2E0,2E0,5.6613755E-1,5.66E0,2E0,7.794118E-1,2E0,8.6394054E-1,-7.037871E-2,-5.9083134E-2,-7.305928E-2,-6.95711E-2,-5.4531116E-2,-6.872865E-2,-4.904015E-2,-6.337541E-2,-4.3680165E-2,-6.531532E-2,-2.051646E-2,-4.78522E-2,-6.1401695E-2,-7.041468E-2,-4.5560665E-2,-6.463922E-2,-5.8264196E-2,-3.405134E-2,-2.1499867E-2,7.218445E-3,1.254975E-2,-1.9718526E-2,3.5448577E-2,-1.4287317E-2,-1.0410929E-2,-3.7474643E-2,-5.1284816E-2,-6.681844E-2,-2.5143388E-3,-2.6959052E-2,-3.4591734E-2,-5.6017518E-2,2.5037546E-2,8.156808E-3,-3.989333E-3,3.6799382E-2,-1.9666886E-2,6.569306E-3,-4.3919105E-2,-1.3750351E-2,-4.2322066E-2,-1.4393359E-3,-4.7003638E-2,-2.1114733E-2,3.3463337E-2,-2.2788695E-3,9.004629E-3,-1.694779E-2,-3.9606128E-2,-2.3176936E-2,-1.5834495E-2,-1.3990666E-3,1.1404892E-2,2.771858E-2,-1.0102895E-2,6.502925E-3,-3.740617E-2,-2.146876E-2,-4.8403826E-2,-3.452643E-2,-1.8744655E-2,-1.1194114E-5,-3.4828406E-2,-1.7458146E-2],"split_indices":[8,8,8,8,9,78,8,8,78,7,12,7,8,30,30,73,12,12,12,7,3,7,7,30,7,7,3,30,71,8,8,79,8,73,78,7,7,7,7,25,2,73,7,73,7,78,7,8,7,8,8,7,12,7,7,12,12,79,5,12,40,12,30,0,0,0,0,0,0,0,0,0,0,0,0,0,0,0,0,0,0,0,0,0,0,0,0,0,0,0,0,0,0,0,0,0,0,0,0,0,0,0,0,0,0,0,0,0,0,0,0,0,0,0,0,0,0,0,0,0,0,0,0,0,0,0,0],"split_type":[0,0,0,0,0,0,0,0,0,0,0,0,0,0,0,0,0,0,0,0,0,0,0,0,0,0,0,0,0,0,0,0,0,0,0,0,0,0,0,0,0,0,0,0,0,0,0,0,0,0,0,0,0,0,0,0,0,0,0,0,0,0,0,0,0,0,0,0,0,0,0,0,0,0,0,0,0,0,0,0,0,0,0,0,0,0,0,0,0,0,0,0,0,0,0,0,0,0,0,0,0,0,0,0,0,0,0,0,0,0,0,0,0,0,0,0,0,0,0,0,0,0,0,0,0,0,0],"sum_hessian":[1.6200269E5,3.4887387E4,1.271153E5,1.8484621E4,1.6402766E4,1.05545375E5,2.1569922E4,9.039474E3,9.445147E3,2.1503596E3,1.4252405E4,6.9557E4,3.5988375E4,1.1278785E4,1.0291136E4,3.6088647E3,5.4306094E3,5.558175E3,3.8869727E3,3.2229523E2,1.8280643E3,8.437684E3,5.8147217E3,6.5797664E4,3.759335E3,1.5103415E4,2.0884959E4,6.863522E3,4.4152637E3,5.5704507E3,4.720685E3,3.671627E2,3.241702E3,2.6921812E3,2.7384282E3,3.1254795E3,2.4326956E3,2.1372473E3,1.7497252E3,1.2612559E2,1.9616965E2,8.771338E2,9.509306E2,6.334088E3,2.1035957E3,4.812089E3,1.00263275E3,4.291756E4,2.2880105E4,2.743571E3,1.01576404E3,1.1858581E4,3.2448337E3,6.732138E3,1.415282E4,1.0038075E3,5.8597144E3,1.6452506E3,2.770013E3,3.252305E3,2.3181458E3,3.0889595E3,1.6317255E3,1.7533766E2,1.9182503E2,2.1771353E3,1.0645667E3,2.64079E2,2.4281023E3,1.5885637E3,1.1498644E3,2.5249075E3,6.00572E2,1.8664292E3,5.662663E2,1.4987548E3,6.3849255E2,1.4071102E3,3.4261508E2,5.7689224E1,6.843636E1,1.08836655E2,8.733299E1,6.359126E2,2.4122118E2,8.4848376E2,1.0244687E2,1.0829994E3,5.251089E3,1.3602919E3,7.433037E2,3.0414727E3,1.7706163E3,5.263343E2,4.762985E2,3.1363904E4,1.1553653E4,8.0241925E2,2.2077688E4,6.9469525E2,2.0488757E3,5.635639E2,4.522001E2,1.0524359E3,1.08061455E4,1.9143396E3,1.3304943E3,5.890571E3,8.415673E2,1.2482897E4,1.6699233E3,6.282965E2,3.7551102E2,3.563719E3,2.295995E3,9.8392737E2,6.6132324E2,8.5447974E2,1.9155332E3,1.7857169E3,1.466588E3,1.6712357E3,6.469101E2,1.6228413E3,1.4661183E3,1.0997557E3,5.3196967E2],"tree_param":{"num_deleted":"0","num_feature":"80","num_nodes":"127","size_leaf_vector":"1"}},{"base_weights":[4.2130466E-4,-7.649965E-1,2.1939774E-1,-1.0855181E0,-4.667088E-1,3.3052626E-1,-2.8169096E-1,-1.282164E0,-9.2270887E-1,-2.0896684E-1,-7.213811E-1,4.677901E-1,6.465712E-2,-9.4818056E-2,-5.400213E-1,-1.3835067E0,-1.1985755E0,-1.0790044E0,-7.317517E-1,-9.399433E-2,-7.828386E-1,-8.762785E-1,-4.9473417E-1,5.1015764E-1,-3.7993558E-2,-2.111354E-1,2.555842E-1,2.7707535E-1,-1.971156E-1,-3.0672124E-1,-6.865104E-1,-1.3992339E0,-1.2582724E0,-1.31733E0,-1.0838429E0,-9.184041E-1,-1.2189993E0,-3.2248688E-1,-8.4102887E-1,-9.131469E-1,-2.1231728E-2,-9.801689E-1,-5.2193135E-1,-7.8005415E-1,-1.1896046E0,-3.820264E-1,-1.0157473E0,-3.2175833E-1,5.33814E-1,1.1401348E-1,-5.1947236E-1,-1.00405365E-1,-7.55162E-1,6.160004E-1,1.3977042E-1,9.2206305E-1,2.4158765E-1,-3.095181E-1,-1.895274E-2,-1.9869827E-1,-5.788171E-1,-5.8742875E-1,-8.607022E-1,-7.1104065E-2,-6.755037E-2,-6.830824E-2,-5.7102263E-2,-6.731442E-2,-5.422128E-2,-6.532071E-2,-4.9824055E-2,-4.1750476E-2,-6.377146E-2,-5.8124263E-2,-6.795351E-2,-8.64418E-3,-3.764744E-2,-3.79289E-2,-6.0228735E-2,-6.2304694E-2,-3.8410764E-2,-1.14292465E-2,1.10577475E-2,-4.0656622E-2,-5.978287E-2,-1.5016014E-2,-4.7418144E-2,-6.025783E-2,-3.6452338E-2,-5.556189E-2,-6.795906E-2,-1.1585562E-2,-3.261838E-2,-4.0366482E-2,-5.732537E-2,-3.4802042E-2,-1.0488904E-4,3.115663E-2,1.5673507E-2,2.3944275E-2,-3.1307638E-3,-3.8540687E-2,-1.1336726E-2,-1.2969032E-2,9.285475E-3,-4.847403E-2,-2.345691E-2,3.4970574E-2,-1.0932809E-3,9.222719E-3,-2.4923304E-2,5.249956E-2,3.534879E-2,5.8083036E-3,2.124592E-2,-1.2831329E-2,-3.6281593E-2,2.7622692E-3,-1.1655266E-2,-1.8649789E-2,-1.029758E-3,-1.1079045E-2,-3.2801818E-2,-3.640284E-2,-2.1241162E-2,-5.085904E-2,-3.770073E-2],"categories":[],"categories_nodes":[],"categories_segments":[],"categories_sizes":[],"default_left":[0,0,0,0,0,0,0,0,0,0,0,0,0,0,0,0,0,0,0,0,0,0,0,0,0,0,0,0,0,0,0,0,0,0,0,0,0,0,0,0,0,0,0,0,0,0,0,0,0,0,0,0,0,0,0,0,0,0,0,0,0,0,0,0,0,0,0,0,0,0,0,0,0,0,0,0,0,0,0,0,0,0,0,0,0,0,0,0,0,0,0,0,0,0,0,0,0,0,0,0,0,0,0,0,0,0,0,0,0,0,0,0,0,0,0,0,0,0,0,0,0,0,0,0,0,0,0],"id":10,"left_children":[1,3,5,7,9,11,13,15,17,19,21,23,25,27,29,31,33,35,37,39,41,43,45,47,49,51,53,55,57,59,61,63,65,67,69,71,73,75,77,79,81,83,85,87,89,91,93,95,97,99,101,103,105,107,109,111,113,115,117,119,121,123,125,-1,-1,-1,-1,-1,-1,-1,-1,-1,-1,-1,-1,-1,-1,-1,-1,-1,-1,-1,-1,-1,-1,-1,-1,-1,-1,-1,-1,-1,-1,-1,-1,-1,-1,-1,-1,-1,-1,-1,-1,-1,-1,-1,-1,-1,-1,-1,-1,-1,-1,-1,-1,-1,-1,-1,-1,-1,-1,-1,-1,-1,-1,-1,-1],"loss_changes":[2.703047E4,3.4293691E3,6.9828564E3,5.5243555E2,1.2196653E3,3.7455752E3,1.0988011E3,6.466699E1,2.816548E2,6.0941113E2,3.277119E2,1.4505117E3,1.8402769E3,5.0258014E2,3.2631348E2,5.1967773E0,5.713379E1,1.1583594E2,1.903628E2,4.5873993E2,7.8860596E1,1.6643408E2,2.2257697E2,1.229333E3,3.8303204E2,8.611837E2,8.6194116E2,6.501201E1,2.0746518E2,1.082551E2,1.0077588E2,1.5268555E0,3.5065308E0,1.2753662E1,4.131421E1,7.118848E1,2.0396484E1,5.7822304E1,9.990967E1,2.9341125E1,3.553835E2,3.058191E1,6.265555E1,9.127002E1,1.5796509E1,1.2676666E2,1.7461487E1,2.0668817E2,1.1950312E3,2.5639505E2,9.222247E1,5.404302E2,1.4775208E2,2.672096E2,4.458644E2,3.3376465E0,6.2096756E1,1.396214E2,6.3711197E1,8.1968376E1,2.8743622E1,8.529822E1,3.471704E1,0E0,0E0,0E0,0E0,0E0,0E0,0E0,0E0,0E0,0E0,0E0,0E0,0E0,0E0,0E0,0E0,0E0,0E0,0E0,0E0,0E0,0E0,0E0,0E0,0E0,0E0,0E0,0E0,0E0,0E0,0E0,0E0,0E0,0E0,0E0,0E0,0E0,0E0,0E0,0E0,0E0,0E0,0E0,0E0,0E0,0E0,0E0,0E0,0E0,0E0,0E0,0E0,0E0,0E0,0E0,0E0,0E0,0E0,0E0,0E0,0E0,0E0,0E0,0E0],"parents":[2147483647,0,0,1,1,2,2,3,3,4,4,5,5,6,6,7,7,8,8,9,9,10,10,11,11,12,12,13,13,14,14,15,15,16,16,17,17,18,18,19,19,20,20,21,21,22,22,23,23,24,24,25,25,26,26,27,27,28,28,29,29,30,30,31,31,32,32,33,33,34,34,35,35,36,36,37,37,38,38,39,39,40,40,41,41,42,42,43,43,44,44,45,45,46,46,47,47,48,48,49,49,50,50,51,51,52,52,53,53,54,54,55,55,56,56,57,57,58,58,59,59,60,60,61,61,62,62],"right_children":[2,4,6,8,10,12,14,16,18,20,22,24,26,28,30,32,34,36,38,40,42,44,46,48,50,52,54,56,58,60,62,64,66,68,70,72,74,76,78,80,82,84,86,88,90,92,94,96,98,100,102,104,106,108,110,112,114,116,118,120,122,124,126,-1,-1,-1,-1,-1,-1,-1,-1,-1,-1,-1,-1,-1,-1,-1,-1,-1,-1,-1,-1,-1,-1,-1,-1,-1,-1,-1,-1,-1,-1,-1,-1,-1,-1,-1,-1,-1,-1,-1,-1,-1,-1,-1,-1,-1,-1,-1,-1,-1,-1,-1,-1,-1,-1,-1,-1,-1,-1,-1,-1,-1,-1,-1,-1],"split_conditions":[1.6164725E0,1.2378098E0,3.1786005E0,9.259381E-1,2.779741E-1,2.5145018E-1,3.5180888E0,6.623921E-1,2E0,7.689054E-1,2E0,8.7967145E-1,2.064436E0,1.4475477E-1,1.7150651E-1,7.9056525E-1,2E0,2.7993673E-1,2.5E-1,-9.723775E-1,2E0,6.7817134E-1,9.299498E-1,-1.2026255E0,1.2560866E0,8.206907E-1,-4E-2,7.6362535E-2,2E0,3.860462E0,3.7977817E0,5.395843E-1,5.8379203E-1,7.9056525E-1,6.783069E-1,7.1020293E-1,6.1835015E-1,6.378956E-1,8.9584225E-1,-1.3099805E0,4.9245325E-1,1.0543206E0,1.2118917E0,-7.6547575E-1,1.1083732E0,3.6457437E-1,1.1387305E0,2.3041863E0,2.7612767E0,1E0,2.2895157E0,2E0,2E0,7.5667113E-1,1.0543206E0,6E-2,2E0,2.5121856E-1,9.57E1,2E0,1.1107083E-1,2E0,2E0,-7.1104065E-2,-6.755037E-2,-6.830824E-2,-5.7102263E-2,-6.731442E-2,-5.422128E-2,-6.532071E-2,-4.9824055E-2,-4.1750476E-2,-6.377146E-2,-5.8124263E-2,-6.795351E-2,-8.64418E-3,-3.764744E-2,-3.79289E-2,-6.0228735E-2,-6.2304694E-2,-3.8410764E-2,-1.14292465E-2,1.10577475E-2,-4.0656622E-2,-5.978287E-2,-1.5016014E-2,-4.7418144E-2,-6.025783E-2,-3.6452338E-2,-5.556189E-2,-6.795906E-2,-1.1585562E-2,-3.261838E-2,-4.0366482E-2,-5.732537E-2,-3.4802042E-2,-1.0488904E-4,3.115663E-2,1.5673507E-2,2.3944275E-2,-3.1307638E-3,-3.8540687E-2,-1.1336726E-2,-1.2969032E-2,9.285475E-3,-4.847403E-2,-2.345691E-2,3.4970574E-2,-1.0932809E-3,9.222719E-3,-2.4923304E-2,5.249956E-2,3.534879E-2,5.8083036E-3,2.124592E-2,-1.2831329E-2,-3.6281593E-2,2.7622692E-3,-1.1655266E-2,-1.8649789E-2,-1.029758E-3,-1.1079045E-2,-3.2801818E-2,-3.640284E-2,-2.1241162E-2,-5.085904E-2,-3.770073E-2],"split_indices":[8,8,8,8,78,78,8,8,12,7,12,7,8,71,71,31,12,78,78,7,12,7,7,7,7,7,3,71,12,8,8,8,79,31,31,7,7,7,7,7,79,7,7,7,7,78,7,8,8,28,8,12,12,7,7,2,12,71,0,12,71,12,12,0,0,0,0,0,0,0,0,0,0,0,0,0,0,0,0,0,0,0,0,0,0,0,0,0,0,0,0,0,0,0,0,0,0,0,0,0,0,0,0,0,0,0,0,0,0,0,0,0,0,0,0,0,0,0,0,0,0,0,0,0,0,0,0],"split_type":[0,0,0,0,0,0,0,0,0,0,0,0,0,0,0,0,0,0,0,0,0,0,0,0,0,0,0,0,0,0,0,0,0,0,0,0,0,0,0,0,0,0,0,0,0,0,0,0,0,0,0,0,0,0,0,0,0,0,0,0,0,0,0,0,0,0,0,0,0,0,0,0,0,0,0,0,0,0,0,0,0,0,0,0,0,0,0,0,0,0,0,0,0,0,0,0,0,0,0,0,0,0,0,0,0,0,0,0,0,0,0,0,0,0,0,0,0,0,0,0,0,0,0,0,0,0,0],"sum_hessian":[1.612695E5,3.5873508E4,1.25396E5,1.7291016E4,1.8582492E4,1.0263463E5,2.2761367E4,7.828563E3,9.462452E3,9.23649E3,9.346001E3,6.768779E4,3.4946844E4,1.3208138E4,9.55323E3,3.5314634E3,4.2970996E3,5.200925E3,4.261527E3,7.6958306E3,1.5406597E3,5.5500566E3,3.7959448E3,6.245607E4,5.231715E3,1.4296118E4,2.0650725E4,2.8490322E3,1.0359105E4,3.6859846E3,5.867246E3,3.1284153E3,4.0304813E2,2.1063887E3,2.190711E3,2.4257253E3,2.7751997E3,8.989037E2,3.362623E3,6.268851E2,7.068946E3,8.7563763E2,6.65022E2,4.2487334E3,1.301323E3,3.122258E3,6.7368677E2,1.7265477E3,6.0729523E4,3.9769277E3,1.2547874E3,1.18793955E4,2.416723E3,5.020974E3,1.5629751E4,1.4727792E2,2.7017542E3,6.35133E3,4.0077751E3,2.6397324E3,1.0462522E3,3.742727E3,2.1245188E3,2.103434E3,1.0249812E3,2.034413E2,1.9960684E2,1.8691991E3,2.3718954E2,6.1356934E2,1.5771416E3,1.9691144E3,4.5661087E2,1.9840149E3,7.911848E2,6.681096E2,2.3079405E2,2.7434954E3,6.1912787E2,1.8781816E2,4.3906686E2,3.809829E3,3.2591167E3,4.9596365E2,3.7967398E2,4.3872595E2,2.2629604E2,4.5275833E2,3.795975E3,8.9518286E2,4.0614008E2,2.0077599E3,1.1144983E3,2.624859E2,4.1120084E2,7.947811E2,9.317666E2,4.3211496E4,1.751803E4,1.296651E3,2.6802766E3,6.742504E2,5.80537E2,7.6364272E3,4.242968E3,1.3801685E3,1.0365546E3,4.4402456E3,5.807287E2,1.460775E4,1.0220012E3,8.991638E1,5.7361546E1,1.6052158E3,1.0965385E3,5.636501E3,7.1482935E2,2.9770496E3,1.0307257E3,1.3335665E3,1.3061658E3,1.8664648E2,8.596058E2,2.0051299E3,1.7375972E3,8.578206E2,1.2666982E3],"tree_param":{"num_deleted":"0","num_feature":"80","num_nodes":"127","size_leaf_vector":"1"}},{"base_weights":[-1.7055137E-4,-8.649515E-1,1.7895184E-1,-1.1832132E0,-6.648712E-1,2.498246E-1,-4.0843007E-1,-1.3198009E0,-1.0820818E0,-6.863135E-2,-7.307851E-1,-1.9755757E-1,3.291468E-1,-5.737204E-1,-1.8042308E-1,-1.1412312E0,-1.3406842E0,-1.2185166E0,-9.3837595E-1,-2.721494E-1,2.6749128E-1,-9.005211E-1,-5.063604E-1,4.547537E-1,-3.4966037E-1,3.746921E-1,-1.6652039E-1,-4.549081E-1,-7.945836E-1,-2.5453407E-2,-4.5966414E-1,-1.280363E0,-9.908879E-1,-6.9450974E-2,-1.2894986E0,-9.142845E-1,-1.2507418E0,-4.6179783E-1,-9.99592E-1,2.2991088E-1,-3.8220322E-1,-1.7339764E-2,3.7724963E-1,-8.0331516E-1,-1.1677859E0,-4.0278852E-1,-9.476922E-1,-5.3671E-1,5.580385E-1,-2.1953925E-1,-7.58458E-1,4.3944278E-1,4.804225E-2,-1.865752E-2,-5.939285E-1,-6.741701E-1,-3.393832E-1,-9.762475E-1,-7.026855E-1,-1.04780786E-1,3.3365327E-1,-5.3294116E-1,-1.3561971E-1,-6.6175826E-2,-5.4885257E-2,-6.6646956E-2,-4.393687E-2,-6.841674E-2,-6.1114307E-2,-5.207636E-2,-3.2122966E-2,-4.4847175E-2,-6.3563004E-2,-1.6753292E-2,-4.5498516E-2,-5.987547E-2,-4.503962E-2,2.4213906E-2,1.8967014E-4,-3.942361E-2,-1.318983E-2,2.689443E-2,-1.1549617E-2,-1.3983612E-2,-4.292122E-2,-5.373592E-2,-6.4722605E-2,1.8232104E-3,-2.5680756E-2,-3.918064E-2,-5.8018666E-2,-5.479325E-2,-1.6455386E-2,3.240037E-2,-2.2828658E-3,-2.8663073E-2,-4.4258437E-3,-4.7754217E-2,-2.4477784E-2,-1.3711164E-2,2.3363395E-2,-3.6141325E-3,1.9231042E-2,2.042966E-2,-8.8898735E-3,-4.0224355E-2,-1.3266213E-2,-3.514827E-2,2.3549295E-3,-2.3085156E-2,-8.988625E-3,-5.493259E-2,-4.3549396E-2,-3.0295355E-2,-4.3618094E-2,-1.2618745E-2,4.021511E-3,9.840953E-3,3.181609E-2,-3.5632376E-2,-2.0410502E-2,-1.4936713E-3,-2.6737178E-2],"categories":[],"categories_nodes":[],"categories_segments":[],"categories_sizes":[],"default_left":[0,0,0,0,0,0,0,0,0,0,0,0,0,0,0,0,0,0,0,0,0,0,0,0,0,0,0,0,0,0,0,0,0,0,0,0,0,0,0,0,0,0,0,0,0,0,0,0,0,0,0,0,0,0,0,0,0,0,0,0,0,0,0,0,0,0,0,0,0,0,0,0,0,0,0,0,0,0,0,0,0,0,0,0,0,0,0,0,0,0,0,0,0,0,0,0,0,0,0,0,0,0,0,0,0,0,0,0,0,0,0,0,0,0,0,0,0,0,0,0,0,0,0],"id":11,"left_children":[1,3,5,7,9,11,13,15,17,19,21,23,25,27,29,31,33,35,37,39,41,43,45,47,49,51,53,55,57,59,61,63,65,-1,67,69,71,73,75,77,79,-1,81,83,85,87,89,91,93,95,97,99,101,103,105,107,109,111,113,115,117,119,121,-1,-1,-1,-1,-1,-1,-1,-1,-1,-1,-1,-1,-1,-1,-1,-1,-1,-1,-1,-1,-1,-1,-1,-1,-1,-1,-1,-1,-1,-1,-1,-1,-1,-1,-1,-1,-1,-1,-1,-1,-1,-1,-1,-1,-1,-1,-1,-1,-1,-1,-1,-1,-1,-1,-1,-1,-1,-1,-1,-1],"loss_changes":[2.486805E4,1.7533535E3,5.536553E3,1.4543262E2,6.647627E2,4.2115376E3,5.395615E2,1.53203125E1,1.1873828E2,1.1533984E2,5.7978125E2,1.7735131E3,2.2757227E3,2.1746777E2,2.6047537E2,8.768066E0,8.203125E0,2.9574219E1,8.654175E1,5.8105965E1,4.301092E1,2.2434473E2,2.995487E2,3.4642212E2,7.70829E2,1.9526299E3,5.361398E2,1.3654956E2,4.7765137E1,1.10342255E2,5.0939056E1,4.8449707E-1,7.8452454E0,0E0,8.797852E0,9.838898E0,1.940625E1,1.908107E1,5.058081E1,1.0892591E1,4.124015E1,0E0,5.2891594E1,1.8335156E2,2.584668E1,2.5881586E2,4.258789E1,3.6715675E1,1.6631702E2,5.095664E2,1.8454688E2,1.5301211E3,6.186059E2,4.2870847E2,1.5065955E2,3.8711487E1,6.9001465E1,1.1571289E1,3.1177734E1,8.673982E1,2.8900719E1,3.897461E1,1.6762833E1,0E0,0E0,0E0,0E0,0E0,0E0,0E0,0E0,0E0,0E0,0E0,0E0,0E0,0E0,0E0,0E0,0E0,0E0,0E0,0E0,0E0,0E0,0E0,0E0,0E0,0E0,0E0,0E0,0E0,0E0,0E0,0E0,0E0,0E0,0E0,0E0,0E0,0E0,0E0,0E0,0E0,0E0,0E0,0E0,0E0,0E0,0E0,0E0,0E0,0E0,0E0,0E0,0E0,0E0,0E0,0E0,0E0,0E0,0E0,0E0],"parents":[2147483647,0,0,1,1,2,2,3,3,4,4,5,5,6,6,7,7,8,8,9,9,10,10,11,11,12,12,13,13,14,14,15,15,16,16,17,17,18,18,19,19,20,20,21,21,22,22,23,23,24,24,25,25,26,26,27,27,28,28,29,29,30,30,31,31,32,32,34,34,35,35,36,36,37,37,38,38,39,39,40,40,42,42,43,43,44,44,45,45,46,46,47,47,48,48,49,49,50,50,51,51,52,52,53,53,54,54,55,55,56,56,57,57,58,58,59,59,60,60,61,61,62,62],"right_children":[2,4,6,8,10,12,14,16,18,20,22,24,26,28,30,32,34,36,38,40,42,44,46,48,50,52,54,56,58,60,62,64,66,-1,68,70,72,74,76,78,80,-1,82,84,86,88,90,92,94,96,98,100,102,104,106,108,110,112,114,116,118,120,122,-1,-1,-1,-1,-1,-1,-1,-1,-1,-1,-1,-1,-1,-1,-1,-1,-1,-1,-1,-1,-1,-1,-1,-1,-1,-1,-1,-1,-1,-1,-1,-1,-1,-1,-1,-1,-1,-1,-1,-1,-1,-1,-1,-1,-1,-1,-1,-1,-1,-1,-1,-1,-1,-1,-1,-1,-1,-1,-1,-1],"split_conditions":[1.470809E0,1.0460532E0,3.3726206E0,7.5008076E-1,2E0,1.7781309E0,8.0662984E-1,2.1358724E-1,2E0,9.1E-1,2E0,2E0,8.7967145E-1,3.7026575E0,3.7026575E0,5.395843E-1,5.395843E-1,2.1358724E-1,2.4146147E-1,2.4639423E-1,-6.320506E-1,6.0863066E-1,8.64405E-1,-8.968735E-1,6.6775155E-1,3.0286067E0,1.2560866E0,7.6243585E-1,7.6243585E-1,8.863513E-1,8.86424E-1,6.6931087E-1,4.8355114E-1,-6.9450974E-2,2E0,4.9390858E-1,2E0,7.447861E-1,6.783069E-1,2.2891566E-1,-6.0276186E-1,-1.7339764E-2,5.2918154E-1,2.1358724E-1,9.6668774E-1,2.4823196E-1,1.2118917E0,-1.2508292E0,6.577255E-1,1E0,2E0,-1.1272922E0,8.4033614E-1,1E0,2.3758378E0,4E0,2E0,2E0,3.9427807E0,2E0,9.1265947E-1,2E0,4.0753646E0,-6.6175826E-2,-5.4885257E-2,-6.6646956E-2,-4.393687E-2,-6.841674E-2,-6.1114307E-2,-5.207636E-2,-3.2122966E-2,-4.4847175E-2,-6.3563004E-2,-1.6753292E-2,-4.5498516E-2,-5.987547E-2,-4.503962E-2,2.4213906E-2,1.8967014E-4,-3.942361E-2,-1.318983E-2,2.689443E-2,-1.1549617E-2,-1.3983612E-2,-4.292122E-2,-5.373592E-2,-6.4722605E-2,1.8232104E-3,-2.5680756E-2,-3.918064E-2,-5.8018666E-2,-5.479325E-2,-1.6455386E-2,3.240037E-2,-2.2828658E-3,-2.8663073E-2,-4.4258437E-3,-4.7754217E-2,-2.4477784E-2,-1.3711164E-2,2.3363395E-2,-3.6141325E-3,1.9231042E-2,2.042966E-2,-8.8898735E-3,-4.0224355E-2,-1.3266213E-2,-3.514827E-2,2.3549295E-3,-2.3085156E-2,-8.988625E-3,-5.493259E-2,-4.3549396E-2,-3.0295355E-2,-4.3618094E-2,-1.2618745E-2,4.021511E-3,9.840953E-3,3.181609E-2,-3.5632376E-2,-2.0410502E-2,-1.4936713E-3,-2.6737178E-2],"split_indices":[8,8,8,8,9,8,30,73,12,3,12,9,7,8,8,8,8,73,72,73,7,7,7,7,7,8,7,30,30,30,30,79,79,0,12,68,9,7,31,74,7,0,7,73,7,73,7,7,7,12,12,7,30,28,8,9,12,12,8,12,30,12,8,0,0,0,0,0,0,0,0,0,0,0,0,0,0,0,0,0,0,0,0,0,0,0,0,0,0,0,0,0,0,0,0,0,0,0,0,0,0,0,0,0,0,0,0,0,0,0,0,0,0,0,0,0,0,0,0,0,0,0,0],"split_type":[0,0,0,0,0,0,0,0,0,0,0,0,0,0,0,0,0,0,0,0,0,0,0,0,0,0,0,0,0,0,0,0,0,0,0,0,0,0,0,0,0,0,0,0,0,0,0,0,0,0,0,0,0,0,0,0,0,0,0,0,0,0,0,0,0,0,0,0,0,0,0,0,0,0,0,0,0,0,0,0,0,0,0,0,0,0,0,0,0,0,0,0,0,0,0,0,0,0,0,0,0,0,0,0,0,0,0,0,0,0,0,0,0,0,0,0,0,0,0,0,0,0,0],"sum_hessian":[1.6053892E5,2.7546066E4,1.3299286E5,1.0630897E4,1.6915168E4,1.18674336E5,1.4318521E4,4.5175186E3,6.113379E3,1.6840175E3,1.5231151E4,1.7872246E4,1.00802086E5,8.300023E3,6.018497E3,4.7882434E2,4.038694E3,3.1321882E3,2.9811907E3,1.049032E3,6.349855E2,8.670499E3,6.5606523E3,3.379001E3,1.4493245E4,9.231939E4,8.482695E3,5.398817E3,2.901207E3,3.871199E3,2.147298E3,2.4478114E2,2.340432E2,2.0637358E3,1.9749584E3,3.0280814E2,2.8293801E3,3.403156E2,2.640875E3,1.8841275E2,8.6061926E2,9.593041E1,5.390551E2,6.3609766E3,2.3095222E3,5.3151934E3,1.2454589E3,3.1839816E2,3.0606028E3,1.0995039E4,3.498206E3,7.70464E4,1.5272991E4,6.3031494E3,2.179546E3,1.8613008E3,3.537516E3,9.7137506E2,1.9298319E3,3.1713499E3,6.998493E2,1.7507513E3,3.9654684E2,1.9295009E2,5.1831062E1,5.5101677E1,1.7894153E2,8.9998E2,1.0749783E3,2.0432913E2,9.8479004E1,1.5754408E2,2.671836E3,2.6665878E2,7.3656845E1,8.756446E2,1.7652303E3,8.8130295E1,1.0028246E2,1.9294394E2,6.676753E2,4.2652417E2,1.1253092E2,6.0627545E2,5.754701E3,1.3367992E3,9.7272296E2,1.0710076E3,4.2441855E3,7.057052E2,5.397537E2,8.504898E1,2.3334918E2,2.663576E3,3.970268E2,2.9709543E3,8.0240845E3,2.0191875E3,1.4790186E3,2.8908984E3,7.41555E4,1.1251449E4,4.0215422E3,1.7101798E3,4.5929697E3,1.3274878E3,8.520581E2,1.789869E3,7.143177E1,2.0016393E3,1.5358768E3,4.4474835E2,5.266267E2,1.2318132E3,6.9801855E2,1.7647015E3,1.4066482E3,4.830956E2,2.1675366E2,7.153695E2,1.0353817E3,3.1433887E2,8.2208E1],"tree_param":{"num_deleted":"0","num_feature":"80","num_nodes":"123","size_leaf_vector":"1"}},{"base_weights":[2.0799284E-4,-8.061635E-1,1.7683E-1,-1.1259061E0,-5.972551E-1,2.4674088E-1,-3.943888E-1,-1.2640961E0,-9.975904E-1,-3.9140984E-1,-8.1960684E-1,3.4579703E-1,-9.6680954E-2,-5.083932E-1,-1.013657E-1,-1.3456154E0,-1.2063533E0,-1.1442186E0,-8.3689296E-1,-2.691692E-1,-7.815404E-1,-9.613173E-1,-6.3097036E-1,5.3650576E-1,2.4039108E-1,-3.7954113E-1,1.6218534E-1,-3.9534906E-1,-7.205908E-1,6.308628E-2,-3.909141E-1,-5.641489E-2,-1.3502603E0,-1.3061061E0,-1.1183015E0,-1.0183572E0,-1.2594718E0,-4.716544E-1,-9.298912E-1,-8.0221117E-1,-1.7845678E-1,-9.5493585E-1,-5.6159997E-1,-8.7570846E-1,-1.1929642E0,-5.421153E-1,-1.0397682E0,6.1484873E-1,2.7696273E-1,2.7172762E-1,-3.7449753E-1,-2.6139617E-1,-7.7592516E-1,2.5391504E-1,-2.6033482E-1,-6.131929E-1,-2.8220072E-1,-9.4289106E-1,-6.3963133E-1,-9.533257E-2,2.6241252E-1,-4.3760884E-1,1.20988674E-1,-6.362682E-2,-6.806337E-2,-6.148153E-2,-6.7555584E-2,-4.9392577E-2,-6.083649E-2,-4.7371548E-2,-6.2778376E-2,-6.512776E-2,-5.919536E-2,-1.9672127E-2,-5.6095004E-2,-4.2896066E-2,-6.1353832E-2,-2.7783731E-2,-5.1890343E-2,2.9850353E-2,-1.1880099E-2,-4.0046953E-2,-5.9053864E-2,-2.0475248E-2,-4.9648646E-2,-3.9835013E-2,-5.4181367E-2,-5.6248438E-2,-6.5845184E-2,-2.0922212E-2,-3.9729476E-2,-4.4826146E-2,-6.1559655E-2,3.2442182E-2,-2.5947236E-3,9.951606E-3,3.0696115E-2,1.6814066E-2,-2.7178086E-3,-3.2720756E-2,-5.238024E-3,-4.7028404E-2,-9.920145E-3,-4.7975797E-2,-2.6028788E-2,-7.60911E-3,1.5897533E-2,-6.109649E-3,-3.3933435E-2,-3.6604974E-2,-2.2477264E-2,-2.2491544E-2,-7.5909174E-3,-5.315582E-2,-4.1919433E-2,-2.7425533E-2,-4.0197253E-2,-1.1119791E-2,8.827321E-3,8.207611E-3,2.5846545E-2,-1.832292E-2,-3.6183883E-2,-8.407692E-3,1.9616863E-2],"categories":[],"categories_nodes":[],"categories_segments":[],"categories_sizes":[],"default_left":[0,0,0,0,0,0,0,0,0,0,0,0,0,0,0,0,0,0,0,0,0,0,0,0,0,0,0,0,0,0,0,0,0,0,0,0,0,0,0,0,0,0,0,0,0,0,0,0,0,0,0,0,0,0,0,0,0,0,0,0,0,0,0,0,0,0,0,0,0,0,0,0,0,0,0,0,0,0,0,0,0,0,0,0,0,0,0,0,0,0,0,0,0,0,0,0,0,0,0,0,0,0,0,0,0,0,0,0,0,0,0,0,0,0,0,0,0,0,0,0,0,0,0,0,0],"id":12,"left_children":[1,3,5,7,9,11,13,15,17,19,21,23,25,27,29,31,33,35,37,39,41,43,45,47,49,51,53,55,57,59,61,-1,63,65,67,69,71,73,75,77,79,81,83,85,87,89,91,93,95,97,99,101,103,105,107,109,111,113,