{"learner":{"attributes":{"best_iteration":"499","best_score":"0.42345604761637873","scikit_learn":"{\"_estimator_type\": \"classifier\"}"},"feature_names":[],"feature_types":[],"gradient_booster":{"model":{"cats":{"enc":[],"feature_segments":[],"sorted_idx":[]},"gbtree_model_param":{"num_parallel_tree":"1","num_trees":"500"},"iteration_indptr":[0,1,2,3,4,5,6,7,8,9,10,11,12,13,14,15,16,17,18,19,20,21,22,23,24,25,26,27,28,29,30,31,32,33,34,35,36,37,38,39,40,41,42,43,44,45,46,47,48,49,50,51,52,53,54,55,56,57,58,59,60,61,62,63,64,65,66,67,68,69,70,71,72,73,74,75,76,77,78,79,80,81,82,83,84,85,86,87,88,89,90,91,92,93,94,95,96,97,98,99,100,101,102,103,104,105,106,107,108,109,110,111,112,113,114,115,116,117,118,119,120,121,122,123,124,125,126,127,128,129,130,131,132,133,134,135,136,137,138,139,140,141,142,143,144,145,146,147,148,149,150,151,152,153,154,155,156,157,158,159,160,161,162,163,164,165,166,167,168,169,170,171,172,173,174,175,176,177,178,179,180,181,182,183,184,185,186,187,188,189,190,191,192,193,194,195,196,197,198,199,200,201,202,203,204,205,206,207,208,209,210,211,212,213,214,215,216,217,218,219,220,221,222,223,224,225,226,227,228,229,230,231,232,233,234,235,236,237,238,239,240,241,242,243,244,245,246,247,248,249,250,251,252,253,254,255,256,257,258,259,260,261,262,263,264,265,266,267,268,269,270,271,272,273,274,275,276,277,278,279,280,281,282,283,284,285,286,287,288,289,290,291,292,293,294,295,296,297,298,299,300,301,302,303,304,305,306,307,308,309,310,311,312,313,314,315,316,317,318,319,320,321,322,323,324,325,326,327,328,329,330,331,332,333,334,335,336,337,338,339,340,341,342,343,344,345,346,347,348,349,350,351,352,353,354,355,356,357,358,359,360,361,362,363,364,365,366,367,368,369,370,371,372,373,374,375,376,377,378,379,380,381,382,383,384,385,386,387,388,389,390,391,392,393,394,395,396,397,398,399,400,401,402,403,404,405,406,407,408,409,410,411,412,413,414,415,416,417,418,419,420,421,422,423,424,425,426,427,428,429,430,431,432,433,434,435,436,437,438,439,440,441,442,443,444,445,446,447,448,449,450,451,452,453,454,455,456,457,458,459,460,461,462,463,464,465,466,467,468,469,470,471,472,473,474,475,476,477,478,479,480,481,482,483,484,485,486,487,488,489,490,491,492,493,494,495,496,497,498,499,500],"tree_info":[0,0,0,0,0,0,0,0,0,0,0,0,0,0,0,0,0,0,0,0,0,0,0,0,0,0,0,0,0,0,0,0,0,0,0,0,0,0,0,0,0,0,0,0,0,0,0,0,0,0,0,0,0,0,0,0,0,0,0,0,0,0,0,0,0,0,0,0,0,0,0,0,0,0,0,0,0,0,0,0,0,0,0,0,0,0,0,0,0,0,0,0,0,0,0,0,0,0,0,0,0,0,0,0,0,0,0,0,0,0,0,0,0,0,0,0,0,0,0,0,0,0,0,0,0,0,0,0,0,0,0,0,0,0,0,0,0,0,0,0,0,0,0,0,0,0,0,0,0,0,0,0,0,0,0,0,0,0,0,0,0,0,0,0,0,0,0,0,0,0,0,0,0,0,0,0,0,0,0,0,0,0,0,0,0,0,0,0,0,0,0,0,0,0,0,0,0,0,0,0,0,0,0,0,0,0,0,0,0,0,0,0,0,0,0,0,0,0,0,0,0,0,0,0,0,0,0,0,0,0,0,0,0,0,0,0,0,0,0,0,0,0,0,0,0,0,0,0,0,0,0,0,0,0,0,0,0,0,0,0,0,0,0,0,0,0,0,0,0,0,0,0,0,0,0,0,0,0,0,0,0,0,0,0,0,0,0,0,0,0,0,0,0,0,0,0,0,0,0,0,0,0,0,0,0,0,0,0,0,0,0,0,0,0,0,0,0,0,0,0,0,0,0,0,0,0,0,0,0,0,0,0,0,0,0,0,0,0,0,0,0,0,0,0,0,0,0,0,0,0,0,0,0,0,0,0,0,0,0,0,0,0,0,0,0,0,0,0,0,0,0,0,0,0,0,0,0,0,0,0,0,0,0,0,0,0,0,0,0,0,0,0,0,0,0,0,0,0,0,0,0,0,0,0,0,0,0,0,0,0,0,0,0,0,0,0,0,0,0,0,0,0,0,0,0,0,0,0,0,0,0,0,0,0,0,0,0,0,0,0,0,0,0,0,0,0,0,0,0,0,0,0,0,0,0,0,0,0,0,0,0,0,0,0,0,0,0,0,0,0,0,0,0,0,0,0,0,0,0,0,0,0,0,0,0,0,0,0,0,0,0,0,0,0,0,0,0,0,0,0],"trees":[{"base_weights":[-2.943541E-4,-5.3371507E-1,8.142842E-1,-1.2131429E0,-2.4305461E-1,-7.126496E-2,1.2731544E0,-1.3407071E0,-9.1438407E-1,-9.8043025E-2,-1.2658718E0,-5.0442374E-1,2.1894339E-1,1.0554829E0,1.6080494E0,-1.5029489E0,-1.1403768E0,-1.0240905E0,-3.58983E-1,-1.3110862E0,6.318324E-2,-9.520337E-1,-1.6054693E0,-1.515239E0,-4.1294858E-1,9.090514E-3,4.9669665E-1,7.246883E-1,1.2415285E0,1.3869216E0,1.7086903E0,-1.8594831E0,-1.4484129E0,-1.0457544E0,-1.7067546E0,-1.6445491E0,-9.5982134E-1,-1.5302594E0,-2.6277512E-1,-1.6756322E0,-9.467136E-1,-4.5309007E-1,2.1519928E-1,-1.3795223E0,-6.890718E-1,-1.4264082E0,-1.780222E0,-1.7349828E0,-1.1745383E0,-6.353108E-1,-1.5324022E-1,-7.873782E-2,6.400996E-1,1.0396794E-2,6.367791E-1,2.7162698E-1,8.4301335E-1,9.0430725E-1,1.3922286E0,-4.1177967E-1,1.3988876E0,1.7391356E0,1.4218472E0,-9.583271E-2,-8.604282E-2,-6.867388E-2,-9.161384E-2,-8.65127E-2,-4.6144277E-2,-7.598261E-2,-9.115974E-2,-9.2054464E-2,-7.349237E-2,-4.451758E-2,-8.0328435E-2,-8.3819166E-2,-5.3294517E-2,-7.909988E-3,-6.1821993E-2,-9.2348866E-2,-7.3039345E-2,-6.780041E-2,-3.80827E-2,-3.2123107E-2,-1.1610439E-2,-7.99196E-3,3.229634E-2,-5.0394464E-2,-7.731715E-2,-4.778674E-2,-2.246689E-2,-8.872062E-2,-6.23083E-2,-9.6110724E-2,-8.532422E-2,-9.5525384E-2,-8.383723E-2,-7.6212466E-2,-5.4073602E-2,-5.1160395E-2,-2.8312385E-2,-3.8092E-2,-1.2702455E-3,-6.146887E-4,-2.0662544E-2,1.6655056E-2,3.8695037E-2,-7.844883E-3,1.7267054E-2,4.8195686E-2,2.6252082E-2,1.7697282E-2,-1.8000863E-3,4.578736E-2,2.3112522E-2,1.5987007E-2,4.8816804E-2,6.3940965E-2,7.781425E-2,-5.1875383E-2,2.2019965E-3,6.240011E-2,7.651606E-2,7.508022E-2,8.830744E-2,6.281993E-2,8.065065E-2],"categories":[],"categories_nodes":[],"categories_segments":[],"categories_sizes":[],"default_left":[0,0,0,0,0,0,0,0,0,0,0,0,0,0,0,0,0,0,0,0,0,0,0,0,0,0,0,0,0,0,0,0,0,0,0,0,0,0,0,0,0,0,0,0,0,0,0,0,0,0,0,0,0,0,0,0,0,0,0,0,0,0,0,0,0,0,0,0,0,0,0,0,0,0,0,0,0,0,0,0,0,0,0,0,0,0,0,0,0,0,0,0,0,0,0,0,0,0,0,0,0,0,0,0,0,0,0,0,0,0,0,0,0,0,0,0,0,0,0,0,0,0,0,0,0,0,0],"id":0,"left_children":[1,3,5,7,9,11,13,15,17,19,21,23,25,27,29,31,33,35,37,39,41,43,45,47,49,51,53,55,57,59,61,63,65,67,69,71,73,75,77,79,81,83,85,87,89,91,93,95,97,99,101,103,105,107,109,111,113,115,117,119,121,123,125,-1,-1,-1,-1,-1,-1,-1,-1,-1,-1,-1,-1,-1,-1,-1,-1,-1,-1,-1,-1,-1,-1,-1,-1,-1,-1,-1,-1,-1,-1,-1,-1,-1,-1,-1,-1,-1,-1,-1,-1,-1,-1,-1,-1,-1,-1,-1,-1,-1,-1,-1,-1,-1,-1,-1,-1,-1,-1,-1,-1,-1,-1,-1,-1],"loss_changes":[2.5063858E5,6.883604E4,9.275305E4,3.9790469E3,3.620945E4,9.793719E3,1.0958375E4,2.377E3,1.9039297E3,4.181736E4,3.2293125E3,2.8894956E3,2.71928E3,5.607258E3,1.3156562E3,7.835078E2,1.7535312E3,1.0390996E3,5.806778E2,3.3304258E3,1.4812291E4,1.7703496E3,4.530039E2,1.9212842E2,1.6552319E3,1.4728965E3,1.3677656E3,1.7583809E3,2.962625E3,3.9939062E2,3.529375E2,3.91875E1,1.00639844E3,2.358957E3,9.934277E1,8.135254E1,1.0611758E3,2.4758484E1,4.8512805E2,4.5886328E2,9.49374E2,1.7956318E3,2.3553086E4,3.704287E2,6.23374E2,4.4912207E2,7.382031E1,1.289209E1,3.1548096E1,4.1310254E2,1.0287401E3,5.185296E2,1.3312573E2,2.517191E2,5.6928467E2,1.7208182E2,7.1993164E2,7.5827637E2,7.479375E2,3.519207E1,3.631289E2,2.3338281E2,1.2165576E2,0E0,0E0,0E0,0E0,0E0,0E0,0E0,0E0,0E0,0E0,0E0,0E0,0E0,0E0,0E0,0E0,0E0,0E0,0E0,0E0,0E0,0E0,0E0,0E0,0E0,0E0,0E0,0E0,0E0,0E0,0E0,0E0,0E0,0E0,0E0,0E0,0E0,0E0,0E0,0E0,0E0,0E0,0E0,0E0,0E0,0E0,0E0,0E0,0E0,0E0,0E0,0E0,0E0,0E0,0E0,0E0,0E0,0E0,0E0,0E0,0E0,0E0,0E0,0E0],"parents":[2147483647,0,0,1,1,2,2,3,3,4,4,5,5,6,6,7,7,8,8,9,9,10,10,11,11,12,12,13,13,14,14,15,15,16,16,17,17,18,18,19,19,20,20,21,21,22,22,23,23,24,24,25,25,26,26,27,27,28,28,29,29,30,30,31,31,32,32,33,33,34,34,35,35,36,36,37,37,38,38,39,39,40,40,41,41,42,42,43,43,44,44,45,45,46,46,47,47,48,48,49,49,50,50,51,51,52,52,53,53,54,54,55,55,56,56,57,57,58,58,59,59,60,60,61,61,62,62],"right_children":[2,4,6,8,10,12,14,16,18,20,22,24,26,28,30,32,34,36,38,40,42,44,46,48,50,52,54,56,58,60,62,64,66,68,70,72,74,76,78,80,82,84,86,88,90,92,94,96,98,100,102,104,106,108,110,112,114,116,118,120,122,124,126,-1,-1,-1,-1,-1,-1,-1,-1,-1,-1,-1,-1,-1,-1,-1,-1,-1,-1,-1,-1,-1,-1,-1,-1,-1,-1,-1,-1,-1,-1,-1,-1,-1,-1,-1,-1,-1,-1,-1,-1,-1,-1,-1,-1,-1,-1,-1,-1,-1,-1,-1,-1,-1,-1,-1,-1,-1,-1,-1,-1,-1,-1,-1,-1],"split_conditions":[5.0180507E-1,4.7E-1,4.148148E-1,3.1812954E-1,1.204644E0,2.9985252E-1,2E0,3.7505087E-1,1E0,-1.22001E0,1.5153615E0,1.4897698E-1,7.0666665E-1,6.5739644E-1,6.340469E-1,-1.22001E0,1.2734575E0,-1.3259228E0,-1.3895084E0,-1.5031652E0,1E0,2E0,1.7764043E0,1.0612245E-1,6.5739644E-1,1E0,2.4E-1,1E0,1E0,-1.2704613E0,5.842703E-1,1E0,1.249221E0,-1.22001E0,1.477618E0,-1.5976471E0,1.2734575E0,-1.5031652E0,1.124434E0,-1.7197392E0,1E0,1E0,3.8495222E-1,1E0,2E0,2E0,3E0,-1E0,4.6E-1,-8E-2,9E-2,5.842703E-1,5.701754E-1,3.768572E-1,4.6567044E-1,5.641177E-1,6.048169E-1,-8E-2,7.4492383E-1,-1.5976471E0,2E0,-5.914561E-1,2E0,-9.583271E-2,-8.604282E-2,-6.867388E-2,-9.161384E-2,-8.65127E-2,-4.6144277E-2,-7.598261E-2,-9.115974E-2,-9.2054464E-2,-7.349237E-2,-4.451758E-2,-8.0328435E-2,-8.3819166E-2,-5.3294517E-2,-7.909988E-3,-6.1821993E-2,-9.2348866E-2,-7.3039345E-2,-6.780041E-2,-3.80827E-2,-3.2123107E-2,-1.1610439E-2,-7.99196E-3,3.229634E-2,-5.0394464E-2,-7.731715E-2,-4.778674E-2,-2.246689E-2,-8.872062E-2,-6.23083E-2,-9.6110724E-2,-8.532422E-2,-9.5525384E-2,-8.383723E-2,-7.6212466E-2,-5.4073602E-2,-5.1160395E-2,-2.8312385E-2,-3.8092E-2,-1.2702455E-3,-6.146887E-4,-2.0662544E-2,1.6655056E-2,3.8695037E-2,-7.844883E-3,1.7267054E-2,4.8195686E-2,2.6252082E-2,1.7697282E-2,-1.8000863E-3,4.578736E-2,2.3112522E-2,1.5987007E-2,4.8816804E-2,6.3940965E-2,7.781425E-2,-5.1875383E-2,2.2019965E-3,6.240011E-2,7.651606E-2,7.508022E-2,8.830744E-2,6.281993E-2,8.065065E-2],"split_indices":[75,79,79,75,7,79,12,79,12,7,7,79,75,75,75,7,7,7,7,7,12,9,7,79,75,12,3,12,12,7,7,28,7,7,7,7,7,7,7,7,9,16,75,29,12,9,9,21,3,3,3,7,75,79,23,7,7,3,75,7,9,7,9,0,0,0,0,0,0,0,0,0,0,0,0,0,0,0,0,0,0,0,0,0,0,0,0,0,0,0,0,0,0,0,0,0,0,0,0,0,0,0,0,0,0,0,0,0,0,0,0,0,0,0,0,0,0,0,0,0,0,0,0,0,0,0,0],"split_type":[0,0,0,0,0,0,0,0,0,0,0,0,0,0,0,0,0,0,0,0,0,0,0,0,0,0,0,0,0,0,0,0,0,0,0,0,0,0,0,0,0,0,0,0,0,0,0,0,0,0,0,0,0,0,0,0,0,0,0,0,0,0,0,0,0,0,0,0,0,0,0,0,0,0,0,0,0,0,0,0,0,0,0,0,0,0,0,0,0,0,0,0,0,0,0,0,0,0,0,0,0,0,0,0,0,0,0,0,0,0,0,0,0,0,0,0,0,0,0,0,0,0,0,0,0,0,0],"sum_hessian":[5.768244E5,3.4856772E5,2.2825664E5,1.0443785E5,2.4412986E5,7.790765E4,1.50349E5,7.318555E4,3.1252299E4,2.1381673E5,3.0313127E4,3.1255547E4,4.66521E4,9.112482E4,5.922418E4,4.043329E4,3.2752262E4,2.609667E4,5.155628E3,2.5083672E4,1.8873306E5,1.5756038E4,1.4557088E4,2.5924954E3,2.866305E4,2.6574852E4,2.0077252E4,3.280373E4,5.8321086E4,1.852841E4,4.069577E4,5.359819E3,3.507347E4,2.8066205E4,4.6860557E3,2.4471475E3,2.3649523E4,3.9020444E2,4.7654233E3,1.2537053E4,1.2546619E4,4.2930734E4,1.4580233E5,5.999157E3,9.756881E3,7.194437E3,7.362651E3,1.5735201E3,1.0189753E3,1.5441013E4,1.3222039E4,2.3328676E4,3.2461758E3,4.4902637E3,1.5586988E4,6.7938154E3,2.6009916E4,1.8015299E4,4.0305785E4,1.222259E2,1.8406184E4,3.6786234E4,3.909534E3,3.785722E3,1.574097E3,2.9348771E4,5.7246978E3,4.26925E3,2.3796955E4,1.8029803E3,2.8830752E3,1.1471086E3,1.3000388E3,2.1357773E4,2.291749E3,2.9482217E2,9.5382256E1,4.3042886E3,4.611349E2,6.970387E3,5.5666655E3,3.9045774E3,8.642042E3,2.3112975E4,1.9817758E4,7.793994E4,6.78624E4,1.8608059E3,4.138351E3,4.6176025E3,5.1392783E3,2.4517864E3,4.742651E3,2.5080261E3,4.8546245E3,3.8409283E2,1.1894272E3,2.109437E2,8.080316E2,2.3316045E3,1.3109408E4,2.2943088E3,1.09277295E4,1.9463662E4,3.8650137E3,9.8641E2,2.2597659E3,2.9949226E3,1.495341E3,3.9665295E3,1.1620459E4,5.359509E3,1.434307E3,2.1837148E4,4.1727686E3,1.9768815E3,1.6038417E4,2.3836707E4,1.6469078E4,5.0974426E1,7.1251465E1,8.573881E3,9.832303E3,3.7620916E3,3.3024145E4,2.0997944E3,1.8097397E3],"tree_param":{"num_deleted":"0","num_feature":"80","num_nodes":"127","size_leaf_vector":"1"}},{"base_weights":[-5.085892E-4,-5.0472766E-1,7.8171265E-1,-1.1488557E0,-2.2772296E-1,-2.4349831E-2,1.2359811E0,-1.276665E0,-8.5898644E-1,-8.182329E-2,-1.1602119E0,-3.9857927E-1,3.0159813E-1,1.0318047E0,1.5368654E0,-1.4447695E0,-1.101948E0,-9.680601E-1,-3.1921852E-1,-1.2088724E0,7.897905E-2,-8.686813E-1,-1.5310087E0,-1.0851325E0,-2.8081614E-1,1.203039E-1,5.698218E-1,7.400864E-1,1.210123E0,1.292084E0,1.6125494E0,-1.7671506E0,-1.392276E0,-1.6946336E0,-1.0234904E0,-1.5875052E0,-9.10428E-1,-1.3614525E0,-2.143079E-1,-1.590306E0,-8.6858284E-1,-4.1806284E-1,2.2595268E-1,-1.5256743E0,-5.9572875E-1,-1.8418057E0,-1.4220756E0,-1.6530617E0,-8.6664027E-1,-4.83097E-1,-7.663273E-3,3.1604273E-3,6.784155E-1,8.546241E-2,6.958309E-1,3.1123734E-1,8.4096485E-1,8.9622283E-1,1.3426108E0,1.3236749E0,6.174194E-1,1.6440763E0,1.3503581E0,-9.229835E-2,-8.311502E-2,-6.6100426E-2,-8.7330006E-2,-9.091111E-2,-7.6393746E-2,-4.4811267E-2,-7.853779E-2,-6.704396E-2,-8.574343E-2,-4.21273E-2,-7.419401E-2,-7.943036E-2,-5.0626338E-2,-5.9525594E-3,-6.377592E-2,-8.7506965E-2,-6.9466606E-2,-1.7352324E-2,-5.8343966E-2,-2.9877475E-2,-1.041427E-2,-8.13929E-3,3.025929E-2,-8.423375E-2,-6.557465E-2,-4.329628E-2,-1.6107325E-2,-9.420877E-2,-8.946035E-2,-5.9160143E-2,-8.186054E-2,-9.128132E-2,-7.974815E-2,-6.2372934E-2,-3.88531E-2,-4.195162E-2,-2.0215748E-2,-2.4172954E-2,7.0641264E-3,3.3816695E-3,-1.820056E-2,3.696703E-2,1.1497899E-2,3.1343868E-4,4.5801334E-2,3.183136E-2,6.548784E-2,-1.9472598E-3,1.8809749E-2,4.5456324E-2,2.3803813E-2,1.8889628E-2,4.7947224E-2,5.1464725E-2,6.953897E-2,5.8498453E-2,7.2837554E-2,-3.4108076E-2,3.7025217E-2,7.070427E-2,8.37083E-2,2.8215697E-2,7.678944E-2],"categories":[],"categories_nodes":[],"categories_segments":[],"categories_sizes":[],"default_left":[0,0,0,0,0,0,0,0,0,0,0,0,0,0,0,0,0,0,0,0,0,0,0,0,0,0,0,0,0,0,0,0,0,0,0,0,0,0,0,0,0,0,0,0,0,0,0,0,0,0,0,0,0,0,0,0,0,0,0,0,0,0,0,0,0,0,0,0,0,0,0,0,0,0,0,0,0,0,0,0,0,0,0,0,0,0,0,0,0,0,0,0,0,0,0,0,0,0,0,0,0,0,0,0,0,0,0,0,0,0,0,0,0,0,0,0,0,0,0,0,0,0,0,0,0,0,0],"id":1,"left_children":[1,3,5,7,9,11,13,15,17,19,21,23,25,27,29,31,33,35,37,39,41,43,45,47,49,51,53,55,57,59,61,63,65,67,69,71,73,75,77,79,81,83,85,87,89,91,93,95,97,99,101,103,105,107,109,111,113,115,117,119,121,123,125,-1,-1,-1,-1,-1,-1,-1,-1,-1,-1,-1,-1,-1,-1,-1,-1,-1,-1,-1,-1,-1,-1,-1,-1,-1,-1,-1,-1,-1,-1,-1,-1,-1,-1,-1,-1,-1,-1,-1,-1,-1,-1,-1,-1,-1,-1,-1,-1,-1,-1,-1,-1,-1,-1,-1,-1,-1,-1,-1,-1,-1,-1,-1,-1],"loss_changes":[2.2734936E5,6.253778E4,8.272867E4,3.9038125E3,3.3345234E4,9.93343E3,8.875344E3,2.1467969E3,1.8987461E3,3.8409973E4,3.5832266E3,3.0647368E3,2.1164607E3,4.4771484E3,1.0800781E3,6.2835156E2,1.6663477E3,9.5649414E2,5.927642E2,3.4334258E3,1.3549473E4,3.3286035E3,4.914922E2,6.8728125E2,1.7880422E3,1.6980604E3,1.0713193E3,1.4127031E3,2.2206562E3,2.933125E2,3.665625E2,4.0036133E1,7.959258E2,8.361621E1,2.205125E3,6.940137E1,9.5446484E2,3.7692383E1,4.9811243E2,3.983203E2,2.1757256E3,1.5936411E3,2.1103348E4,1.8335254E2,9.694673E2,5.0615234E0,5.536465E2,1.2537109E1,1.358335E2,5.2101465E2,9.758754E2,5.082248E2,1.2293677E2,2.3843668E2,5.0546875E2,1.4153204E2,6.571797E2,5.153457E2,5.6553125E2,2.679297E2,9.954576E1,2.731953E2,6.9792676E2,0E0,0E0,0E0,0E0,0E0,0E0,0E0,0E0,0E0,0E0,0E0,0E0,0E0,0E0,0E0,0E0,0E0,0E0,0E0,0E0,0E0,0E0,0E0,0E0,0E0,0E0,0E0,0E0,0E0,0E0,0E0,0E0,0E0,0E0,0E0,0E0,0E0,0E0,0E0,0E0,0E0,0E0,0E0,0E0,0E0,0E0,0E0,0E0,0E0,0E0,0E0,0E0,0E0,0E0,0E0,0E0,0E0,0E0,0E0,0E0,0E0,0E0,0E0,0E0],"parents":[2147483647,0,0,1,1,2,2,3,3,4,4,5,5,6,6,7,7,8,8,9,9,10,10,11,11,12,12,13,13,14,14,15,15,16,16,17,17,18,18,19,19,20,20,21,21,22,22,23,23,24,24,25,25,26,26,27,27,28,28,29,29,30,30,31,31,32,32,33,33,34,34,35,35,36,36,37,37,38,38,39,39,40,40,41,41,42,42,43,43,44,44,45,45,46,46,47,47,48,48,49,49,50,50,51,51,52,52,53,53,54,54,55,55,56,56,57,57,58,58,59,59,60,60,61,61,62,62],"right_children":[2,4,6,8,10,12,14,16,18,20,22,24,26,28,30,32,34,36,38,40,42,44,46,48,50,52,54,56,58,60,62,64,66,68,70,72,74,76,78,80,82,84,86,88,90,92,94,96,98,100,102,104,106,108,110,112,114,116,118,120,122,124,126,-1,-1,-1,-1,-1,-1,-1,-1,-1,-1,-1,-1,-1,-1,-1,-1,-1,-1,-1,-1,-1,-1,-1,-1,-1,-1,-1,-1,-1,-1,-1,-1,-1,-1,-1,-1,-1,-1,-1,-1,-1,-1,-1,-1,-1,-1,-1,-1,-1,-1,-1,-1,-1,-1,-1,-1,-1,-1,-1,-1,-1,-1,-1,-1],"split_conditions":[5.1060265E-1,4.7E-1,4.2409033E-1,3.1812954E-1,1.1633852E0,3.1861198E-1,2E0,3.6412174E-1,1E0,-1.1965882E0,1.5153615E0,1.9705397E-1,7.1153843E-1,6.656977E-1,6.160584E-1,-1.1965882E0,-1.2704613E0,-1.3561482E0,-1.2975374E0,-1.5031652E0,1E0,-2.2E-1,-9E-2,1.0612245E-1,6.790997E-1,1E0,1.9E-1,1E0,1E0,5.4373556E-1,5.7414323E-1,-1.4242773E0,1.249221E0,-1.5031652E0,1.204644E0,-1.07E0,1.2265809E0,-1.5031652E0,1.1837066E0,-1.7197392E0,-9.5E-1,1E0,3.644E-1,-6.9E-1,2E0,-6.4E-1,1.7764043E0,-1E0,2.5E-1,4E-2,2.8E-1,6.048169E-1,6.151932E-1,1E0,1E0,-6.022106E-1,6.048169E-1,-8E-2,-4E-2,2E0,-1.4242773E0,-5.8079284E-1,-8.3E-1,-9.229835E-2,-8.311502E-2,-6.6100426E-2,-8.7330006E-2,-9.091111E-2,-7.6393746E-2,-4.4811267E-2,-7.853779E-2,-6.704396E-2,-8.574343E-2,-4.21273E-2,-7.419401E-2,-7.943036E-2,-5.0626338E-2,-5.9525594E-3,-6.377592E-2,-8.7506965E-2,-6.9466606E-2,-1.7352324E-2,-5.8343966E-2,-2.9877475E-2,-1.041427E-2,-8.13929E-3,3.025929E-2,-8.423375E-2,-6.557465E-2,-4.329628E-2,-1.6107325E-2,-9.420877E-2,-8.946035E-2,-5.9160143E-2,-8.186054E-2,-9.128132E-2,-7.974815E-2,-6.2372934E-2,-3.88531E-2,-4.195162E-2,-2.0215748E-2,-2.4172954E-2,7.0641264E-3,3.3816695E-3,-1.820056E-2,3.696703E-2,1.1497899E-2,3.1343868E-4,4.5801334E-2,3.183136E-2,6.548784E-2,-1.9472598E-3,1.8809749E-2,4.5456324E-2,2.3803813E-2,1.8889628E-2,4.7947224E-2,5.1464725E-2,6.953897E-2,5.8498453E-2,7.2837554E-2,-3.4108076E-2,3.7025217E-2,7.070427E-2,8.37083E-2,2.8215697E-2,7.678944E-2],"split_indices":[75,79,79,75,7,79,12,79,12,7,7,79,75,75,75,7,7,7,7,7,12,2,2,79,75,12,3,12,12,23,7,7,7,7,7,2,7,7,7,7,2,16,75,2,12,2,7,21,3,3,3,7,7,12,12,7,7,3,3,9,7,7,2,0,0,0,0,0,0,0,0,0,0,0,0,0,0,0,0,0,0,0,0,0,0,0,0,0,0,0,0,0,0,0,0,0,0,0,0,0,0,0,0,0,0,0,0,0,0,0,0,0,0,0,0,0,0,0,0,0,0,0,0,0,0,0,0],"split_type":[0,0,0,0,0,0,0,0,0,0,0,0,0,0,0,0,0,0,0,0,0,0,0,0,0,0,0,0,0,0,0,0,0,0,0,0,0,0,0,0,0,0,0,0,0,0,0,0,0,0,0,0,0,0,0,0,0,0,0,0,0,0,0,0,0,0,0,0,0,0,0,0,0,0,0,0,0,0,0,0,0,0,0,0,0,0,0,0,0,0,0,0,0,0,0,0,0,0,0,0,0,0,0,0,0,0,0,0,0,0,0,0,0,0,0,0,0,0,0,0,0,0,0,0,0,0,0],"sum_hessian":[5.7642575E5,3.5049644E5,2.2592931E5,1.0540098E5,2.4509547E5,8.143337E4,1.4449594E5,7.3146E4,3.2254977E4,2.1193642E5,3.3159043E4,3.7908918E4,4.352445E4,8.608448E4,5.8411465E4,3.727472E4,3.587128E4,2.6832086E4,5.422891E3,2.6461766E4,1.8547466E5,1.8565604E4,1.4593438E4,5.549192E3,3.2359725E4,2.5971547E4,1.75529E4,3.2659902E4,5.342458E4,1.3799262E4,4.4612203E4,5.214985E3,3.2059734E4,4.190993E3,3.1680287E4,2.2816604E3,2.4550426E4,4.948481E2,4.928043E3,1.2474886E4,1.3986881E4,4.232757E4,1.4314708E5,5.4479287E3,1.3117676E4,3.7833271E3,1.0810111E4,1.5399131E3,4.0092788E3,1.8591322E4,1.3768402E4,2.1466826E4,4.5047217E3,3.6241003E3,1.3928801E4,6.220356E3,2.6439545E4,1.5858709E4,3.756587E4,1.3181099E4,6.181633E2,3.9818953E4,4.793248E3,2.9676138E3,2.247371E3,2.6757973E4,5.3017617E3,2.4013755E3,1.7896176E3,2.5705238E4,5.97505E3,7.8095306E2,1.5007073E3,2.1954096E4,2.5963306E3,2.9757236E2,1.9727579E2,4.523147E3,4.04896E2,6.9443677E3,5.530518E3,5.089919E3,8.896961E3,2.280966E4,1.951791E4,7.068794E4,7.245914E4,3.1228035E3,2.3251252E3,6.5985815E3,6.5190938E3,2.076127E3,1.7072002E3,5.1255356E3,5.684575E3,3.8020508E2,1.159708E3,7.6103094E2,3.2482478E3,3.3674812E3,1.5223841E4,3.282015E3,1.0486388E4,1.826111E4,3.2057168E3,3.9653596E3,5.3936176E2,3.3095454E3,3.1455493E2,1.270558E4,1.2232206E3,9.733716E2,5.2469844E3,2.2276736E4,4.1628086E3,1.7123317E3,1.4146377E4,5.008705E3,3.2557164E4,6.1210024E3,7.060096E3,5.3088715E1,5.6507465E2,4.612349E3,3.5206605E4,9.156851E2,3.877563E3],"tree_param":{"num_deleted":"0","num_feature":"80","num_nodes":"127","size_leaf_vector":"1"}},{"base_weights":[9.518633E-4,-4.8163235E-1,7.388107E-1,-1.0993534E0,-2.1818155E-1,-8.3180666E-2,1.1470554E0,-1.0412502E0,-1.6819655E0,-8.983328E-2,-1.1777698E0,-5.571432E-1,1.2832291E-1,9.4682217E-1,1.4634278E0,-9.558398E-1,-1.5187651E0,-1.4903152E0,-1.8087367E0,-1.1242014E0,6.338298E-2,-9.167779E-1,-1.4905703E0,-1.3653415E0,-4.558191E-1,-8.765139E-2,3.6543307E-1,6.4232993E-1,1.1118255E0,1.2604829E0,1.5563407E0,-1.5156238E0,-8.493624E-1,-1.363946E0,-1.674478E0,-1.352047E0,-1.6968756E0,-1.731347E0,-9.292176E-2,-1.4845535E0,-7.668309E-1,-1.0370724E0,2.0116284E-1,-1.3041401E0,-6.823128E-1,-1.3552018E0,-1.6558645E0,-1.5744803E0,-1.0472804E0,-6.190822E-1,-1.963486E-1,-1.5310687E-1,5.2150226E-1,-1.1772896E-1,4.6981892E-1,2.3345907E-1,7.5781804E-1,8.0048853E-1,1.2586887E0,1.2707816E0,-4.226561E-2,1.5832287E0,1.274374E0,-8.408656E-2,-6.726023E-2,-5.501457E-2,-3.0345444E-2,-7.9619214E-2,-5.9643622E-2,-8.9377895E-2,-8.0489114E-2,-7.266631E-2,-5.003323E-2,-8.007263E-2,-8.9323096E-2,-8.981815E-2,-8.281972E-2,-8.364623E-2,-6.478754E-2,-3.1180922E-2,-7.4896656E-2,-6.9896586E-2,-3.7192814E-2,1.6308438E-2,-6.6681735E-2,-4.9327355E-2,-7.2362386E-2,-6.4618364E-2,-2.2117166E-2,-8.2723886E-2,-6.0374636E-2,-8.883931E-2,-7.9865605E-2,-8.041172E-2,-6.374755E-2,-5.473108E-2,-2.778531E-2,-4.877205E-2,-2.772975E-2,-3.551184E-2,-3.405961E-3,-1.6955672E-2,-2.6147612E-3,6.35319E-4,2.9348994E-2,3.2539614E-3,-3.038283E-2,1.861024E-2,3.9982613E-2,1.4044273E-2,-1.6332995E-2,4.1014962E-2,2.054329E-2,3.165374E-2,4.994294E-2,5.6606095E-2,6.968989E-2,-2.8780255E-2,6.411363E-2,6.85114E-2,8.089834E-2,5.5435628E-2,7.3356874E-2],"categories":[],"categories_nodes":[],"categories_segments":[],"categories_sizes":[],"default_left":[0,0,0,0,0,0,0,0,0,0,0,0,0,0,0,0,0,0,0,0,0,0,0,0,0,0,0,0,0,0,0,0,0,0,0,0,0,0,0,0,0,0,0,0,0,0,0,0,0,0,0,0,0,0,0,0,0,0,0,0,0,0,0,0,0,0,0,0,0,0,0,0,0,0,0,0,0,0,0,0,0,0,0,0,0,0,0,0,0,0,0,0,0,0,0,0,0,0,0,0,0,0,0,0,0,0,0,0,0,0,0,0,0,0,0,0,0,0,0,0,0,0,0],"id":2,"left_children":[1,3,5,7,9,11,13,15,17,19,21,23,25,27,29,31,33,35,37,39,41,43,45,47,49,51,53,55,57,59,61,63,65,67,69,71,73,75,-1,77,79,81,83,85,87,89,91,93,95,97,99,101,103,105,107,109,111,113,115,117,-1,119,121,-1,-1,-1,-1,-1,-1,-1,-1,-1,-1,-1,-1,-1,-1,-1,-1,-1,-1,-1,-1,-1,-1,-1,-1,-1,-1,-1,-1,-1,-1,-1,-1,-1,-1,-1,-1,-1,-1,-1,-1,-1,-1,-1,-1,-1,-1,-1,-1,-1,-1,-1,-1,-1,-1,-1,-1,-1,-1,-1,-1],"loss_changes":[2.0485462E5,5.660375E4,7.633844E4,3.5184844E3,3.0030496E4,7.567601E3,9.627344E3,3.8552734E3,2.2638477E2,3.4084234E4,2.3470195E3,1.9068506E3,2.6730964E3,4.6761562E3,1.108875E3,4.7800312E3,3.435586E2,1.050791E2,1.8589844E1,3.572082E3,2.8401863E4,1.423583E3,2.9048633E2,1.7093018E2,8.767578E2,1.0892954E3,1.2549807E3,1.5447305E3,2.7593516E3,4.024121E2,3.0433594E2,3.6060547E2,4.099867E3,2.7943457E2,4.9414062E1,7.8864746E1,9.9921875E0,7.901367E0,0E0,4.8915234E2,1.4579062E3,2.204412E3,3.1940703E4,2.6730566E2,1.4300483E3,3.1618945E2,3.8833984E1,1.3754639E1,2.3412476E1,2.9142334E2,5.268423E2,4.6254248E2,8.8302246E1,3.9603293E2,6.584883E2,1.9155048E2,5.5269336E2,6.420674E2,6.9984766E2,3.914746E2,0E0,2.706875E2,1.10867676E2,0E0,0E0,0E0,0E0,0E0,0E0,0E0,0E0,0E0,0E0,0E0,0E0,0E0,0E0,0E0,0E0,0E0,0E0,0E0,0E0,0E0,0E0,0E0,0E0,0E0,0E0,0E0,0E0,0E0,0E0,0E0,0E0,0E0,0E0,0E0,0E0,0E0,0E0,0E0,0E0,0E0,0E0,0E0,0E0,0E0,0E0,0E0,0E0,0E0,0E0,0E0,0E0,0E0,0E0,0E0,0E0,0E0,0E0,0E0,0E0],"parents":[2147483647,0,0,1,1,2,2,3,3,4,4,5,5,6,6,7,7,8,8,9,9,10,10,11,11,12,12,13,13,14,14,15,15,16,16,17,17,18,18,19,19,20,20,21,21,22,22,23,23,24,24,25,25,26,26,27,27,28,28,29,29,30,30,31,31,32,32,33,33,34,34,35,35,36,36,37,37,39,39,40,40,41,41,42,42,43,43,44,44,45,45,46,46,47,47,48,48,49,49,50,50,51,51,52,52,53,53,54,54,55,55,56,56,57,57,58,58,59,59,61,61,62,62],"right_children":[2,4,6,8,10,12,14,16,18,20,22,24,26,28,30,32,34,36,38,40,42,44,46,48,50,52,54,56,58,60,62,64,66,68,70,72,74,76,-1,78,80,82,84,86,88,90,92,94,96,98,100,102,104,106,108,110,112,114,116,118,-1,120,122,-1,-1,-1,-1,-1,-1,-1,-1,-1,-1,-1,-1,-1,-1,-1,-1,-1,-1,-1,-1,-1,-1,-1,-1,-1,-1,-1,-1,-1,-1,-1,-1,-1,-1,-1,-1,-1,-1,-1,-1,-1,-1,-1,-1,-1,-1,-1,-1,-1,-1,-1,-1,-1,-1,-1,-1,-1,-1,-1,-1],"split_conditions":[5.0180507E-1,4.7E-1,4.0901604E-1,3.8330977E0,1.2265809E0,2.7558237E-1,2E0,1.204644E0,4.0608068E0,-1.173523E0,1.5566039E0,1.4897698E-1,6.9174623E-1,6.55058E-1,6.340469E-1,-1.1965882E0,1.477618E0,1E0,4.268806E0,-1.4621618E0,8.882089E-1,2E0,1.8578296E0,1.0612245E-1,6.680761E-1,1E0,8.34E1,1E0,1E0,4.0608068E0,6.048169E-1,-1.4621618E0,3.5410336E-1,2E0,2E0,3.1280148E-1,3E0,2.4377458E-1,-9.292176E-2,-1.7197392E0,3.3194852E0,5.053034E-1,3.9138448E0,1E0,1.039883E0,2E0,3E0,1E0,1E0,8.23E1,8.45E1,6.037625E-1,-6.353695E-1,2.7279334E0,2E0,3.2524383E0,6.151932E-1,7.5256413E-1,7.323077E-1,6.87865E-1,-4.226561E-2,1.8922627E0,2E0,-8.408656E-2,-6.726023E-2,-5.501457E-2,-3.0345444E-2,-7.9619214E-2,-5.9643622E-2,-8.9377895E-2,-8.0489114E-2,-7.266631E-2,-5.003323E-2,-8.007263E-2,-8.9323096E-2,-8.981815E-2,-8.281972E-2,-8.364623E-2,-6.478754E-2,-3.1180922E-2,-7.4896656E-2,-6.9896586E-2,-3.7192814E-2,1.6308438E-2,-6.6681735E-2,-4.9327355E-2,-7.2362386E-2,-6.4618364E-2,-2.2117166E-2,-8.2723886E-2,-6.0374636E-2,-8.883931E-2,-7.9865605E-2,-8.041172E-2,-6.374755E-2,-5.473108E-2,-2.778531E-2,-4.877205E-2,-2.772975E-2,-3.551184E-2,-3.405961E-3,-1.6955672E-2,-2.6147612E-3,6.35319E-4,2.9348994E-2,3.2539614E-3,-3.038283E-2,1.861024E-2,3.9982613E-2,1.4044273E-2,-1.6332995E-2,4.1014962E-2,2.054329E-2,3.165374E-2,4.994294E-2,5.6606095E-2,6.968989E-2,-2.8780255E-2,6.411363E-2,6.85114E-2,8.089834E-2,5.5435628E-2,7.3356874E-2],"split_indices":[75,79,79,8,7,79,12,7,8,7,7,79,75,75,75,7,7,9,8,7,8,9,7,79,75,12,0,12,12,8,7,7,79,9,9,75,9,75,0,7,8,8,8,29,8,9,9,19,19,0,0,75,7,8,13,8,7,75,75,8,0,8,9,0,0,0,0,0,0,0,0,0,0,0,0,0,0,0,0,0,0,0,0,0,0,0,0,0,0,0,0,0,0,0,0,0,0,0,0,0,0,0,0,0,0,0,0,0,0,0,0,0,0,0,0,0,0,0,0,0,0,0,0],"split_type":[0,0,0,0,0,0,0,0,0,0,0,0,0,0,0,0,0,0,0,0,0,0,0,0,0,0,0,0,0,0,0,0,0,0,0,0,0,0,0,0,0,0,0,0,0,0,0,0,0,0,0,0,0,0,0,0,0,0,0,0,0,0,0,0,0,0,0,0,0,0,0,0,0,0,0,0,0,0,0,0,0,0,0,0,0,0,0,0,0,0,0,0,0,0,0,0,0,0,0,0,0,0,0,0,0,0,0,0,0,0,0,0,0,0,0,0,0,0,0,0,0,0,0],"sum_hessian":[5.7530456E5,3.4781944E5,2.2748512E5,1.03989336E5,2.4383011E5,7.548951E4,1.5199562E5,9.456161E4,9.427731E3,2.1506545E5,2.8764662E4,2.3292115E4,5.2197395E4,9.308547E4,5.8910152E4,8.02167E4,1.43449E4,3.7584854E3,5.6692456E3,2.7745863E4,1.873196E5,1.5683077E4,1.3081584E4,2.5934373E3,2.0698678E4,2.7316502E4,2.4880895E4,3.2716436E4,6.036903E4,1.8505072E4,4.0405082E4,1.2817583E4,6.7399125E4,7.197987E3,7.146914E3,2.2559397E3,1.5025455E3,2.2310042E3,3.4382415E3,1.38137295E4,1.3932133E4,2.0842541E4,1.6647705E5,5.9117134E3,9.771364E3,7.19687E3,5.884714E3,1.5622448E3,1.0311926E3,1.2703832E4,7.994845E3,2.4666732E4,2.6497695E3,4.4204053E3,2.046049E4,7.206338E3,2.5510098E4,1.9351668E4,4.1017363E4,1.8415406E4,8.9666306E1,3.6883312E4,3.521767E3,6.4864185E3,6.3311646E3,3.311892E4,3.42802E4,3.078666E3,4.119321E3,2.591205E3,4.555709E3,1.7487579E3,5.0718192E2,7.3671124E2,7.658343E2,1.1823933E3,1.048611E3,6.910835E3,6.902895E3,1.1651603E4,2.2805295E3,9.341834E3,1.1500706E4,1.5393978E5,1.2537271E4,1.8388099E3,4.0729036E3,2.7573066E3,7.014057E3,2.374881E3,4.821989E3,1.9102803E3,3.9744338E3,1.4000981E3,1.621466E2,9.394883E2,9.170435E1,1.9444722E3,1.075936E4,1.5956455E3,6.3991997E3,8.669099E3,1.5997634E4,3.0225797E2,2.3475115E3,3.2198428E3,1.2005626E3,1.5789668E4,4.6708213E3,6.644254E3,5.620837E2,2.1615998E4,3.8940989E3,1.0496979E4,8.854689E3,2.1183027E4,1.9834338E4,1.1359538E2,1.830181E4,5.1774517E3,3.1705861E4,1.8976626E3,1.6241045E3],"tree_param":{"num_deleted":"0","num_feature":"80","num_nodes":"123","size_leaf_vector":"1"}},{"base_weights":[1.9445697E-4,-4.712946E-1,6.869821E-1,-7.7264935E-1,-8.830335E-2,-1.0221424E-1,9.806051E-1,-1.2383212E0,-6.319661E-1,-7.6468056E-1,1.3352123E-1,-3.7156802E-1,2.6508337E-1,7.0373154E-1,1.1666256E0,-1.4016148E0,-1.1065701E0,-5.291066E-1,-1.3308868E0,-1.3928256E0,-6.8383586E-1,-8.862121E-1,2.8195894E-1,-5.65422E-1,-2.082118E-1,1.1238507E-1,6.375807E-1,5.8305156E-1,9.830931E-1,1.0144814E0,1.3177884E0,-1.6661646E0,-1.3432438E0,-1.0383729E0,-1.5073062E0,-1.3290575E0,-4.0700337E-1,-1.6540133E0,-1.2136177E0,-1.142477E0,-1.5615537E0,-5.7160455E-1,-1.2927227E0,-1.3048345E0,-5.773828E-1,-8.018686E-1,4.2544916E-1,-6.006406E-1,-1.9937257E-1,-6.371336E-1,-1.5502451E-1,-3.408455E-1,2.0830715E-1,1.332024E-1,7.2802037E-1,4.2713916E-1,7.490979E-1,-5.66966E-1,1.002273E0,9.121151E-1,1.2095664E0,1.2321858E0,1.4502335E0,-8.523337E-2,-7.528546E-2,-6.426993E-2,-8.451008E-2,-7.656417E-2,-4.8801687E-2,-8.5154444E-2,-6.919069E-2,-7.9295576E-2,-5.5291325E-2,-1.5501116E-2,-7.6617636E-2,-7.7743776E-2,-8.536942E-2,-4.8792057E-2,-7.4488424E-2,-7.308092E-2,-4.0451158E-2,-8.507027E-2,-7.110753E-2,-5.2960314E-2,-2.3771452E-2,-8.083776E-2,-5.5698622E-2,-5.2917887E-2,-8.229201E-2,-1.1802881E-2,-6.179997E-2,-6.4625345E-2,-2.0920552E-2,3.0025387E-2,-3.4673106E-2,-4.6483304E-2,-2.8105242E-2,-1.5816713E-2,1.3138567E-3,-8.925683E-3,-5.6449156E-2,-1.2502898E-2,2.209925E-3,2.8643662E-3,-3.3948522E-2,5.0892523E-3,2.1223728E-2,1.8420286E-2,-2.1825003E-2,3.2722928E-2,5.428148E-2,-6.968905E-3,3.1484175E-2,4.2122044E-2,-2.7597747E-3,-5.7540942E-2,-8.171463E-3,5.076879E-2,-4.658596E-2,4.632665E-2,2.1270543E-2,4.672329E-2,6.2688895E-2,6.3340984E-2,4.4673976E-2,6.312914E-2,7.3859565E-2],"categories":[],"categories_nodes":[],"categories_segments":[],"categories_sizes":[],"default_left":[0,0,0,0,0,0,0,0,0,0,0,0,0,0,0,0,0,0,0,0,0,0,0,0,0,0,0,0,0,0,0,0,0,0,0,0,0,0,0,0,0,0,0,0,0,0,0,0,0,0,0,0,0,0,0,0,0,0,0,0,0,0,0,0,0,0,0,0,0,0,0,0,0,0,0,0,0,0,0,0,0,0,0,0,0,0,0,0,0,0,0,0,0,0,0,0,0,0,0,0,0,0,0,0,0,0,0,0,0,0,0,0,0,0,0,0,0,0,0,0,0,0,0,0,0,0,0],"id":3,"left_children":[1,3,5,7,9,11,13,15,17,19,21,23,25,27,29,31,33,35,37,39,41,43,45,47,49,51,53,55,57,59,61,63,65,67,69,71,73,75,77,79,81,83,85,87,89,91,93,95,97,99,101,103,105,107,109,111,113,115,117,119,121,123,125,-1,-1,-1,-1,-1,-1,-1,-1,-1,-1,-1,-1,-1,-1,-1,-1,-1,-1,-1,-1,-1,-1,-1,-1,-1,-1,-1,-1,-1,-1,-1,-1,-1,-1,-1,-1,-1,-1,-1,-1,-1,-1,-1,-1,-1,-1,-1,-1,-1,-1,-1,-1,-1,-1,-1,-1,-1,-1,-1,-1,-1,-1,-1,-1],"loss_changes":[1.8579827E5,3.9266656E4,5.412314E4,1.2472844E4,2.2478318E4,6.266071E3,8.766719E3,9.488281E2,1.0511703E4,1.8779844E3,1.7077283E4,1.1570039E3,1.5241057E3,2.3058203E3,2.3403594E3,3.023203E2,6.6672656E2,1.2450289E4,7.088164E2,1.7639062E2,2.2395156E3,1.8526396E3,1.5316423E4,2.152959E2,4.5231946E2,8.26386E2,3.5528442E2,1.2365537E3,6.14084E2,1.0123633E3,5.772344E2,1.943164E1,3.2220703E2,6.4072656E2,8.357178E1,9.660957E2,1.2069174E4,2.3762695E1,9.02541E2,1.7994214E2,4.6652832E1,1.2976768E3,2.936748E2,5.0973145E2,1.8546934E3,2.165776E3,1.7035752E4,1.9274072E2,3.875408E1,4.9324255E2,3.340794E2,4.4701907E2,3.6118457E2,1.5904994E2,1.7306885E2,2.827691E3,1.7369141E3,5.938822E1,5.174961E2,2.3319336E2,2.1121289E2,3.6283984E2,9.953516E1,0E0,0E0,0E0,0E0,0E0,0E0,0E0,0E0,0E0,0E0,0E0,0E0,0E0,0E0,0E0,0E0,0E0,0E0,0E0,0E0,0E0,0E0,0E0,0E0,0E0,0E0,0E0,0E0,0E0,0E0,0E0,0E0,0E0,0E0,0E0,0E0,0E0,0E0,0E0,0E0,0E0,0E0,0E0,0E0,0E0,0E0,0E0,0E0,0E0,0E0,0E0,0E0,0E0,0E0,0E0,0E0,0E0,0E0,0E0,0E0,0E0,0E0,0E0,0E0],"parents":[2147483647,0,0,1,1,2,2,3,3,4,4,5,5,6,6,7,7,8,8,9,9,10,10,11,11,12,12,13,13,14,14,15,15,16,16,17,17,18,18,19,19,20,20,21,21,22,22,23,23,24,24,25,25,26,26,27,27,28,28,29,29,30,30,31,31,32,32,33,33,34,34,35,35,36,36,37,37,38,38,39,39,40,40,41,41,42,42,43,43,44,44,45,45,46,46,47,47,48,48,49,49,50,50,51,51,52,52,53,53,54,54,55,55,56,56,57,57,58,58,59,59,60,60,61,61,62,62],"right_children":[2,4,6,8,10,12,14,16,18,20,22,24,26,28,30,32,34,36,38,40,42,44,46,48,50,52,54,56,58,60,62,64,66,68,70,72,74,76,78,80,82,84,86,88,90,92,94,96,98,100,102,104,106,108,110,112,114,116,118,120,122,124,126,-1,-1,-1,-1,-1,-1,-1,-1,-1,-1,-1,-1,-1,-1,-1,-1,-1,-1,-1,-1,-1,-1,-1,-1,-1,-1,-1,-1,-1,-1,-1,-1,-1,-1,-1,-1,-1,-1,-1,-1,-1,-1,-1,-1,-1,-1,-1,-1,-1,-1,-1,-1,-1,-1,-1,-1,-1,-1,-1,-1,-1,-1,-1,-1],"split_conditions":[4.7326908E-1,3.5422137E-1,1E0,1E0,1E0,7.013201E-1,6.5286237E-1,2.6E-1,1.3242643E0,-1.1306833E0,1.0169832E0,6.188748E-1,7.841389E-1,3E0,2E0,-1.151666E0,1.249221E0,-1.244891E0,-1.1E-1,-9E-1,9.58071E-1,5.564118E-1,-1.1306833E0,1E0,-3.2E-1,3E-2,-2E-2,2E0,7.2640526E-1,7.5256413E-1,7.4492383E-1,1E0,3.7969847E0,-1.2975374E0,7E-2,-1.5485313E0,4.0073047E0,1.477618E0,1.6515759E0,-1.4242773E0,1E0,1.3537309E0,-1.8E-1,2E-1,5.2E-1,-1.4621618E0,1.0364136E0,-3.9E-1,2E0,2.194006E0,1E0,2.3475118E0,1E0,2.7078025E0,8.503937E-1,1.9317734E0,2.9490664E0,2.2585239E-1,4.0608068E0,3.4124458E0,6E-2,6.151932E-1,-1.1E-1,-8.523337E-2,-7.528546E-2,-6.426993E-2,-8.451008E-2,-7.656417E-2,-4.8801687E-2,-8.5154444E-2,-6.919069E-2,-7.9295576E-2,-5.5291325E-2,-1.5501116E-2,-7.6617636E-2,-7.7743776E-2,-8.536942E-2,-4.8792057E-2,-7.4488424E-2,-7.308092E-2,-4.0451158E-2,-8.507027E-2,-7.110753E-2,-5.2960314E-2,-2.3771452E-2,-8.083776E-2,-5.5698622E-2,-5.2917887E-2,-8.229201E-2,-1.1802881E-2,-6.179997E-2,-6.4625345E-2,-2.0920552E-2,3.0025387E-2,-3.4673106E-2,-4.6483304E-2,-2.8105242E-2,-1.5816713E-2,1.3138567E-3,-8.925683E-3,-5.6449156E-2,-1.2502898E-2,2.209925E-3,2.8643662E-3,-3.3948522E-2,5.0892523E-3,2.1223728E-2,1.8420286E-2,-2.1825003E-2,3.2722928E-2,5.428148E-2,-6.968905E-3,3.1484175E-2,4.2122044E-2,-2.7597747E-3,-5.7540942E-2,-8.171463E-3,5.076879E-2,-4.658596E-2,4.632665E-2,2.1270543E-2,4.672329E-2,6.2688895E-2,6.3340984E-2,4.4673976E-2,6.312914E-2,7.3859565E-2],"split_indices":[75,75,16,16,16,75,75,75,7,7,8,75,75,16,16,7,7,7,2,2,7,8,7,19,3,3,3,9,8,75,75,28,8,7,2,7,8,7,7,7,28,8,2,3,3,7,7,3,22,8,17,8,17,8,75,8,8,8,8,8,3,7,3,0,0,0,0,0,0,0,0,0,0,0,0,0,0,0,0,0,0,0,0,0,0,0,0,0,0,0,0,0,0,0,0,0,0,0,0,0,0,0,0,0,0,0,0,0,0,0,0,0,0,0,0,0,0,0,0,0,0,0,0,0,0,0,0],"split_type":[0,0,0,0,0,0,0,0,0,0,0,0,0,0,0,0,0,0,0,0,0,0,0,0,0,0,0,0,0,0,0,0,0,0,0,0,0,0,0,0,0,0,0,0,0,0,0,0,0,0,0,0,0,0,0,0,0,0,0,0,0,0,0,0,0,0,0,0,0,0,0,0,0,0,0,0,0,0,0,0,0,0,0,0,0,0,0,0,0,0,0,0,0,0,0,0,0,0,0,0,0,0,0,0,0,0,0,0,0,0,0,0,0,0,0,0,0,0,0,0,0,0,0,0,0,0,0],"sum_hessian":[5.737809E5,3.4021734E5,2.3356353E5,1.904006E5,1.4981675E5,6.333451E4,1.7022903E5,4.4173906E4,1.4622669E5,3.6998918E4,1.1281783E5,3.6539008E4,2.6795504E4,6.8410836E4,1.0181819E5,1.9721383E4,2.4452525E4,1.2746895E5,1.8757725E4,4.217064E3,3.278185E4,1.4334957E4,9.848287E4,1.6708572E4,1.9830436E4,1.9005754E4,7.78975E3,4.777559E4,2.0635246E4,5.0748203E4,5.1069984E4,3.559847E3,1.6161536E4,2.089945E4,3.5530752E3,1.68788E4,1.1059016E5,4.9913447E3,1.3766381E4,1.7009985E3,2.5160654E3,2.7681482E4,5.10037E3,6.084333E3,8.250624E3,1.1513458E4,8.6969414E4,1.5241505E4,1.467067E3,2.186524E3,1.764391E4,3.3193435E3,1.568641E4,1.1847759E3,6.604974E3,2.4641525E4,2.3134064E4,2.5186401E2,2.0383383E4,3.328719E4,1.746101E4,3.1026875E4,2.004311E4,2.8631775E3,6.966695E2,1.3856133E4,2.3054036E3,2.3437837E3,1.8555666E4,1.369347E3,2.1837283E3,7.845502E3,9.033299E3,1.01816984E5,8.773172E3,1.757372E3,3.2339727E3,7.3995825E3,6.366798E3,8.674237E2,8.335748E2,1.2504197E3,1.2656456E3,4.5587905E3,2.3122691E4,1.810433E3,3.2899373E3,3.5340488E3,2.550284E3,5.4352085E3,2.8154153E3,5.049806E3,6.4636523E3,7.520389E4,1.1765517E4,1.5955209E3,1.3645984E4,9.659707E2,5.0109634E2,1.1321891E3,1.0543348E3,1.1945438E4,5.6984727E3,1.5247836E3,1.7945599E3,1.0509199E4,5.1772104E3,8.3881995E2,3.4595593E2,5.48045E3,1.1245239E3,6.4898105E3,1.8151715E4,2.072837E4,2.4056956E3,1.02177605E2,1.4968642E2,2.0246688E4,1.3669508E2,3.2328605E4,9.585882E2,2.4206938E3,1.5040316E4,2.8146111E4,2.8807642E3,2.5236929E3,1.7519416E4],"tree_param":{"num_deleted":"0","num_feature":"80","num_nodes":"127","size_leaf_vector":"1"}},{"base_weights":[1.404977E-4,-4.427928E-1,6.670661E-1,-8.850691E-1,-1.8312861E-1,6.1848484E-2,1.1302143E0,-1.1663055E0,-6.1594176E-1,-5.106143E-1,2.510851E-1,-2.0793897E-1,3.7970814E-1,9.452598E-1,1.3485078E0,-1.3717415E0,-1.0549384E0,-1.2701215E0,-5.3165954E-1,-1.2911909E0,-3.9600125E-1,-7.936508E-1,4.147843E-1,-3.5764614E-1,4.3951876E-2,4.2277756E-1,-1.1002573E0,6.575112E-1,1.1468773E0,1.1121783E0,1.4251094E0,-1.6111432E0,-1.3067975E0,-9.767267E-1,-1.4095454E0,-9.9767727E-1,-1.4648732E0,-4.2301586E-1,-1.2265198E0,-1.5150344E0,-1.0829434E0,-2.8870338E-1,-1.4189825E0,-1.2590911E0,-4.8974037E-1,-8.859905E-1,5.34671E-1,-5.7239884E-1,-2.3913905E-1,1.5742439E-1,-1.3220934E0,2.3511793E-1,7.69166E-1,-8.499455E-2,-9.846107E-1,4.146229E-1,7.5695604E-1,1.0152744E0,1.266982E0,-3.6888164E-1,1.1304659E0,1.4544215E0,1.1449089E0,-8.255066E-2,-7.139542E-2,-6.2162627E-2,-8.133123E-2,-7.26855E-2,-4.507285E-2,-8.233025E-2,-6.4012565E-2,-7.441939E-2,-3.6207817E-2,-8.092043E-2,-6.6253684E-2,-4.9673118E-2,-1.63657E-2,-7.914695E-2,-5.1622808E-2,-6.6946104E-2,-8.3750434E-2,-4.246217E-2,-7.252123E-2,-7.437003E-3,-5.464821E-2,-5.6492962E-2,-8.503904E-2,-5.205782E-2,-7.851194E-2,-9.857459E-3,-5.60543E-2,-6.720874E-2,-2.7696416E-2,3.5449445E-2,-2.631542E-2,-3.8272433E-2,-2.4203291E-2,-2.7869726E-2,-8.9719E-3,-6.5577873E-3,1.4729261E-2,-8.132775E-2,-6.1424967E-2,5.3480226E-3,3.1177191E-2,1.7443236E-2,4.4487156E-2,-4.7151085E-2,-8.148039E-2,1.581412E-3,2.456727E-2,4.0230084E-2,1.8805506E-2,5.2557897E-2,2.909013E-2,4.833161E-2,6.5976754E-2,-4.9284946E-2,8.550964E-3,5.713147E-2,-3.891441E-2,6.2814035E-2,7.471684E-2,1.8581405E-2,6.7110166E-2],"categories":[],"categories_nodes":[],"categories_segments":[],"categories_sizes":[],"default_left":[0,0,0,0,0,0,0,0,0,0,0,0,0,0,0,0,0,0,0,0,0,0,0,0,0,0,0,0,0,0,0,0,0,0,0,0,0,0,0,0,0,0,0,0,0,0,0,0,0,0,0,0,0,0,0,0,0,0,0,0,0,0,0,0,0,0,0,0,0,0,0,0,0,0,0,0,0,0,0,0,0,0,0,0,0,0,0,0,0,0,0,0,0,0,0,0,0,0,0,0,0,0,0,0,0,0,0,0,0,0,0,0,0,0,0,0,0,0,0,0,0,0,0,0,0],"id":4,"left_children":[1,3,5,7,9,11,13,15,17,19,21,23,25,27,29,31,33,35,37,39,41,43,45,47,49,51,53,55,57,59,61,63,65,67,69,71,73,75,77,79,81,83,85,87,89,91,93,95,97,99,101,103,105,-1,107,109,111,113,115,117,119,121,123,-1,-1,-1,-1,-1,-1,-1,-1,-1,-1,-1,-1,-1,-1,-1,-1,-1,-1,-1,-1,-1,-1,-1,-1,-1,-1,-1,-1,-1,-1,-1,-1,-1,-1,-1,-1,-1,-1,-1,-1,-1,-1,-1,-1,-1,-1,-1,-1,-1,-1,-1,-1,-1,-1,-1,-1,-1,-1,-1,-1,-1,-1],"loss_changes":[1.6893912E5,3.946646E4,6.3975875E4,9.621258E3,3.0790566E4,8.484982E3,5.2188594E3,1.4207734E3,3.5811465E3,1.104258E4,1.5921865E4,2.0182373E3,2.8959346E3,4.0600078E3,1.0719219E3,3.3760156E2,1.1167422E3,3.9190234E2,4.344134E3,7.3502734E2,1.1813842E4,1.7833086E3,1.2551857E4,8.541797E2,3.0929238E3,2.8691558E3,8.742468E1,6.962881E2,6.4922656E2,3.9370117E2,3.661328E2,3.1671875E1,3.4738086E2,1.184668E3,2.2111426E2,4.1413916E2,9.060547E1,2.7168096E3,5.365664E2,2.1226953E2,7.0216016E2,1.0965785E4,8.3053906E2,3.361377E2,1.4094834E3,1.0326895E3,1.3629963E4,2.0317603E2,4.109402E2,7.2923895E2,4.1609863E1,1.4252262E3,7.857412E2,0E0,2.7420288E1,2.4622461E2,3.709756E2,3.0492578E2,3.383086E2,5.9399258E1,3.3390234E2,3.1871094E2,6.4722363E2,0E0,0E0,0E0,0E0,0E0,0E0,0E0,0E0,0E0,0E0,0E0,0E0,0E0,0E0,0E0,0E0,0E0,0E0,0E0,0E0,0E0,0E0,0E0,0E0,0E0,0E0,0E0,0E0,0E0,0E0,0E0,0E0,0E0,0E0,0E0,0E0,0E0,0E0,0E0,0E0,0E0,0E0,0E0,0E0,0E0,0E0,0E0,0E0,0E0,0E0,0E0,0E0,0E0,0E0,0E0,0E0,0E0,0E0,0E0,0E0,0E0,0E0],"parents":[2147483647,0,0,1,1,2,2,3,3,4,4,5,5,6,6,7,7,8,8,9,9,10,10,11,11,12,12,13,13,14,14,15,15,16,16,17,17,18,18,19,19,20,20,21,21,22,22,23,23,24,24,25,25,26,26,27,27,28,28,29,29,30,30,31,31,32,32,33,33,34,34,35,35,36,36,37,37,38,38,39,39,40,40,41,41,42,42,43,43,44,44,45,45,46,46,47,47,48,48,49,49,50,50,51,51,52,52,54,54,55,55,56,56,57,57,58,58,59,59,60,60,61,61,62,62],"right_children":[2,4,6,8,10,12,14,16,18,20,22,24,26,28,30,32,34,36,38,40,42,44,46,48,50,52,54,56,58,60,62,64,66,68,70,72,74,76,78,80,82,84,86,88,90,92,94,96,98,100,102,104,106,-1,108,110,112,114,116,118,120,122,124,-1,-1,-1,-1,-1,-1,-1,-1,-1,-1,-1,-1,-1,-1,-1,-1,-1,-1,-1,-1,-1,-1,-1,-1,-1,-1,-1,-1,-1,-1,-1,-1,-1,-1,-1,-1,-1,-1,-1,-1,-1,-1,-1,-1,-1,-1,-1,-1,-1,-1,-1,-1,-1,-1,-1,-1,-1,-1,-1,-1,-1,-1],"split_conditions":[4.9149922E-1,1E0,1E0,3.3519194E-1,3.5799137E-1,6.9402987E-1,2E0,2.3367584E-1,-1.1306833E0,7.6218474E-1,1.0169832E0,1E0,3E0,6.5739644E-1,6.12542E-1,-1.1104043E0,1.1633852E0,-9E-1,1.0203246E0,3.8453603E-1,3.958221E0,5.053034E-1,-1.2704613E0,6.006637E-1,3E0,1E0,-2E0,5.701754E-1,7.2688717E-1,7.6218474E-1,6.048169E-1,1E0,3.7632246E0,-1.22001E0,-8E-2,-1.5485313E0,1E0,1.2563796E0,-1.8E-1,-4E-2,2.9E-1,1.2734575E0,4.268806E0,1.7E-1,5.1E-1,-1.5976471E0,1.0040997E0,4.322302E-1,-8E-2,5.9430605E-1,-1E0,7.891791E-1,3.5E-1,-8.499455E-2,6E0,-6.2405586E-1,6.581074E-1,6.472615E-1,4E-2,3.1124717E-1,4.0608068E0,1.9219421E0,-8E-1,-8.255066E-2,-7.139542E-2,-6.2162627E-2,-8.133123E-2,-7.26855E-2,-4.507285E-2,-8.233025E-2,-6.4012565E-2,-7.441939E-2,-3.6207817E-2,-8.092043E-2,-6.6253684E-2,-4.9673118E-2,-1.63657E-2,-7.914695E-2,-5.1622808E-2,-6.6946104E-2,-8.3750434E-2,-4.246217E-2,-7.252123E-2,-7.437003E-3,-5.464821E-2,-5.6492962E-2,-8.503904E-2,-5.205782E-2,-7.851194E-2,-9.857459E-3,-5.60543E-2,-6.720874E-2,-2.7696416E-2,3.5449445E-2,-2.631542E-2,-3.8272433E-2,-2.4203291E-2,-2.7869726E-2,-8.9719E-3,-6.5577873E-3,1.4729261E-2,-8.132775E-2,-6.1424967E-2,5.3480226E-3,3.1177191E-2,1.7443236E-2,4.4487156E-2,-4.7151085E-2,-8.148039E-2,1.581412E-3,2.456727E-2,4.0230084E-2,1.8805506E-2,5.2557897E-2,2.909013E-2,4.833161E-2,6.5976754E-2,-4.9284946E-2,8.550964E-3,5.713147E-2,-3.891441E-2,6.2814035E-2,7.471684E-2,1.8581405E-2,6.7110166E-2],"split_indices":[75,12,12,75,75,75,12,75,7,8,8,16,11,75,75,7,7,2,7,8,8,8,7,75,11,11,21,75,75,8,7,28,8,7,2,7,28,8,2,3,3,7,8,3,3,7,7,77,3,75,21,75,3,0,21,7,7,7,3,8,8,8,2,0,0,0,0,0,0,0,0,0,0,0,0,0,0,0,0,0,0,0,0,0,0,0,0,0,0,0,0,0,0,0,0,0,0,0,0,0,0,0,0,0,0,0,0,0,0,0,0,0,0,0,0,0,0,0,0,0,0,0,0,0,0],"split_type":[0,0,0,0,0,0,0,0,0,0,0,0,0,0,0,0,0,0,0,0,0,0,0,0,0,0,0,0,0,0,0,0,0,0,0,0,0,0,0,0,0,0,0,0,0,0,0,0,0,0,0,0,0,0,0,0,0,0,0,0,0,0,0,0,0,0,0,0,0,0,0,0,0,0,0,0,0,0,0,0,0,0,0,0,0,0,0,0,0,0,0,0,0,0,0,0,0,0,0,0,0,0,0,0,0,0,0,0,0,0,0,0,0,0,0,0,0,0,0,0,0,0,0,0,0],"sum_hessian":[5.718907E5,3.436552E5,2.2823552E5,1.271252E5,2.1652998E5,9.894308E4,1.2929244E5,6.2162465E4,6.4962742E4,1.23434805E5,9.309518E4,5.3518723E4,4.5424355E4,6.9993805E4,5.9298637E4,2.184824E4,4.0314227E4,7.412725E3,5.7550016E4,1.5802304E4,1.076325E5,1.2610505E4,8.048467E4,3.356782E4,1.9950902E4,4.4140508E4,1.2838467E3,2.8839004E4,4.1154797E4,1.4519354E4,4.4779285E4,4.6570967E3,1.7191145E4,3.303239E4,7.281834E3,3.0925652E3,4.32016E3,4.976993E4,7.780085E3,7.6129375E3,8.1893657E3,9.741606E4,1.02164375E4,4.980184E3,7.6303203E3,6.7913965E3,7.369328E4,1.1935347E4,2.1632475E4,1.8421572E4,1.5293296E3,2.8631023E4,1.5509484E4,2.0535754E2,1.0784891E3,8.378989E3,2.0460014E4,1.9641924E4,2.1512875E4,1.7685913E2,1.4342494E4,4.0534703E4,4.244579E3,3.8182717E3,8.388251E2,1.4345742E4,2.845402E3,4.499678E3,2.8532713E4,2.5657747E3,4.716059E3,1.1052496E3,1.9873156E3,2.0538904E3,2.2662695E3,7.148825E3,4.2621105E4,2.740217E3,5.039868E3,3.6281497E3,3.9847878E3,5.0078984E3,3.1814673E3,8.2976984E4,1.4439076E4,5.0451514E3,5.1712856E3,2.931348E3,2.0488364E3,5.214857E3,2.4154639E3,2.8524695E3,3.938927E3,6.3294402E4,1.0398877E4,3.7443928E3,8.1909536E3,3.4156946E3,1.821678E4,5.934886E3,1.2486686E4,3.5573718E2,1.1735924E3,2.1529006E4,7.102018E3,3.4583716E3,1.2051113E4,1.015474E3,6.3015156E1,1.3986107E3,6.9803784E3,1.8183998E4,2.2760151E3,1.8138924E4,1.5029995E3,3.206507E3,1.8306367E4,8.216402E1,9.469512E1,1.4252075E4,9.041944E1,6.8019736E3,3.373273E4,8.6340625E2,3.381173E3],"tree_param":{"num_deleted":"0","num_feature":"80","num_nodes":"125","size_leaf_vector":"1"}},{"base_weights":[-4.7558686E-4,5.347755E-1,-2.880305E-1,-2.1862784E-1,8.97834E-1,-8.080274E-1,-7.4775875E-2,-5.918586E-1,2.6961923E-2,9.606375E-1,-8.496744E-1,-7.125399E-1,-1.2902952E0,-9.410766E-1,6.085684E-2,-1.1718508E0,-4.8693368E-1,7.26382E-2,-1.1605878E0,6.6518825E-1,1.1587884E0,-4.4519702E-1,-1.4691364E0,-1.3093001E0,-5.93668E-1,-1.5873781E0,-1.1495533E0,-1.2561797E0,-6.447959E-1,-9.1878456E-1,1.8745002E-1,-1.5163046E0,-9.604843E-1,-4.3615943E-1,-1.3304485E0,-2.9163596E-1,1.4812714E-1,-8.2846236E-1,-1.5202806E0,-7.9706097E-1,7.019213E-1,-4.714106E-1,1.1921873E0,-1.1231931E0,-1.5948951E-1,-1.2081348E0,-1.6779397E0,-1.047028E0,-1.4533908E0,-9.4351095E-1,-4.1794255E-1,-1.6491718E0,-1.4906013E0,-9.3835676E-1,-1.4385824E0,-1.0904614E0,-1.5785568E0,-3.9534366E-1,-1.2930491E0,-1.2893279E0,-5.6908286E-1,3.6263853E-1,-7.7250785E-1,-7.716485E-2,-6.391003E-2,-4.581602E-2,-7.903773E-2,-4.2749714E-2,-1.7473746E-2,-5.22556E-2,-7.573932E-2,-6.0237558E-3,-4.637998E-2,-1.5177053E-2,1.09975785E-2,-6.4391635E-2,-2.4867078E-2,-6.65855E-2,-8.298803E-2,-6.674156E-2,-2.0685907E-2,3.8364694E-2,5.460523E-4,-5.6572735E-2,-2.9224828E-3,6.0816932E-2,-2.2484569E-2,-7.115271E-2,-3.5000257E-2,-5.2016795E-2,2.9018125E-3,-7.677505E-2,-4.633265E-2,-7.910105E-2,-8.8706814E-2,-6.9196686E-2,-3.4886654E-2,-6.783538E-2,-8.086199E-2,-6.73145E-2,-4.3224372E-2,-5.61164E-2,-1.4941153E-2,-8.4416956E-2,-8.046685E-2,-6.886177E-2,-7.991706E-2,-4.3773584E-2,-7.37265E-2,-6.619724E-2,-7.7787444E-2,-7.027318E-2,-4.405781E-2,-8.4383145E-2,-7.34282E-2,-1.0643853E-2,-4.936751E-2,-8.207303E-2,-4.925211E-2,-7.420031E-2,-5.343643E-2,-1.6229798E-3,-4.6038847E-2,2.3903565E-2,-5.468268E-2,-6.665505E-2,-2.5316292E-2],"categories":[],"categories_nodes":[],"categories_segments":[],"categories_sizes":[],"default_left":[0,0,0,0,0,0,0,0,0,0,0,0,0,0,0,0,0,0,0,0,0,0,0,0,0,0,0,0,0,0,0,0,0,0,0,0,0,0,0,0,0,0,0,0,0,0,0,0,0,0,0,0,0,0,0,0,0,0,0,0,0,0,0,0,0,0,0,0,0,0,0,0,0,0,0,0,0,0,0,0,0,0,0,0,0,0,0,0,0,0,0,0,0,0,0,0,0,0,0,0,0,0,0,0,0,0,0,0,0,0,0,0,0,0,0,0,0,0,0,0,0,0,0,0,0,0,0],"id":5,"left_children":[1,3,5,7,9,11,13,15,17,19,21,23,25,27,29,31,33,35,37,39,41,43,45,47,49,51,53,55,57,59,61,63,65,67,69,71,73,75,77,79,81,83,85,87,89,91,93,95,97,99,101,103,105,107,109,111,113,115,117,119,121,123,125,-1,-1,-1,-1,-1,-1,-1,-1,-1,-1,-1,-1,-1,-1,-1,-1,-1,-1,-1,-1,-1,-1,-1,-1,-1,-1,-1,-1,-1,-1,-1,-1,-1,-1,-1,-1,-1,-1,-1,-1,-1,-1,-1,-1,-1,-1,-1,-1,-1,-1,-1,-1,-1,-1,-1,-1,-1,-1,-1,-1,-1,-1,-1,-1],"loss_changes":[8.7678875E4,5.4456008E4,4.10937E4,5.934266E3,1.4745211E4,4.9622266E3,3.087879E4,1.5630283E3,2.118172E3,7.5914844E3,1.1672654E3,6.381211E3,7.429004E2,3.3204902E3,2.8179809E4,2.85063E2,9.3133984E2,1.0340734E3,1.7152368E2,2.7970273E3,4.2268906E3,5.46351E2,9.829614E1,5.6319336E2,4.6117754E3,3.1765625E1,7.366045E2,9.192617E2,2.964814E3,3.3687285E3,3.384083E4,7.6347656E0,6.5434814E1,7.449021E2,6.3371094E1,7.0254834E2,1.010557E3,1.1407538E2,1.6020996E1,2.625569E2,2.2942168E3,4.2490167E2,3.0168047E3,1.051272E2,3.806131E2,7.429834E1,6.606201E0,6.229956E2,1.5054688E2,7.972207E2,4.1900146E3,2.71875E0,2.516504E1,2.3432715E2,6.647266E1,7.496787E2,6.773535E1,1.4303564E3,5.451572E2,5.40584E2,2.5250503E3,2.860666E4,4.633412E3,0E0,0E0,0E0,0E0,0E0,0E0,0E0,0E0,0E0,0E0,0E0,0E0,0E0,0E0,0E0,0E0,0E0,0E0,0E0,0E0,0E0,0E0,0E0,0E0,0E0,0E0,0E0,0E0,0E0,0E0,0E0,0E0,0E0,0E0,0E0,0E0,0E0,0E0,0E0,0E0,0E0,0E0,0E0,0E0,0E0,0E0,0E0,0E0,0E0,0E0,0E0,0E0,0E0,0E0,0E0,0E0,0E0,0E0,0E0,0E0,0E0,0E0,0E0,0E0],"parents":[2147483647,0,0,1,1,2,2,3,3,4,4,5,5,6,6,7,7,8,8,9,9,10,10,11,11,12,12,13,13,14,14,15,15,16,16,17,17,18,18,19,19,20,20,21,21,22,22,23,23,24,24,25,25,26,26,27,27,28,28,29,29,30,30,31,31,32,32,33,33,34,34,35,35,36,36,37,37,38,38,39,39,40,40,41,41,42,42,43,43,44,44,45,45,46,46,47,47,48,48,49,49,50,50,51,51,52,52,53,53,54,54,55,55,56,56,57,57,58,58,59,59,60,60,61,61,62,62],"right_children":[2,4,6,8,10,12,14,16,18,20,22,24,26,28,30,32,34,36,38,40,42,44,46,48,50,52,54,56,58,60,62,64,66,68,70,72,74,76,78,80,82,84,86,88,90,92,94,96,98,100,102,104,106,108,110,112,114,116,118,120,122,124,126,-1,-1,-1,-1,-1,-1,-1,-1,-1,-1,-1,-1,-1,-1,-1,-1,-1,-1,-1,-1,-1,-1,-1,-1,-1,-1,-1,-1,-1,-1,-1,-1,-1,-1,-1,-1,-1,-1,-1,-1,-1,-1,-1,-1,-1,-1,-1,-1,-1,-1,-1,-1,-1,-1,-1,-1,-1,-1,-1,-1,-1,-1,-1,-1],"split_conditions":[2.0748663E-1,3.9814425E-1,4.624374E-1,2.7758893E-1,3.7003844E0,1.0702229E0,9.9297374E-1,1.7521137E-1,3.5420938E0,5.2463335E-1,4.1218424E0,-1.0907396E0,-1.6E-1,6.039981E-1,-1.1306833E0,1.0612245E-1,3.5182536E0,5E-2,3.8330977E0,-9.5099086E-1,-1.0907396E0,9.6E-1,4.363274E0,-9.9E-1,3.1861198E-1,-6.3E-1,1.4431299E0,3.2E-1,5.9E-1,-1.4242773E0,1.0702229E0,1E0,3.5420938E0,5E-2,3.731104E0,2.6875365E0,1.8622305E0,1.03E0,4.0608068E0,-1.3259228E0,6.69029E-1,-1.4621618E0,1.0203246E0,2E0,-6.927658E-1,2E0,4.6472583E0,-1.3895084E0,1.9E-1,2.0661278E-1,1.039883E0,-1E0,1.3242643E0,3.1031919E0,1.7095708E0,1.2391334E-1,3.1124717E-1,1.0040997E0,2E0,-1.6543863E0,-9E-1,3.8330977E0,-1.5E-1,-7.716485E-2,-6.391003E-2,-4.581602E-2,-7.903773E-2,-4.2749714E-2,-1.7473746E-2,-5.22556E-2,-7.573932E-2,-6.0237558E-3,-4.637998E-2,-1.5177053E-2,1.09975785E-2,-6.4391635E-2,-2.4867078E-2,-6.65855E-2,-8.298803E-2,-6.674156E-2,-2.0685907E-2,3.8364694E-2,5.460523E-4,-5.6572735E-2,-2.9224828E-3,6.0816932E-2,-2.2484569E-2,-7.115271E-2,-3.5000257E-2,-5.2016795E-2,2.9018125E-3,-7.677505E-2,-4.633265E-2,-7.910105E-2,-8.8706814E-2,-6.9196686E-2,-3.4886654E-2,-6.783538E-2,-8.086199E-2,-6.73145E-2,-4.3224372E-2,-5.61164E-2,-1.4941153E-2,-8.4416956E-2,-8.046685E-2,-6.886177E-2,-7.991706E-2,-4.3773584E-2,-7.37265E-2,-6.619724E-2,-7.7787444E-2,-7.027318E-2,-4.405781E-2,-8.4383145E-2,-7.34282E-2,-1.0643853E-2,-4.936751E-2,-8.207303E-2,-4.925211E-2,-7.420031E-2,-5.343643E-2,-1.6229798E-3,-4.6038847E-2,2.3903565E-2,-5.468268E-2,-6.665505E-2,-2.5316292E-2],"split_indices":[76,79,79,79,8,7,8,79,8,79,8,7,2,8,7,79,8,3,8,7,7,3,8,2,79,2,7,3,3,7,7,19,8,3,8,8,8,3,8,7,7,7,7,12,7,12,8,7,2,79,8,2,7,8,7,8,8,7,9,7,2,8,2,0,0,0,0,0,0,0,0,0,0,0,0,0,0,0,0,0,0,0,0,0,0,0,0,0,0,0,0,0,0,0,0,0,0,0,0,0,0,0,0,0,0,0,0,0,0,0,0,0,0,0,0,0,0,0,0,0,0,0,0,0,0,0,0],"split_type":[0,0,0,0,0,0,0,0,0,0,0,0,0,0,0,0,0,0,0,0,0,0,0,0,0,0,0,0,0,0,0,0,0,0,0,0,0,0,0,0,0,0,0,0,0,0,0,0,0,0,0,0,0,0,0,0,0,0,0,0,0,0,0,0,0,0,0,0,0,0,0,0,0,0,0,0,0,0,0,0,0,0,0,0,0,0,0,0,0,0,0,0,0,0,0,0,0,0,0,0,0,0,0,0,0,0,0,0,0,0,0,0,0,0,0,0,0,0,0,0,0,0,0,0,0,0,0],"sum_hessian":[5.696592E5,1.9908466E5,3.7057453E5,6.473981E4,1.3434484E5,1.07774945E5,2.6279956E5,2.5692566E4,3.9047242E4,1.29684586E5,4.660267E3,8.9964695E4,1.7810244E4,3.5574633E4,2.2722494E5,3.934381E3,2.1758186E4,3.7601914E4,1.4453293E3,5.206235E4,7.7622234E4,2.8204043E3,1.839863E3,1.494215E4,7.502255E4,5.7219277E3,1.2088315E4,1.7238137E4,1.8336498E4,2.6002023E4,2.0122292E5,1.493813E3,2.440568E3,2.0524271E4,1.2339135E3,6.4541846E3,3.1147729E4,7.531786E2,6.9215076E2,1.2752969E3,5.0787055E4,1.5581006E3,7.606413E4,8.352912E2,1.985113E3,8.207374E2,1.0191256E3,5.301212E3,9.640938E3,2.5082566E4,4.993998E4,3.482347E3,2.239581E3,6.987053E3,5.101262E3,1.1388333E4,5.8498027E3,1.3242359E4,5.094139E3,1.26235E4,1.3378522E4,1.7016847E5,3.105445E4,1.3367876E3,1.5702531E2,2.28066E3,1.5990808E2,3.5179043E3,1.7006367E4,4.8690405E2,7.470094E2,5.086431E3,1.3677537E3,4.2730996E3,2.6874629E4,3.1428104E2,4.3889758E2,2.9877194E2,3.9337878E2,5.2971173E2,7.4558514E2,4.6397477E4,4.389576E3,5.989872E2,9.5911346E2,7.4961734E4,1.1023943E3,4.8749857E2,3.4779266E2,3.9239014E2,1.5927229E3,3.7738257E2,4.433549E2,5.1903534E2,5.0009024E2,2.6969536E3,2.6042585E3,6.069034E3,3.571904E3,4.111324E3,2.0971242E4,7.2225713E3,4.271741E4,1.7350227E3,1.7473241E3,1.0980135E3,1.1415675E3,6.2559556E3,7.310979E2,2.5846726E3,2.5165896E3,4.5439775E3,6.8443555E3,2.9295403E3,2.9202625E3,1.0123485E4,3.1188733E3,2.388258E3,2.7058813E3,6.7026772E3,5.9208228E3,5.297129E3,8.0813936E3,1.5767134E5,1.2497124E4,9.996756E3,2.1057693E4],"tree_param":{"num_deleted":"0","num_feature":"80","num_nodes":"127","size_leaf_vector":"1"}},{"base_weights":[-9.1283495E-4,-4.14654E-1,6.0421085E-1,-9.553712E-1,-1.9041784E-1,-3.6756087E-2,9.9138004E-1,-9.01632E-1,-1.4830953E0,-8.421718E-2,-1.034174E0,-3.5571977E-1,2.3174736E-1,8.1117624E-1,1.2541558E0,-8.269523E-1,-1.3127974E0,-1.3129679E0,-1.5974698E0,-1.0619862E0,3.3580314E-2,-8.1368595E-1,-1.3354684E0,-9.463171E-1,-2.510629E-1,3.7178572E-2,4.1787684E-1,5.8071035E-1,1.0020627E0,1.0064403E0,1.3330871E0,-1.3259214E0,-7.375545E-1,-1.1722559E0,-1.454836E0,-1.5438492E0,-1.1585157E0,-1.497541E0,-1.6329434E0,-1.3656492E0,-8.0168897E-1,1.16272144E-1,-1.2463707E0,-1.0457767E0,-5.786652E-1,-1.2041073E0,-1.4639798E0,-1.4586182E0,-7.605553E-1,-4.7024056E-1,-7.382379E-2,-6.532648E-2,4.2923182E-1,8.755684E-3,5.266436E-1,2.634864E-1,6.549218E-1,7.41223E-1,1.110514E0,-6.7990315E-1,1.0313436E0,1.1452383E0,1.3756182E0,-7.5458564E-2,-5.96546E-2,-5.176248E-2,-2.923717E-2,-5.320653E-2,-7.077954E-2,-7.625267E-2,-6.8058625E-2,-8.2817845E-2,-7.4214876E-2,-6.334959E-2,-4.135799E-2,-8.1759766E-2,-7.0543915E-2,-7.957961E-2,-8.272127E-2,-7.549053E-2,-6.1027642E-2,-3.4147486E-2,-7.0575245E-2,-3.691293E-2,1.3849129E-2,-4.465085E-2,-8.0737256E-2,-4.4911884E-2,-6.812991E-2,-5.736309E-2,-2.1002997E-2,-5.37918E-2,-7.134231E-2,-7.642393E-2,-6.7398444E-2,-7.4418984E-2,-5.9973657E-2,-4.055887E-2,-1.2201517E-2,-4.301761E-2,-2.1375442E-2,-2.1625226E-2,3.1323433E-3,-1.3780541E-3,-2.6788333E-2,7.8699365E-4,2.4892682E-2,7.7468217E-3,-3.930263E-2,3.867749E-2,1.9898554E-2,1.6387142E-2,-4.2164065E-3,2.2780573E-2,3.9271392E-2,1.3752011E-2,4.0045924E-2,4.1073002E-2,5.788673E-2,-6.0882147E-2,-1.7984595E-2,5.2386414E-2,-3.2857697E-2,6.490681E-2,2.2944782E-2,7.0234746E-2,5.4789092E-2],"categories":[],"categories_nodes":[],"categories_segments":[],"categories_sizes":[],"default_left":[0,0,0,0,0,0,0,0,0,0,0,0,0,0,0,0,0,0,0,0,0,0,0,0,0,0,0,0,0,0,0,0,0,0,0,0,0,0,0,0,0,0,0,0,0,0,0,0,0,0,0,0,0,0,0,0,0,0,0,0,0,0,0,0,0,0,0,0,0,0,0,0,0,0,0,0,0,0,0,0,0,0,0,0,0,0,0,0,0,0,0,0,0,0,0,0,0,0,0,0,0,0,0,0,0,0,0,0,0,0,0,0,0,0,0,0,0,0,0,0,0,0,0,0,0,0,0],"id":6,"left_children":[1,3,5,7,9,11,13,15,17,19,21,23,25,27,29,31,33,35,37,39,41,43,45,47,49,51,53,55,57,59,61,63,65,67,69,71,73,75,77,79,81,83,85,87,89,91,93,95,97,99,101,103,105,107,109,111,113,115,117,119,121,123,125,-1,-1,-1,-1,-1,-1,-1,-1,-1,-1,-1,-1,-1,-1,-1,-1,-1,-1,-1,-1,-1,-1,-1,-1,-1,-1,-1,-1,-1,-1,-1,-1,-1,-1,-1,-1,-1,-1,-1,-1,-1,-1,-1,-1,-1,-1,-1,-1,-1,-1,-1,-1,-1,-1,-1,-1,-1,-1,-1,-1,-1,-1,-1,-1],"loss_changes":[1.4197064E5,4.0834484E4,5.7144523E4,2.7984297E3,2.1332076E4,7.4265767E3,6.796828E3,2.7502188E3,1.7541016E2,2.4354494E4,1.7669414E3,2.449517E3,1.705063E3,3.745875E3,1.1404688E3,3.3816562E3,2.7319727E2,1.2919287E2,1.6875E1,1.7959746E3,1.9973994E4,8.3779395E2,1.8806445E2,5.666221E2,1.307896E3,9.251549E2,1.0707612E3,9.081338E2,1.3168164E3,5.934746E2,3.5221875E2,2.786289E2,2.9250352E3,1.807539E2,4.2942383E1,7.385498E0,7.8201416E1,1.4871582E1,9.3066406E-1,2.1762695E2,8.856328E2,2.4344158E4,1.489252E3,3.6020508E2,6.884448E2,1.5750049E2,4.043457E1,1.0450439E1,1.1433472E2,2.5057251E2,9.1129913E2,3.2421857E2,1.3538019E2,5.8740375E2,6.036128E2,1.635474E2,8.1294434E2,3.8053662E2,4.4807812E2,3.5036064E1,3.8552148E2,8.579346E2,2.9221875E2,0E0,0E0,0E0,0E0,0E0,0E0,0E0,0E0,0E0,0E0,0E0,0E0,0E0,0E0,0E0,0E0,0E0,0E0,0E0,0E0,0E0,0E0,0E0,0E0,0E0,0E0,0E0,0E0,0E0,0E0,0E0,0E0,0E0,0E0,0E0,0E0,0E0,0E0,0E0,0E0,0E0,0E0,0E0,0E0,0E0,0E0,0E0,0E0,0E0,0E0,0E0,0E0,0E0,0E0,0E0,0E0,0E0,0E0,0E0,0E0,0E0,0E0,0E0,0E0],"parents":[2147483647,0,0,1,1,2,2,3,3,4,4,5,5,6,6,7,7,8,8,9,9,10,10,11,11,12,12,13,13,14,14,15,15,16,16,17,17,18,18,19,19,20,20,21,21,22,22,23,23,24,24,25,25,26,26,27,27,28,28,29,29,30,30,31,31,32,32,33,33,34,34,35,35,36,36,37,37,38,38,39,39,40,40,41,41,42,42,43,43,44,44,45,45,46,46,47,47,48,48,49,49,50,50,51,51,52,52,53,53,54,54,55,55,56,56,57,57,58,58,59,59,60,60,61,61,62,62],"right_children":[2,4,6,8,10,12,14,16,18,20,22,24,26,28,30,32,34,36,38,40,42,44,46,48,50,52,54,56,58,60,62,64,66,68,70,72,74,76,78,80,82,84,86,88,90,92,94,96,98,100,102,104,106,108,110,112,114,116,118,120,122,124,126,-1,-1,-1,-1,-1,-1,-1,-1,-1,-1,-1,-1,-1,-1,-1,-1,-1,-1,-1,-1,-1,-1,-1,-1,-1,-1,-1,-1,-1,-1,-1,-1,-1,-1,-1,-1,-1,-1,-1,-1,-1,-1,-1,-1,-1,-1,-1,-1,-1,-1,-1,-1,-1,-1,-1,-1,-1,-1,-1,-1,-1,-1,-1,-1],"split_conditions":[4.7326908E-1,4.7E-1,4.2986768E-1,3.8330977E0,1.249221E0,3.1861198E-1,2E0,1.204644E0,4.0608068E0,-1.244891E0,1.6016837E0,1.9705397E-1,6.818182E-1,6.790997E-1,6.066667E-1,-1.22001E0,1.477618E0,1.06E0,4.189753E0,-1.5485313E0,3.958221E0,2E0,1.8578296E0,1.0612245E-1,6.414373E-1,1E0,1.9E-1,1E0,1E0,5.564118E-1,1.9514188E0,-1.5485313E0,3.1575593E-1,1.04E0,2.6860605E1,3E-1,3.0829072E-1,1.06E0,4.363274E0,-1.7975059E0,3.33769E0,1.039883E0,4.268806E0,1.03E0,9.68643E-1,8.95E1,2.8751472E1,1E0,1E0,-3.9E-1,3.8E-1,3.2524383E0,-5.914561E-1,2.8901088E0,4.5037565E-1,6.2589926E-1,5.976096E-1,-6E-2,-1E-2,-2.8209162E-3,4.0608068E0,1.06E0,6.151932E-1,-7.5458564E-2,-5.96546E-2,-5.176248E-2,-2.923717E-2,-5.320653E-2,-7.077954E-2,-7.625267E-2,-6.8058625E-2,-8.2817845E-2,-7.4214876E-2,-6.334959E-2,-4.135799E-2,-8.1759766E-2,-7.0543915E-2,-7.957961E-2,-8.272127E-2,-7.549053E-2,-6.1027642E-2,-3.4147486E-2,-7.0575245E-2,-3.691293E-2,1.3849129E-2,-4.465085E-2,-8.0737256E-2,-4.4911884E-2,-6.812991E-2,-5.736309E-2,-2.1002997E-2,-5.37918E-2,-7.134231E-2,-7.642393E-2,-6.7398444E-2,-7.4418984E-2,-5.9973657E-2,-4.055887E-2,-1.2201517E-2,-4.301761E-2,-2.1375442E-2,-2.1625226E-2,3.1323433E-3,-1.3780541E-3,-2.6788333E-2,7.8699365E-4,2.4892682E-2,7.7468217E-3,-3.930263E-2,3.867749E-2,1.9898554E-2,1.6387142E-2,-4.2164065E-3,2.2780573E-2,3.9271392E-2,1.3752011E-2,4.0045924E-2,4.1073002E-2,5.788673E-2,-6.0882147E-2,-1.7984595E-2,5.2386414E-2,-3.2857697E-2,6.490681E-2,2.2944782E-2,7.0234746E-2,5.4789092E-2],"split_indices":[75,79,79,8,7,79,12,7,8,7,7,79,75,75,75,7,7,3,8,7,8,12,7,79,75,12,3,12,12,8,8,7,79,3,1,3,75,3,8,7,8,8,8,3,8,0,1,19,19,3,3,8,7,8,68,7,75,3,3,8,8,3,7,0,0,0,0,0,0,0,0,0,0,0,0,0,0,0,0,0,0,0,0,0,0,0,0,0,0,0,0,0,0,0,0,0,0,0,0,0,0,0,0,0,0,0,0,0,0,0,0,0,0,0,0,0,0,0,0,0,0,0,0,0,0,0,0],"split_type":[0,0,0,0,0,0,0,0,0,0,0,0,0,0,0,0,0,0,0,0,0,0,0,0,0,0,0,0,0,0,0,0,0,0,0,0,0,0,0,0,0,0,0,0,0,0,0,0,0,0,0,0,0,0,0,0,0,0,0,0,0,0,0,0,0,0,0,0,0,0,0,0,0,0,0,0,0,0,0,0,0,0,0,0,0,0,0,0,0,0,0,0,0,0,0,0,0,0,0,0,0,0,0,0,0,0,0,0,0,0,0,0,0,0,0,0,0,0,0,0,0,0,0,0,0,0,0],"sum_hessian":[5.670536E5,3.3678438E5,2.3026923E5,9.8723016E4,2.3806138E5,8.67137E4,1.4355552E5,8.960143E4,9.12158E3,2.1144822E5,2.6613156E4,3.9632586E4,4.7081117E4,8.515965E4,5.8395875E4,7.583126E4,1.3770175E4,3.6720447E3,5.4495356E3,2.273447E4,1.8871375E5,1.5369453E4,1.1243702E4,5.9646963E3,3.366789E4,2.30193E4,2.4061818E4,3.8581945E4,4.6577703E4,1.4114178E4,4.42817E4,1.1519872E4,6.4311387E4,6.9262134E3,6.843962E3,1.4682507E3,2.203794E3,1.4390259E3,4.01051E3,1.0491193E4,1.2243278E4,1.7726253E5,1.145122E4,7.731195E3,7.638259E3,5.565333E3,5.678369E3,1.5854442E3,4.379252E3,1.5052275E4,1.8615615E4,1.8248846E4,4.7704546E3,5.053685E3,1.9008133E4,7.3155376E3,3.1266406E4,1.3680991E4,3.289671E4,2.050165E2,1.3909161E4,8.1801294E3,3.610157E4,4.8367666E3,6.6831055E3,2.1812375E4,4.249901E4,4.79911E3,2.1271035E3,3.9028225E3,2.9411392E3,4.9889792E2,9.693528E2,1.6581436E3,5.4565027E2,5.4904974E2,8.8997614E2,1.3968206E3,2.6136895E3,5.2578374E3,5.2333555E3,1.0249655E4,1.9936235E3,2.80597E4,1.4920283E5,5.8465205E3,5.604699E3,5.2774155E3,2.4537793E3,1.6645714E3,5.9736875E3,3.5352673E3,2.0300658E3,3.641584E3,2.0367853E3,1.4178661E3,1.6757806E2,3.9878518E3,3.9140042E2,1.4841217E3,1.3568153E4,5.130126E3,1.3485489E4,1.689373E4,1.3551149E3,6.7917896E2,4.0912754E3,4.269285E3,7.843998E2,6.5104287E3,1.2497705E4,6.1748345E3,1.1407029E3,1.2373673E4,1.8892734E4,1.5536451E3,1.2127346E4,4.6220234E3,2.827469E4,7.547186E1,1.2954465E2,1.3775863E4,1.3329803E2,6.6890947E3,1.4910345E3,3.2699832E4,3.401737E3],"tree_param":{"num_deleted":"0","num_feature":"80","num_nodes":"127","size_leaf_vector":"1"}},{"base_weights":[-3.7477526E-4,-3.727957E-1,6.126276E-1,-8.7586033E-1,-1.5613472E-1,1.2378881E-3,9.809847E-1,-9.909475E-1,-5.7833964E-1,-4.0138885E-2,-8.858149E-1,-2.914862E-1,2.5382745E-1,8.076606E-1,1.2402043E0,-9.3885195E-1,-1.4367379E0,-7.922915E-1,-3.34115E-1,-8.3429605E-1,1.0551682E-1,-6.4134115E-1,-1.2325969E0,-1.036722E0,-2.1776767E-1,1.1388029E-1,4.5692897E-1,6.064637E-1,9.666748E-1,1.1241777E0,1.3456672E0,-8.7199676E-1,-1.3437822E0,-1.2940513E0,-1.5500597E0,-7.5625825E-1,-1.3967081E0,-1.1189704E0,-2.674391E-1,-1.2129556E0,-5.2858704E-1,-7.680062E-1,2.2721425E-1,-8.888695E-1,-3.8156995E-1,-1.0765802E0,-1.3867363E0,-1.3808599E0,-7.778259E-1,-6.105649E-1,-1.3551223E-1,2.2647632E-2,5.315797E-1,1.015722E-1,5.8251625E-1,2.8745294E-1,6.826258E-1,7.1086496E-1,1.0750473E0,1.1746413E0,8.70465E-1,1.113121E0,1.3657646E0,-6.547501E-2,-3.8929656E-2,-6.1118085E-2,-7.143029E-2,-7.087805E-2,-5.15046E-2,-7.474671E-2,-7.926119E-2,-5.6401182E-2,-3.4760054E-2,-6.073871E-2,-7.892012E-2,-4.1538667E-2,-7.234857E-2,-1.043623E-2,-6.698584E-2,-6.967089E-2,-5.016924E-2,-1.904407E-2,-6.2395155E-2,-2.5036981E-2,-6.256483E-2,1.7078908E-2,-5.142426E-2,-3.7074547E-2,-6.0986906E-2,-5.1999908E-2,-1.0792791E-2,-4.7005188E-2,-6.771454E-2,-6.537468E-2,-7.512092E-2,-7.737956E-2,-6.623428E-2,-4.115448E-2,-1.6121624E-2,-2.1308215E-2,-5.244108E-2,-1.4722778E-2,4.617539E-3,3.9156755E-3,-1.51519915E-2,1.3134404E-3,2.8858496E-2,1.2148137E-2,-3.093938E-2,4.0344376E-2,2.1800902E-2,1.7815841E-2,7.1963045E-4,3.7221547E-2,1.8772125E-2,1.1937621E-2,3.8446505E-2,3.8772635E-2,5.595286E-2,4.3385945E-2,6.096471E-2,5.3474426E-2,3.1841993E-2,6.0085814E-2,4.534403E-2,6.9627784E-2,5.7964273E-2],"categories":[],"categories_nodes":[],"categories_segments":[],"categories_sizes":[],"default_left":[0,0,0,0,0,0,0,0,0,0,0,0,0,0,0,0,0,0,0,0,0,0,0,0,0,0,0,0,0,0,0,0,0,0,0,0,0,0,0,0,0,0,0,0,0,0,0,0,0,0,0,0,0,0,0,0,0,0,0,0,0,0,0,0,0,0,0,0,0,0,0,0,0,0,0,0,0,0,0,0,0,0,0,0,0,0,0,0,0,0,0,0,0,0,0,0,0,0,0,0,0,0,0,0,0,0,0,0,0,0,0,0,0,0,0,0,0,0,0,0,0,0,0,0,0,0,0],"id":7,"left_children":[1,3,5,7,9,11,13,15,17,19,21,23,25,27,29,31,33,35,37,39,41,43,45,47,49,51,53,55,57,59,61,63,65,67,69,71,73,75,77,79,81,83,85,87,89,91,93,95,97,99,101,103,105,107,109,111,113,115,117,119,121,123,125,-1,-1,-1,-1,-1,-1,-1,-1,-1,-1,-1,-1,-1,-1,-1,-1,-1,-1,-1,-1,-1,-1,-1,-1,-1,-1,-1,-1,-1,-1,-1,-1,-1,-1,-1,-1,-1,-1,-1,-1,-1,-1,-1,-1,-1,-1,-1,-1,-1,-1,-1,-1,-1,-1,-1,-1,-1,-1,-1,-1,-1,-1,-1,-1],"loss_changes":[1.2875795E5,3.82402E4,4.8003875E4,3.6157969E3,2.075632E4,5.9255527E3,5.975117E3,1.7672734E3,1.539167E3,2.4476107E4,2.8509062E3,2.0391367E3,1.2227168E3,2.549789E3,6.506797E2,1.8448516E3,1.2680859E2,3.4094727E2,7.197317E2,3.79558E3,1.9007885E4,1.268356E3,3.3294727E2,2.966162E2,1.0913761E3,9.706354E2,7.8314966E2,8.54876E2,1.2335625E3,3.239746E2,1.289375E2,2.3907695E3,9.775781E1,1.1370215E2,6.227539E0,3.3566016E2,2.7249023E1,1.0060986E2,7.9822876E2,5.5259766E2,1.9275488E3,2.8235605E3,2.2537861E4,4.9172998E2,1.0504027E3,2.6084863E2,6.213379E1,1.1372803E1,3.908557E1,4.7223267E2,1.0116932E3,3.7904456E2,1.05172E2,4.6702774E2,4.2586426E2,1.2757153E2,5.390908E2,3.6310547E2,4.1147266E2,2.8907227E2,1.9530835E2,3.9583252E1,1.404961E2,0E0,0E0,0E0,0E0,0E0,0E0,0E0,0E0,0E0,0E0,0E0,0E0,0E0,0E0,0E0,0E0,0E0,0E0,0E0,0E0,0E0,0E0,0E0,0E0,0E0,0E0,0E0,0E0,0E0,0E0,0E0,0E0,0E0,0E0,0E0,0E0,0E0,0E0,0E0,0E0,0E0,0E0,0E0,0E0,0E0,0E0,0E0,0E0,0E0,0E0,0E0,0E0,0E0,0E0,0E0,0E0,0E0,0E0,0E0,0E0,0E0,0E0,0E0,0E0],"parents":[2147483647,0,0,1,1,2,2,3,3,4,4,5,5,6,6,7,7,8,8,9,9,10,10,11,11,12,12,13,13,14,14,15,15,16,16,17,17,18,18,19,19,20,20,21,21,22,22,23,23,24,24,25,25,26,26,27,27,28,28,29,29,30,30,31,31,32,32,33,33,34,34,35,35,36,36,37,37,38,38,39,39,40,40,41,41,42,42,43,43,44,44,45,45,46,46,47,47,48,48,49,49,50,50,51,51,52,52,53,53,54,54,55,55,56,56,57,57,58,58,59,59,60,60,61,61,62,62],"right_children":[2,4,6,8,10,12,14,16,18,20,22,24,26,28,30,32,34,36,38,40,42,44,46,48,50,52,54,56,58,60,62,64,66,68,70,72,74,76,78,80,82,84,86,88,90,92,94,96,98,100,102,104,106,108,110,112,114,116,118,120,122,124,126,-1,-1,-1,-1,-1,-1,-1,-1,-1,-1,-1,-1,-1,-1,-1,-1,-1,-1,-1,-1,-1,-1,-1,-1,-1,-1,-1,-1,-1,-1,-1,-1,-1,-1,-1,-1,-1,-1,-1,-1,-1,-1,-1,-1,-1,-1,-1,-1,-1,-1,-1,-1,-1,-1,-1,-1,-1,-1,-1,-1,-1,-1,-1,-1],"split_conditions":[5.32725E-1,4.7E-1,4.2986768E-1,3.328877E-1,1.1434925E0,3.2177985E-1,2E0,3.7969847E0,3.595806E-1,-1.0907396E0,1.5153615E0,1.7521137E-1,7.1364653E-1,6.8442625E-1,6.818182E-1,1.2734575E0,4.0608068E0,3.8330977E0,7.6218474E-1,-1.4242773E0,9.43191E-1,2E0,1.7764043E0,1.0612245E-1,5E-2,1E0,3.4E-1,1E0,1E0,5.9449536E-1,-6.022106E-1,-1.151666E0,1.477618E0,1.37E0,4.268806E0,2.0661278E-1,4.1218424E0,2.3E-1,3.9138448E0,-1.6543863E0,3.2854764E0,4.2E-1,3.8719163E0,1.07E0,9.68643E-1,8.4E-1,2.1013017E0,-1E0,1E0,2.5888748E0,6.8442625E-1,6.048169E-1,-6.6938674E-1,2.8901088E0,4.606933E-1,5.641177E-1,5.842703E-1,-8E-2,-6E-2,-6.465971E-1,9.09E1,5.8E-1,5.044756E-1,-6.547501E-2,-3.8929656E-2,-6.1118085E-2,-7.143029E-2,-7.087805E-2,-5.15046E-2,-7.474671E-2,-7.926119E-2,-5.6401182E-2,-3.4760054E-2,-6.073871E-2,-7.892012E-2,-4.1538667E-2,-7.234857E-2,-1.043623E-2,-6.698584E-2,-6.967089E-2,-5.016924E-2,-1.904407E-2,-6.2395155E-2,-2.5036981E-2,-6.256483E-2,1.7078908E-2,-5.142426E-2,-3.7074547E-2,-6.0986906E-2,-5.1999908E-2,-1.0792791E-2,-4.7005188E-2,-6.771454E-2,-6.537468E-2,-7.512092E-2,-7.737956E-2,-6.623428E-2,-4.115448E-2,-1.6121624E-2,-2.1308215E-2,-5.244108E-2,-1.4722778E-2,4.617539E-3,3.9156755E-3,-1.51519915E-2,1.3134404E-3,2.8858496E-2,1.2148137E-2,-3.093938E-2,4.0344376E-2,2.1800902E-2,1.7815841E-2,7.1963045E-4,3.7221547E-2,1.8772125E-2,1.1937621E-2,3.8446505E-2,3.8772635E-2,5.595286E-2,4.3385945E-2,6.096471E-2,5.3474426E-2,3.1841993E-2,6.0085814E-2,4.534403E-2,6.9627784E-2,5.7964273E-2],"split_indices":[75,79,79,75,7,79,12,8,79,7,7,79,75,75,75,7,8,8,8,7,8,12,7,79,3,12,3,12,12,7,7,7,7,3,8,79,8,3,8,7,8,3,8,3,8,3,7,21,19,8,75,7,7,8,68,7,7,3,3,7,0,4,7,0,0,0,0,0,0,0,0,0,0,0,0,0,0,0,0,0,0,0,0,0,0,0,0,0,0,0,0,0,0,0,0,0,0,0,0,0,0,0,0,0,0,0,0,0,0,0,0,0,0,0,0,0,0,0,0,0,0,0,0,0,0,0,0],"split_type":[0,0,0,0,0,0,0,0,0,0,0,0,0,0,0,0,0,0,0,0,0,0,0,0,0,0,0,0,0,0,0,0,0,0,0,0,0,0,0,0,0,0,0,0,0,0,0,0,0,0,0,0,0,0,0,0,0,0,0,0,0,0,0,0,0,0,0,0,0,0,0,0,0,0,0,0,0,0,0,0,0,0,0,0,0,0,0,0,0,0,0,0,0,0,0,0,0,0,0,0,0,0,0,0,0,0,0,0,0,0,0,0,0,0,0,0,0,0,0,0,0,0,0,0,0,0,0],"sum_hessian":[5.639963E5,3.5084553E5,2.1315083E5,1.0561507E5,2.4523045E5,8.0139055E4,1.3301177E5,7.615458E4,2.9460498E4,2.115947E5,3.3635746E4,3.712038E4,4.3018676E4,7.971524E4,5.329653E4,6.818904E4,7.965535E3,1.5702312E4,1.3758187E4,3.2793004E4,1.788017E5,1.9729633E4,1.3906111E4,3.3402317E3,3.3780145E4,2.5470076E4,1.75486E4,3.5192203E4,4.452304E4,2.5382832E4,2.7913697E4,5.85289E4,9.660143E3,3.5314297E3,4.4341055E3,1.4820985E4,8.813264E2,1.0760461E3,1.268214E4,1.4647385E4,1.814562E4,2.1863557E4,1.5693814E5,1.0101647E4,9.627985E3,6.9149375E3,6.9911743E3,1.4321759E3,1.9080557E3,5.8479253E3,2.793222E4,2.09051E4,4.5649756E3,4.582878E3,1.2965722E4,6.783551E3,2.8408652E4,1.3251302E4,3.1271736E4,2.116873E4,4.214101E3,2.2249817E3,2.5688717E4,1.0294826E4,4.823407E4,3.9793416E3,5.680801E3,2.402773E3,1.1286567E3,1.7438517E3,2.6902537E3,2.088293E3,1.2732692E4,4.4421304E2,4.3711334E2,5.7465784E2,5.0138837E2,1.202489E4,6.5725E2,7.867231E3,6.7801543E3,1.5055604E4,3.090015E3,1.4079452E4,7.784105E3,1.4383864E5,1.3099499E4,6.990926E3,3.110722E3,1.9348829E3,7.693102E3,4.6393755E3,2.275562E3,4.156356E3,2.834818E3,3.5422977E2,1.0779462E3,1.7348165E3,1.7323921E2,4.117445E3,1.7304805E3,1.6454367E4,1.14778545E4,1.7854246E4,3.0508538E3,3.779081E2,4.187068E3,3.8315022E3,7.513756E2,5.119845E3,7.845876E3,5.4170938E3,1.3664569E3,2.3649053E4,4.759601E3,1.4518438E3,1.1799458E4,4.0077622E3,2.7263973E4,2.6912017E3,1.847753E4,2.2736323E3,1.9404686E3,1.5530199E3,6.7196173E2,2.2733291E4,2.9554258E3],"tree_param":{"num_deleted":"0","num_feature":"80","num_nodes":"127","size_leaf_vector":"1"}},{"base_weights":[7.4187346E-4,4.7348619E-1,-2.514385E-1,-2.4392804E-2,8.641496E-1,-6.5300566E-1,-1.1747365E-2,2.4528261E-2,-1.0105292E0,9.272012E-1,-7.1569586E-1,-5.9514534E-1,-1.3173895E0,-8.0192715E-1,1.4687109E-1,-1.4472537E-1,2.8045285E-1,-7.0536786E-1,-1.3125844E0,7.4639547E-1,1.1499232E0,-2.7770174E-1,-1.2321861E0,-1.066107E0,-5.0102407E-1,-1.1477174E0,-1.4963582E0,-1.1457946E0,-5.133257E-1,2.5537843E-1,-1.0138227E0,-5.7694775E-1,-6.468593E-2,3.133913E-1,-8.9198613E-1,-1.1988584E0,-3.6943832E-1,-1.1418862E0,-1.4822826E0,5.7554406E-1,8.730609E-1,1.2457339E0,1.0414624E0,-9.481489E-1,-5.3341947E-3,-8.930548E-1,-1.4477892E0,-1.4972222E0,-8.7830895E-1,-3.7115672E-1,-7.109438E-1,-1.4281781E0,-8.8861287E-1,-1.4075781E0,-1.5626969E0,-9.7835976E-1,-1.4070737E0,-3.1192955E-1,-1.1572672E0,5.146127E-1,-3.377791E-2,-6.649392E-1,-1.4605114E0,-1.9854655E-2,-5.1925607E-2,-1.3535274E-3,-5.837679E-2,8.644903E-3,2.8826734E-2,-6.743942E-2,-3.7402663E-2,-7.233122E-2,-4.8538614E-2,-3.280461E-2,-5.227421E-3,-7.102045E-2,-4.7515128E-2,-6.835305E-2,-7.6047756E-2,3.7928324E-2,2.027737E-2,5.0884236E-2,3.7032675E-2,5.251518E-2,6.349968E-2,3.1185096E-2,5.417235E-2,-6.179337E-2,-3.174124E-2,-2.3311818E-2,1.7823113E-2,-5.7116438E-2,-1.9767512E-2,-6.413535E-2,-7.78545E-2,-6.673839E-2,-7.88071E-2,-5.9379984E-2,-3.30751E-2,-1.7120665E-2,-7.080127E-2,-4.3918516E-2,-2.6580805E-2,-7.911481E-2,-6.575189E-2,-5.140735E-2,-2.9658098E-2,-7.652336E-2,-6.387154E-2,-8.078855E-2,-7.732427E-2,-6.392523E-2,-3.854767E-2,-7.802834E-2,-6.482259E-2,-2.7432276E-2,-5.6968667E-3,-7.582017E-2,-4.342364E-2,1.362178E-2,3.936791E-2,-1.4552354E-2,1.1204771E-2,-6.0146224E-2,-2.1115165E-2,-6.472533E-2,-8.094271E-2],"categories":[],"categories_nodes":[],"categories_segments":[],"categories_sizes":[],"default_left":[0,0,0,0,0,0,0,0,0,0,0,0,0,0,0,0,0,0,0,0,0,0,0,0,0,0,0,0,0,0,0,0,0,0,0,0,0,0,0,0,0,0,0,0,0,0,0,0,0,0,0,0,0,0,0,0,0,0,0,0,0,0,0,0,0,0,0,0,0,0,0,0,0,0,0,0,0,0,0,0,0,0,0,0,0,0,0,0,0,0,0,0,0,0,0,0,0,0,0,0,0,0,0,0,0,0,0,0,0,0,0,0,0,0,0,0,0,0,0,0,0,0,0,0,0,0,0],"id":8,"left_children":[1,3,5,7,9,11,13,15,17,19,21,23,25,27,29,31,33,35,37,39,41,43,45,47,49,51,53,55,57,59,61,63,65,67,69,71,73,75,77,79,81,83,85,87,89,91,93,95,97,99,101,103,105,107,109,111,113,115,117,119,121,123,125,-1,-1,-1,-1,-1,-1,-1,-1,-1,-1,-1,-1,-1,-1,-1,-1,-1,-1,-1,-1,-1,-1,-1,-1,-1,-1,-1,-1,-1,-1,-1,-1,-1,-1,-1,-1,-1,-1,-1,-1,-1,-1,-1,-1,-1,-1,-1,-1,-1,-1,-1,-1,-1,-1,-1,-1,-1,-1,-1,-1,-1,-1,-1,-1],"loss_changes":[6.686492E4,3.794949E4,3.5205E4,4.138512E3,1.0890867E4,5.2546953E3,2.8707986E4,3.540311E3,3.728047E2,4.232711E3,9.4894995E2,5.57425E3,3.308379E2,3.7994883E3,2.4024633E4,1.7019038E3,1.2567473E3,3.34274E2,5.729883E1,1.255293E3,4.881953E2,4.1488162E2,1.3948242E2,1.6945703E3,2.857252E3,4.0757275E2,2.9169922E1,7.629746E2,2.6998027E3,1.3076459E4,2.5405547E3,6.376919E2,1.7220042E3,1.1698933E3,5.7463806E1,4.478357E1,9.125865E1,5.305664E1,2.4562988E0,7.684404E2,6.373262E2,1.1721875E2,3.8693555E2,5.8384705E1,2.6974832E2,9.270935E1,1.9211182E1,7.936621E1,9.7777344E2,1.9444092E3,1.2023203E3,4.500049E1,1.2005884E2,3.463916E1,1.1669922E-1,6.620947E2,1.1380371E2,7.433364E2,5.131162E2,6.07551E3,5.4710547E3,1.1949861E3,1.8587012E2,0E0,0E0,0E0,0E0,0E0,0E0,0E0,0E0,0E0,0E0,0E0,0E0,0E0,0E0,0E0,0E0,0E0,0E0,0E0,0E0,0E0,0E0,0E0,0E0,0E0,0E0,0E0,0E0,0E0,0E0,0E0,0E0,0E0,0E0,0E0,0E0,0E0,0E0,0E0,0E0,0E0,0E0,0E0,0E0,0E0,0E0,0E0,0E0,0E0,0E0,0E0,0E0,0E0,0E0,0E0,0E0,0E0,0E0,0E0,0E0,0E0,0E0,0E0,0E0],"parents":[2147483647,0,0,1,1,2,2,3,3,4,4,5,5,6,6,7,7,8,8,9,9,10,10,11,11,12,12,13,13,14,14,15,15,16,16,17,17,18,18,19,19,20,20,21,21,22,22,23,23,24,24,25,25,26,26,27,27,28,28,29,29,30,30,31,31,32,32,33,33,34,34,35,35,36,36,37,37,38,38,39,39,40,40,41,41,42,42,43,43,44,44,45,45,46,46,47,47,48,48,49,49,50,50,51,51,52,52,53,53,54,54,55,55,56,56,57,57,58,58,59,59,60,60,61,61,62,62],"right_children":[2,4,6,8,10,12,14,16,18,20,22,24,26,28,30,32,34,36,38,40,42,44,46,48,50,52,54,56,58,60,62,64,66,68,70,72,74,76,78,80,82,84,86,88,90,92,94,96,98,100,102,104,106,108,110,112,114,116,118,120,122,124,126,-1,-1,-1,-1,-1,-1,-1,-1,-1,-1,-1,-1,-1,-1,-1,-1,-1,-1,-1,-1,-1,-1,-1,-1,-1,-1,-1,-1,-1,-1,-1,-1,-1,-1,-1,-1,-1,-1,-1,-1,-1,-1,-1,-1,-1,-1,-1,-1,-1,-1,-1,-1,-1,-1,-1,-1,-1,-1,-1,-1,-1,-1,-1,-1],"split_conditions":[2.0748663E-1,1E0,1E0,3.4741585E0,3.7003844E0,3.6435277E0,1.039883E0,7.7536625E-1,3.731104E0,2E0,4.0608068E0,1.2211059E0,3.958221E0,6.039981E-1,3.7969847E0,5E-2,3E0,9.9E-1,4.0073047E0,4.6567586E-1,1.3513513E-1,9.6E-1,4.268806E0,2E0,3.1510416E-1,1.13E0,4.189753E0,2.1E-1,6.2E-1,3E-1,4.189753E0,2.5888748E0,3E0,1E0,-1E0,4.9E-1,6.348315E-1,1.02E0,4.1218424E0,1.2051282E-1,1.2869704E-1,1.8314245E0,1.1129889E-1,2E0,2E0,3.058648E-1,4.482866E0,8.5E-1,7.6218474E-1,3E0,2E0,5E-1,3.00934E-1,1.2E0,5.61E-1,1.2391334E-1,2.2585239E-1,2.9374388E-1,2E0,2E0,2E0,1.04E0,4.482866E0,-1.9854655E-2,-5.1925607E-2,-1.3535274E-3,-5.837679E-2,8.644903E-3,2.8826734E-2,-6.743942E-2,-3.7402663E-2,-7.233122E-2,-4.8538614E-2,-3.280461E-2,-5.227421E-3,-7.102045E-2,-4.7515128E-2,-6.835305E-2,-7.6047756E-2,3.7928324E-2,2.027737E-2,5.0884236E-2,3.7032675E-2,5.251518E-2,6.349968E-2,3.1185096E-2,5.417235E-2,-6.179337E-2,-3.174124E-2,-2.3311818E-2,1.7823113E-2,-5.7116438E-2,-1.9767512E-2,-6.413535E-2,-7.78545E-2,-6.673839E-2,-7.88071E-2,-5.9379984E-2,-3.30751E-2,-1.7120665E-2,-7.080127E-2,-4.3918516E-2,-2.6580805E-2,-7.911481E-2,-6.575189E-2,-5.140735E-2,-2.9658098E-2,-7.652336E-2,-6.387154E-2,-8.078855E-2,-7.732427E-2,-6.392523E-2,-3.854767E-2,-7.802834E-2,-6.482259E-2,-2.7432276E-2,-5.6968667E-3,-7.582017E-2,-4.342364E-2,1.362178E-2,3.936791E-2,-1.4552354E-2,1.1204771E-2,-6.0146224E-2,-2.1115165E-2,-6.472533E-2,-8.094271E-2],"split_indices":[76,12,12,8,8,8,8,45,8,12,8,8,8,8,8,3,11,3,8,77,76,3,8,9,76,3,8,3,3,76,8,8,11,16,21,3,41,3,8,76,76,8,71,12,12,24,8,3,8,11,9,3,24,3,45,8,8,53,9,12,12,3,8,0,0,0,0,0,0,0,0,0,0,0,0,0,0,0,0,0,0,0,0,0,0,0,0,0,0,0,0,0,0,0,0,0,0,0,0,0,0,0,0,0,0,0,0,0,0,0,0,0,0,0,0,0,0,0,0,0,0,0,0,0,0,0,0],"split_type":[0,0,0,0,0,0,0,0,0,0,0,0,0,0,0,0,0,0,0,0,0,0,0,0,0,0,0,0,0,0,0,0,0,0,0,0,0,0,0,0,0,0,0,0,0,0,0,0,0,0,0,0,0,0,0,0,0,0,0,0,0,0,0,0,0,0,0,0,0,0,0,0,0,0,0,0,0,0,0,0,0,0,0,0,0,0,0,0,0,0,0,0,0,0,0,0,0,0,0,0,0,0,0,0,0,0,0,0,0,0,0,0,0,0,0,0,0,0,0,0,0,0,0,0,0,0,0],"sum_hessian":[5.608662E5,1.9510886E5,3.657573E5,8.578348E4,1.09325375E5,1.3671305E5,2.2904427E5,8.172993E4,4.0535503E3,1.0513005E5,4.1953286E3,1.2576247E5,1.0950586E4,3.8290547E4,1.9075372E5,4.919539E4,3.2534535E4,2.0180667E3,2.0354836E3,5.802758E4,4.710247E4,2.2710066E3,1.9243221E3,2.0945514E4,1.0481695E5,5.6251E3,5.3254854E3,1.7470979E4,2.0819568E4,1.7444639E5,1.6307323E4,7.6856685E3,4.1509723E4,3.1646201E4,8.883343E2,8.1631165E2,1.201755E3,1.0186053E3,1.01687836E3,2.470714E4,3.332044E4,2.5004137E4,2.209833E4,6.55349E2,1.6156576E3,7.49906E2,1.1744161E3,6.353424E3,1.459209E4,6.47574E4,4.0059555E4,2.6990618E3,2.926038E3,2.28702E3,3.0384656E3,1.0650556E4,6.8204224E3,1.5860574E4,4.958994E3,9.1981984E4,8.24644E4,9.157446E3,7.1498774E3,5.5319375E3,2.1537314E3,4.014162E4,1.3681033E3,2.0632232E4,1.1013968E4,2.1083443E2,6.774999E2,3.8871487E2,4.2759677E2,5.764576E2,6.252975E2,4.12501E2,6.061043E2,2.6466803E2,7.522103E2,1.189608E4,1.2811061E4,1.5922357E4,1.7398082E4,2.7660212E3,2.2238115E4,2.0194976E3,2.0078832E4,3.4009924E2,3.1524976E2,7.103874E2,9.0527014E2,4.9879214E2,2.5111386E2,4.7290314E2,7.0151306E2,2.0831738E3,4.27025E3,6.011614E3,8.580477E3,6.3024965E4,1.7324327E3,2.071522E4,1.9344336E4,1.1371155E3,1.5619463E3,1.9857417E3,9.402965E2,1.1707773E3,1.1162427E3,6.8785406E2,2.3506113E3,4.3501465E3,6.300409E3,2.8511736E3,3.9692485E3,7.2230522E3,8.637522E3,2.2084187E3,2.7505754E3,4.8722316E4,4.325967E4,4.1280492E4,4.1183906E4,2.8451255E3,6.3123203E3,3.4949656E3,3.6549119E3],"tree_param":{"num_deleted":"0","num_feature":"80","num_nodes":"127","size_leaf_vector":"1"}},{"base_weights":[-1.8708808E-4,-3.6543825E-1,5.3711563E-1,-8.5201293E-1,-1.6685337E-1,-1.6348666E-2,8.9334106E-1,-1.0360626E0,-7.129608E-1,-6.128764E-2,-8.8606256E-1,-4.478251E-1,1.4557013E-1,7.2865117E-1,1.1337821E0,-1.366789E0,-9.718417E-1,-6.532951E-1,-1.2086926E0,-8.5195047E-1,6.9033034E-2,-1.3151346E0,-7.1002704E-1,-1.1227323E0,-3.6656448E-1,7.850832E-3,3.6907524E-1,5.141015E-1,9.0981525E-1,9.1324264E-1,1.2136841E0,-1.4583358E0,-1.2652099E0,-8.957545E-1,-1.3100572E0,-1.2392182E0,-5.931504E-1,-1.4619039E0,-1.1005706E0,-1.2334325E0,-6.033621E-1,1.3947788E-1,-1.158749E0,-1.4419116E0,-1.1516099E0,-4.017385E-1,-1.1193854E0,-1.2965361E0,-8.7225795E-1,-5.769496E-1,-2.2304778E-1,-6.9932856E-2,4.397914E-1,6.451714E-2,4.984516E-1,1.7255656E-1,5.7263494E-1,6.868534E-1,9.985013E-1,-5.8982927E-1,9.32602E-1,9.9866766E-1,1.2509246E0,-7.494866E-2,-7.038754E-2,-4.8949566E-2,-6.781175E-2,-4.0361375E-2,-6.59446E-2,-7.403087E-2,-6.119438E-2,-6.940969E-2,-5.409187E-2,-3.81795E-2,-1.833196E-2,-7.51473E-2,-7.076261E-2,-4.5855578E-2,-6.598281E-2,-6.899484E-2,-5.2740246E-2,-8.640378E-3,-4.6349656E-2,-2.7095256E-2,1.5098493E-2,-4.088687E-2,-7.2436325E-2,-7.414894E-2,-6.572513E-2,-4.371025E-2,-6.7083836E-2,-4.651242E-2,-1.2914337E-2,-4.532849E-2,-6.392227E-2,-6.6448025E-2,-5.073301E-2,-4.980433E-2,-3.3628233E-2,-3.3209946E-2,-1.9407189E-2,-2.8513828E-2,-4.8154816E-3,-1.080528E-3,-2.0276273E-2,2.5141064E-2,1.7576776E-3,1.1742556E-2,-2.2605283E-2,-3.2428883E-3,2.730671E-2,2.7492747E-2,-3.4613382E-2,3.391474E-2,1.25317145E-2,1.1645278E-2,3.706899E-2,3.277448E-2,5.1735103E-2,-5.3832144E-2,-1.5094468E-2,3.855073E-2,5.35877E-2,1.9795302E-2,6.1495192E-2,6.3883916E-2,4.7857355E-2],"categories":[],"categories_nodes":[],"categories_segments":[],"categories_sizes":[],"default_left":[0,0,0,0,0,0,0,0,0,0,0,0,0,0,0,0,0,0,0,0,0,0,0,0,0,0,0,0,0,0,0,0,0,0,0,0,0,0,0,0,0,0,0,0,0,0,0,0,0,0,0,0,0,0,0,0,0,0,0,0,0,0,0,0,0,0,0,0,0,0,0,0,0,0,0,0,0,0,0,0,0,0,0,0,0,0,0,0,0,0,0,0,0,0,0,0,0,0,0,0,0,0,0,0,0,0,0,0,0,0,0,0,0,0,0,0,0,0,0,0,0,0,0,0,0,0,0],"id":9,"left_children":[1,3,5,7,9,11,13,15,17,19,21,23,25,27,29,31,33,35,37,39,41,43,45,47,49,51,53,55,57,59,61,63,65,67,69,71,73,75,77,79,81,83,85,87,89,91,93,95,97,99,101,103,105,107,109,111,113,115,117,119,121,123,125,-1,-1,-1,-1,-1,-1,-1,-1,-1,-1,-1,-1,-1,-1,-1,-1,-1,-1,-1,-1,-1,-1,-1,-1,-1,-1,-1,-1,-1,-1,-1,-1,-1,-1,-1,-1,-1,-1,-1,-1,-1,-1,-1,-1,-1,-1,-1,-1,-1,-1,-1,-1,-1,-1,-1,-1,-1,-1,-1,-1,-1,-1,-1,-1],"loss_changes":[1.09579375E5,3.2118688E4,4.4550375E4,2.4649062E3,1.7922602E4,6.1820435E3,5.4430547E3,8.7926953E2,1.6225508E3,2.1210557E4,2.2812012E3,1.3237935E3,1.9804908E3,3.1710078E3,9.8366406E2,6.082422E1,8.923594E2,1.7256543E3,1.5977734E2,2.7615098E3,1.5284917E4,1.8053711E2,2.7035928E3,1.1180542E2,6.506057E2,1.3376278E3,9.665383E2,7.467471E2,8.740547E2,4.3313867E2,3.2719922E2,5.1621094E0,8.209717E1,1.0608438E3,9.187598E1,1.0540381E2,1.7150264E3,1.2446289E0,1.6498828E2,2.991836E2,2.4574902E3,1.8504957E4,9.470703E2,2.3933594E1,2.0145264E2,9.265034E2,3.1039844E2,1.2630371E1,2.5684448E1,1.4370581E2,5.638387E2,5.470986E2,1.5493127E2,6.4380444E2,4.6247803E2,1.7842544E3,1.0848623E3,3.115078E2,3.9229297E2,2.6259476E1,3.2920703E2,8.442363E2,2.7354297E2,0E0,0E0,0E0,0E0,0E0,0E0,0E0,0E0,0E0,0E0,0E0,0E0,0E0,0E0,0E0,0E0,0E0,0E0,0E0,0E0,0E0,0E0,0E0,0E0,0E0,0E0,0E0,0E0,0E0,0E0,0E0,0E0,0E0,0E0,0E0,0E0,0E0,0E0,0E0,0E0,0E0,0E0,0E0,0E0,0E0,0E0,0E0,0E0,0E0,0E0,0E0,0E0,0E0,0E0,0E0,0E0,0E0,0E0,0E0,0E0,0E0,0E0,0E0,0E0],"parents":[2147483647,0,0,1,1,2,2,3,3,4,4,5,5,6,6,7,7,8,8,9,9,10,10,11,11,12,12,13,13,14,14,15,15,16,16,17,17,18,18,19,19,20,20,21,21,22,22,23,23,24,24,25,25,26,26,27,27,28,28,29,29,30,30,31,31,32,32,33,33,34,34,35,35,36,36,37,37,38,38,39,39,40,40,41,41,42,42,43,43,44,44,45,45,46,46,47,47,48,48,49,49,50,50,51,51,52,52,53,53,54,54,55,55,56,56,57,57,58,58,59,59,60,60,61,61,62,62],"right_children":[2,4,6,8,10,12,14,16,18,20,22,24,26,28,30,32,34,36,38,40,42,44,46,48,50,52,54,56,58,60,62,64,66,68,70,72,74,76,78,80,82,84,86,88,90,92,94,96,98,100,102,104,106,108,110,112,114,116,118,120,122,124,126,-1,-1,-1,-1,-1,-1,-1,-1,-1,-1,-1,-1,-1,-1,-1,-1,-1,-1,-1,-1,-1,-1,-1,-1,-1,-1,-1,-1,-1,-1,-1,-1,-1,-1,-1,-1,-1,-1,-1,-1,-1,-1,-1,-1,-1,-1,-1,-1,-1,-1,-1,-1,-1,-1,-1,-1,-1,-1,-1,-1,-1,-1,-1,-1],"split_conditions":[4.7326908E-1,4.7E-1,4.3441734E-1,2.6E-1,1.1837066E0,2.7558237E-1,2E0,-1.151666E0,1.2981502E0,-1.1306833E0,-9E-2,1.4897698E-1,7.1153843E-1,6.790997E-1,6.12542E-1,-1.4242773E0,1.204644E0,-1.3561482E0,-1.6E-1,-1.5031652E0,4.0073047E0,-6.3E-1,1.5566039E0,1.0612245E-1,6.188748E-1,1E0,4.3E-1,-6.129572E-1,1E0,5.053034E-1,1.8722345E0,-1.6543863E0,-1.13E0,3.731104E0,-6E-2,-1.5976471E0,3.768572E-1,-7.2E-1,1.6016837E0,-1.7197392E0,-8.2E-1,1.1461123E0,4.268806E0,6.0359114E-1,1.3803327E0,1.0169832E0,1.7764043E0,1E0,2E0,1E0,3.9E-1,6.365196E-1,6.048169E-1,2.7590628E0,1.9898064E0,1E-2,5.4381305E-1,-9E-2,-2.3E-1,-2.8209162E-3,2E0,2E0,6.365196E-1,-7.494866E-2,-7.038754E-2,-4.8949566E-2,-6.781175E-2,-4.0361375E-2,-6.59446E-2,-7.403087E-2,-6.119438E-2,-6.940969E-2,-5.409187E-2,-3.81795E-2,-1.833196E-2,-7.51473E-2,-7.076261E-2,-4.5855578E-2,-6.598281E-2,-6.899484E-2,-5.2740246E-2,-8.640378E-3,-4.6349656E-2,-2.7095256E-2,1.5098493E-2,-4.088687E-2,-7.2436325E-2,-7.414894E-2,-6.572513E-2,-4.371025E-2,-6.7083836E-2,-4.651242E-2,-1.2914337E-2,-4.532849E-2,-6.392227E-2,-6.6448025E-2,-5.073301E-2,-4.980433E-2,-3.3628233E-2,-3.3209946E-2,-1.9407189E-2,-2.8513828E-2,-4.8154816E-3,-1.080528E-3,-2.0276273E-2,2.5141064E-2,1.7576776E-3,1.1742556E-2,-2.2605283E-2,-3.2428883E-3,2.730671E-2,2.7492747E-2,-3.4613382E-2,3.391474E-2,1.25317145E-2,1.1645278E-2,3.706899E-2,3.277448E-2,5.1735103E-2,-5.3832144E-2,-1.5094468E-2,3.855073E-2,5.35877E-2,1.9795302E-2,6.1495192E-2,6.3883916E-2,4.7857355E-2],"split_indices":[75,79,79,75,7,79,12,7,7,7,2,79,75,75,75,7,7,7,2,7,8,2,7,79,75,12,3,7,12,8,8,7,2,8,2,7,79,2,7,7,2,8,8,79,7,8,7,19,22,17,3,7,7,8,8,2,7,3,3,8,9,9,7,0,0,0,0,0,0,0,0,0,0,0,0,0,0,0,0,0,0,0,0,0,0,0,0,0,0,0,0,0,0,0,0,0,0,0,0,0,0,0,0,0,0,0,0,0,0,0,0,0,0,0,0,0,0,0,0,0,0,0,0,0,0,0,0],"split_type":[0,0,0,0,0,0,0,0,0,0,0,0,0,0,0,0,0,0,0,0,0,0,0,0,0,0,0,0,0,0,0,0,0,0,0,0,0,0,0,0,0,0,0,0,0,0,0,0,0,0,0,0,0,0,0,0,0,0,0,0,0,0,0,0,0,0,0,0,0,0,0,0,0,0,0,0,0,0,0,0,0,0,0,0,0,0,0,0,0,0,0,0,0,0,0,0,0,0,0,0,0,0,0,0,0,0,0,0,0,0,0,0,0,0,0,0,0,0,0,0,0,0,0,0,0,0,0],"sum_hessian":[5.58363E5,3.3240138E5,2.2596166E5,9.63414E4,2.3605997E5,8.848471E4,1.3747695E5,4.1459324E4,5.488207E4,2.058468E5,3.0213168E4,2.4144197E4,6.434051E4,8.1593555E4,5.58834E4,6.738254E3,3.472107E4,4.8988227E4,5.893843E3,2.9126875E4,1.7671992E5,8.787612E3,2.1425557E4,2.593249E3,2.1550947E4,3.981089E4,2.4529623E4,3.7356594E4,4.423696E4,1.4865415E4,4.101798E4,3.5371167E3,3.2011375E3,2.8347484E4,6.373585E3,4.5586636E3,4.4429566E4,1.7598722E3,4.1339707E3,1.1490172E4,1.7636703E4,1.6713153E5,9.588402E3,4.945592E3,3.8420208E3,1.2222643E4,9.202914E3,1.5284694E3,1.0647798E3,8.738264E3,1.2812685E4,3.3736477E4,6.074413E3,7.313885E3,1.7215738E4,5.4660283E3,3.1890564E4,1.2591059E4,3.1645904E4,1.8865488E2,1.4676761E4,6.0595654E3,3.4958418E4,1.9455396E3,1.5915771E3,7.7523834E2,2.4258992E3,2.344527E4,4.9022153E3,2.1338198E3,4.239765E3,2.33785E3,2.2208132E3,2.5351398E4,1.9078166E4,9.196181E2,8.402541E2,2.2527437E3,1.8812269E3,6.309791E3,5.180381E3,7.568801E3,1.0067903E4,3.218149E4,1.3495003E5,4.408204E3,5.1801978E3,3.7320273E3,1.2135646E3,1.5643834E3,2.2776375E3,2.6081438E3,9.614498E3,3.93917E3,5.2637437E3,1.3674556E3,1.6101378E2,6.5477167E2,4.1000806E2,5.9747485E3,2.763515E3,3.4251597E3,9.387525E3,2.9491092E4,4.2453853E3,5.255525E3,8.188884E2,5.5007847E3,1.8130999E3,1.3435099E3,1.5872229E4,3.8059597E3,1.6600685E3,2.4010693E4,7.879871E3,1.3507704E3,1.1240288E4,3.0228345E3,2.8623068E4,6.909625E1,1.19558624E2,6.793958E3,7.8828027E3,1.6808411E3,4.378724E3,3.2037488E4,2.9209287E3],"tree_param":{"num_deleted":"0","num_feature":"80","num_nodes":"127","size_leaf_vector":"1"}},{"base_weights":[1.8487997E-4,-3.2657987E-1,5.51148E-1,-7.1792436E-1,-9.89379E-2,1.9588513E-2,8.931273E-1,-9.65011E-1,-5.358981E-1,-4.549523E-1,2.1917558E-1,-2.1870387E-1,2.7693346E-1,7.362503E-1,1.128911E0,-1.1425403E0,-8.577109E-1,-1.1264529E0,-4.8047268E-1,-1.0677121E0,-3.6351946E-1,-7.3373777E-1,3.3347124E-1,-6.229686E-1,-1.0997507E-1,1.7180258E-1,4.9266398E-1,5.776747E-1,9.1190517E-1,9.0585303E-1,1.1801836E0,-1.3618896E0,-1.0778847E0,-8.0368197E-1,-1.2640631E0,-1.3453488E0,-9.2478025E-1,-3.5908347E-1,-8.4323126E-1,-1.2915707E0,-8.880178E-1,-2.825395E-1,-1.2423229E0,-1.0919243E0,-4.906622E-1,4.0415436E-1,-9.9512017E-1,-1.2548819E0,-5.100636E-1,-4.4461024E-1,-2.9724479E-2,8.4250234E-2,5.0867736E-1,4.4167973E-2,5.7197076E-1,3.774786E-1,6.7780757E-1,6.944519E-1,1.0049064E0,1.0950315E0,2.1377058E-1,1.2184967E0,9.037257E-1,-5.817724E-2,-7.034022E-2,-5.030295E-2,-6.584132E-2,-6.1186004E-2,-3.73011E-2,-7.142666E-2,-5.887409E-2,-5.7920583E-2,-6.965058E-2,-2.9353095E-2,-6.005407E-2,-1.5618369E-2,-5.9189625E-2,-6.419112E-2,-3.0463314E-2,-5.95536E-2,-7.4745454E-2,-3.4174707E-2,-6.038412E-2,-5.5424936E-2,-9.362499E-3,-4.7403283E-2,-6.941422E-2,-4.3791525E-2,-6.6972576E-2,-9.193906E-3,-4.8278306E-2,-3.4661468E-2,2.4667628E-2,-2.9417688E-2,-6.956821E-2,-7.3184036E-2,-6.063811E-2,-3.9243538E-2,-2.0942269E-2,-1.2993964E-2,-4.4533327E-2,-1.153303E-2,6.018877E-3,-1.7379237E-2,6.3910545E-3,-1.4571628E-3,2.7714578E-2,1.0673907E-2,-2.1650808E-2,3.692105E-2,2.2094017E-2,2.1960532E-2,3.831051E-3,3.665748E-2,1.8000474E-2,1.0705617E-2,3.735247E-2,5.22807E-2,3.2981675E-2,5.754891E-2,3.604849E-2,4.51114E-2,4.6477085E-3,4.6867665E-2,6.297865E-2,6.269924E-3,5.555284E-2],"categories":[],"categories_nodes":[],"categories_segments":[],"categories_sizes":[],"default_left":[0,0,0,0,0,0,0,0,0,0,0,0,0,0,0,0,0,0,0,0,0,0,0,0,0,0,0,0,0,0,0,0,0,0,0,0,0,0,0,0,0,0,0,0,0,0,0,0,0,0,0,0,0,0,0,0,0,0,0,0,0,0,0,0,0,0,0,0,0,0,0,0,0,0,0,0,0,0,0,0,0,0,0,0,0,0,0,0,0,0,0,0,0,0,0,0,0,0,0,0,0,0,0,0,0,0,0,0,0,0,0,0,0,0,0,0,0,0,0,0,0,0,0,0,0,0,0],"id":10,"left_children":[1,3,5,7,9,11,13,15,17,19,21,23,25,27,29,31,33,35,37,39,41,43,45,47,49,51,53,55,57,59,61,63,65,67,69,71,73,75,77,79,81,83,85,87,89,91,93,95,97,99,101,103,105,107,109,111,113,115,117,119,121,123,125,-1,-1,-1,-1,-1,-1,-1,-1,-1,-1,-1,-1,-1,-1,-1,-1,-1,-1,-1,-1,-1,-1,-1,-1,-1,-1,-1,-1,-1,-1,-1,-1,-1,-1,-1,-1,-1,-1,-1,-1,-1,-1,-1,-1,-1,-1,-1,-1,-1,-1,-1,-1,-1,-1,-1,-1,-1,-1,-1,-1,-1,-1,-1,-1],"loss_changes":[9.984731E4,3.1013578E4,3.753234E4,5.757797E3,2.4927176E4,4.9568784E3,4.646414E3,1.0335273E3,2.412541E3,5.818707E3,1.2660213E4,1.8447135E3,8.813093E2,2.1009922E3,5.729844E2,2.8863867E2,7.422285E2,2.779629E2,2.967622E3,5.413096E2,6.431533E3,1.0833691E3,9.747234E3,6.34E2,8.8821454E2,7.7065497E2,4.5286353E2,7.946455E2,7.231719E2,1.2285894E3,4.3114062E2,3.981543E1,2.6990234E2,7.2283984E2,5.4867676E1,2.5389648E1,3.0676392E2,1.9453359E3,1.741123E3,1.2088281E2,4.8845117E2,6.513044E3,3.261914E2,2.6798828E2,1.0805872E3,9.646683E3,8.442666E2,1.0077637E1,1.888927E2,5.2693604E2,8.046825E2,3.903027E2,1.3224744E2,1.5475186E2,2.3395435E2,2.4555334E2,4.6459766E2,2.7082178E2,3.5166016E2,1.5341699E2,1.6760257E2,4.1270703E2,8.020464E2,0E0,0E0,0E0,0E0,0E0,0E0,0E0,0E0,0E0,0E0,0E0,0E0,0E0,0E0,0E0,0E0,0E0,0E0,0E0,0E0,0E0,0E0,0E0,0E0,0E0,0E0,0E0,0E0,0E0,0E0,0E0,0E0,0E0,0E0,0E0,0E0,0E0,0E0,0E0,0E0,0E0,0E0,0E0,0E0,0E0,0E0,0E0,0E0,0E0,0E0,0E0,0E0,0E0,0E0,0E0,0E0,0E0,0E0,0E0,0E0,0E0,0E0,0E0,0E0],"parents":[2147483647,0,0,1,1,2,2,3,3,4,4,5,5,6,6,7,7,8,8,9,9,10,10,11,11,12,12,13,13,14,14,15,15,16,16,17,17,18,18,19,19,20,20,21,21,22,22,23,23,24,24,25,25,26,26,27,27,28,28,29,29,30,30,31,31,32,32,33,33,34,34,35,35,36,36,37,37,38,38,39,39,40,40,41,41,42,42,43,43,44,44,45,45,46,46,47,47,48,48,49,49,50,50,51,51,52,52,53,53,54,54,55,55,56,56,57,57,58,58,59,59,60,60,61,61,62,62],"right_children":[2,4,6,8,10,12,14,16,18,20,22,24,26,28,30,32,34,36,38,40,42,44,46,48,50,52,54,56,58,60,62,64,66,68,70,72,74,76,78,80,82,84,86,88,90,92,94,96,98,100,102,104,106,108,110,112,114,116,118,120,122,124,126,-1,-1,-1,-1,-1,-1,-1,-1,-1,-1,-1,-1,-1,-1,-1,-1,-1,-1,-1,-1,-1,-1,-1,-1,-1,-1,-1,-1,-1,-1,-1,-1,-1,-1,-1,-1,-1,-1,-1,-1,-1,-1,-1,-1,-1,-1,-1,-1,-1,-1,-1,-1,-1,-1,-1,-1,-1,-1,-1,-1,-1,-1,-1,-1],"split_conditions":[5.393053E-1,1E0,4.3441734E-1,3.2222223E-1,3.270598E-1,3.3534378E-1,2E0,2.3367584E-1,-1.22001E0,7.9616207E-1,8.5888565E-1,2.2627737E-1,7.349506E-1,7.044025E-1,1.8823661E0,-1.0715376E0,1.3242643E0,1E0,6.581074E-1,3.8453603E-1,4.0073047E0,3.8453603E-1,3.958221E0,1.0612245E-1,1.1E-1,1E0,-1E-2,4.9665833E-1,1E0,9.3E-1,5.842703E-1,-1.24E0,1.0880258E0,-1.22001E0,-5E-2,-1.24E0,-8E-1,3.7632246E0,-2.8E-1,2.6E-1,2.9E-1,-1.2975374E0,4.189753E0,4E-2,3.2E-1,-1.2975374E0,4.268806E0,-2E0,3.8E-1,2.598469E0,6.5739644E-1,-3.2E-1,-6.6938674E-1,2.7078025E0,4.7723863E-1,5.641177E-1,6.048169E-1,-1.4E-1,3.0208078E1,9.11E1,8.87E1,-5.914561E-1,-8E-1,-5.817724E-2,-7.034022E-2,-5.030295E-2,-6.584132E-2,-6.1186004E-2,-3.73011E-2,-7.142666E-2,-5.887409E-2,-5.7920583E-2,-6.965058E-2,-2.9353095E-2,-6.005407E-2,-1.5618369E-2,-5.9189625E-2,-6.419112E-2,-3.0463314E-2,-5.95536E-2,-7.4745454E-2,-3.4174707E-2,-6.038412E-2,-5.5424936E-2,-9.362499E-3,-4.7403283E-2,-6.941422E-2,-4.3791525E-2,-6.6972576E-2,-9.193906E-3,-4.8278306E-2,-3.4661468E-2,2.4667628E-2,-2.9417688E-2,-6.956821E-2,-7.3184036E-2,-6.063811E-2,-3.9243538E-2,-2.0942269E-2,-1.2993964E-2,-4.4533327E-2,-1.153303E-2,6.018877E-3,-1.7379237E-2,6.3910545E-3,-1.4571628E-3,2.7714578E-2,1.0673907E-2,-2.1650808E-2,3.692105E-2,2.2094017E-2,2.1960532E-2,3.831051E-3,3.665748E-2,1.8000474E-2,1.0705617E-2,3.735247E-2,5.22807E-2,3.2981675E-2,5.754891E-2,3.604849E-2,4.51114E-2,4.6477085E-3,4.6867665E-2,6.297865E-2,6.269924E-3,5.555284E-2],"split_indices":[75,12,79,75,75,79,12,75,7,8,8,79,75,75,8,7,7,28,7,8,8,8,8,79,3,12,3,79,12,3,7,2,7,7,2,2,2,8,2,3,3,7,8,3,3,7,8,21,3,8,75,3,7,8,68,7,7,3,1,0,0,7,2,0,0,0,0,0,0,0,0,0,0,0,0,0,0,0,0,0,0,0,0,0,0,0,0,0,0,0,0,0,0,0,0,0,0,0,0,0,0,0,0,0,0,0,0,0,0,0,0,0,0,0,0,0,0,0,0,0,0,0,0,0,0,0,0],"split_type":[0,0,0,0,0,0,0,0,0,0,0,0,0,0,0,0,0,0,0,0,0,0,0,0,0,0,0,0,0,0,0,0,0,0,0,0,0,0,0,0,0,0,0,0,0,0,0,0,0,0,0,0,0,0,0,0,0,0,0,0,0,0,0,0,0,0,0,0,0,0,0,0,0,0,0,0,0,0,0,0,0,0,0,0,0,0,0,0,0,0,0,0,0,0,0,0,0,0,0,0,0,0,0,0,0,0,0,0,0,0,0,0,0,0,0,0,0,0,0,0,0,0,0,0,0,0,0],"sum_hessian":[5.545965E5,3.481289E5,2.064676E5,1.2802906E5,2.2009984E5,8.082985E4,1.25637734E5,5.4307086E4,7.372198E4,1.0386248E5,1.1623737E5,4.1968574E4,3.8861273E4,7.544502E4,5.0192715E4,2.0454766E4,3.385232E4,6.323722E3,6.739825E4,1.3484188E4,9.037828E4,1.2448178E4,1.03789195E5,8.894222E3,3.3074355E4,2.6129508E4,1.2731768E4,3.9652395E4,3.579263E4,9.384557E3,4.080816E4,4.6521E3,1.5802666E4,2.988214E4,3.9701782E3,3.0296558E3,3.2940662E3,5.050114E4,1.6897111E4,6.0014927E3,7.482696E3,8.275399E4,7.624292E3,5.031082E3,7.417096E3,9.854703E4,5.242159E3,1.3467184E3,7.5475034E3,6.3966333E3,2.667772E4,2.0740412E4,5.3890967E3,1.9132883E3,1.08184795E4,1.3222123E4,2.643027E4,1.0724748E4,2.506788E4,7.369536E3,2.0150205E3,3.5838113E4,4.970048E3,8.639201E2,3.78818E3,1.2154301E4,3.6483652E3,3.604446E3,2.6277695E4,1.3638687E3,2.6063096E3,6.206656E2,2.4089902E3,1.4836951E3,1.8103712E3,4.7795137E4,2.7060034E3,5.859088E3,1.1038023E4,4.0209988E3,1.9804939E3,4.565071E3,2.9176252E3,8.558572E3,7.419542E4,2.530438E3,5.093854E3,2.6885173E3,2.342565E3,4.5069985E3,2.9100972E3,7.407508E3,9.113952E4,2.5879597E3,2.6541997E3,2.2039702E2,1.1263213E3,1.8790398E3,5.668464E3,4.524449E3,1.8721843E3,1.14070205E4,1.52707E4,1.9002153E3,1.8840195E4,4.2135904E2,4.9677373E3,1.4126257E3,5.006625E2,4.743944E3,6.074535E3,1.0970634E4,2.2514895E3,2.2509176E4,3.9210952E3,1.058963E3,9.665785E3,2.2422271E4,2.6456086E3,6.4089062E3,9.6062964E2,2.9985666E2,1.7151638E3,4.5716353E3,3.1266477E4,1.0457765E3,3.9242712E3],"tree_param":{"num_deleted":"0","num_feature":"80","num_nodes":"127","size_leaf_vector":"1"}},{"base_weights":[-3.6679715E-4,-3.123307E-1,5.2744156E-1,-6.900243E-1,-9.356524E-2,7.482582E-2,8.9862084E-1,-9.696209E-1,-5.372084E-1,-4.3459052E-1,2.1139526E-1,-1.8788227E-1,3.352513E-1,7.450122E-1,1.0888754E0,-9.245296E-1,-1.3485729E0,-4.7180036E-1,-1.0096328E0,-3.424974E-1,-1.0532038E0,-7.2977585E-1,3.173461E-1,-5.5213624E-1,-7.650666E-2,1.8572688E-1,5.766574E-1,5.771814E-1,9.449468E-1,9.708667E-1,1.1955881E0,-1.2687403E0,-8.685129E-1,-1.2567083E0,-7.140673E-2,-9.6946186E-1,-3.8217056E-1,-8.847181E-1,-1.2785497E0,-1.1133958E0,-2.4741478E-1,-8.8935435E-1,-1.2629378E0,-5.223222E-1,-1.1118764E0,4.199078E-1,-5.1988536E-1,-1.0427746E0,-4.2367265E-1,-4.1099766E-1,-4.911128E-4,-1.729646E-1,2.318082E-1,1.00230336E-1,6.511819E-1,6.227331E-1,2.2861363E-1,6.870351E-1,9.966907E-1,1.0209786E0,7.314394E-1,8.792302E-1,1.2108687E0,-6.7052886E-2,-5.3990573E-2,-3.8655203E-2,-5.941401E-2,-6.749891E-2,-5.256942E-2,-6.0547132E-2,-3.7480768E-2,-3.2040965E-2,-1.2661807E-2,-5.4863956E-2,-3.3501368E-2,-5.9229095E-2,-6.925985E-2,-6.654682E-2,-4.6526924E-2,-8.390773E-3,-5.7858147E-2,-6.0166664E-2,-3.6966607E-2,-7.04838E-2,-5.9454698E-2,-4.783086E-2,-1.1881343E-2,-6.502895E-2,-4.42487E-2,-2.016078E-2,2.8424466E-2,-4.7684677E-2,-1.1035194E-2,-6.094976E-2,-3.9008245E-2,-2.3682596E-2,4.007423E-3,-1.2859799E-2,-3.8611457E-2,-7.5224536E-3,9.40649E-3,9.859566E-3,-4.238951E-2,-2.1709257E-3,1.5438867E-2,1.6941413E-2,-1.6774163E-2,2.5077088E-2,4.0120505E-2,1.1314243E-2,3.3996433E-2,-4.4317325E-3,2.5866399E-2,4.2745125E-2,-3.4754747E-3,3.0073423E-2,5.1750887E-2,3.698663E-2,5.356896E-2,2.375467E-2,4.838073E-2,4.909482E-2,2.793249E-2,6.143376E-2,4.602227E-2],"categories":[],"categories_nodes":[],"categories_segments":[],"categories_sizes":[],"default_left":[0,0,0,0,0,0,0,0,0,0,0,0,0,0,0,0,0,0,0,0,0,0,0,0,0,0,0,0,0,0,0,0,0,0,0,0,0,0,0,0,0,0,0,0,0,0,0,0,0,0,0,0,0,0,0,0,0,0,0,0,0,0,0,0,0,0,0,0,0,0,0,0,0,0,0,0,0,0,0,0,0,0,0,0,0,0,0,0,0,0,0,0,0,0,0,0,0,0,0,0,0,0,0,0,0,0,0,0,0,0,0,0,0,0,0,0,0,0,0,0,0,0,0,0,0],"id":11,"left_children":[1,3,5,7,9,11,13,15,17,19,21,23,25,27,29,31,33,35,37,39,41,43,45,47,49,51,53,55,57,59,61,63,65,67,-1,69,71,73,75,77,79,81,83,85,87,89,91,93,95,97,99,101,103,105,107,109,111,113,115,117,119,121,123,-1,-1,-1,-1,-1,-1,-1,-1,-1,-1,-1,-1,-1,-1,-1,-1,-1,-1,-1,-1,-1,-1,-1,-1,-1,-1,-1,-1,-1,-1,-1,-1,-1,-1,-1,-1,-1,-1,-1,-1,-1,-1,-1,-1,-1,-1,-1,-1,-1,-1,-1,-1,-1,-1,-1,-1,-1,-1,-1,-1,-1,-1],"loss_changes":[9.075399E4,2.862314E4,3.439858E4,5.428203E3,2.2813562E4,6.311881E3,3.2868672E3,7.659961E2,2.5381934E3,5.899336E3,1.154806E4,1.8631984E3,1.6722236E3,2.088121E3,6.3166016E2,7.7265625E2,3.3086914E1,3.218667E3,3.3446582E2,6.606927E3,4.6000098E2,9.282661E2,8.938055E3,6.774038E2,8.9435736E2,4.7295044E2,6.2909033E2,5.372002E2,3.7838086E2,2.85625E2,1.2647656E2,7.526172E1,1.0521172E3,4.1157227E1,0E0,5.837676E2,2.0392773E3,3.1072314E2,3.0092285E1,3.924502E2,5.8107344E3,3.541172E2,6.206836E1,9.3900366E2,1.7535791E2,1.1341119E4,1.4741509E3,1.022876E2,2.1469263E2,3.6167175E2,8.1073395E2,8.1393207E2,5.3711597E2,2.4941797E2,3.463506E2,6.7851855E2,3.5845526E2,6.032595E2,3.5771094E2,2.789453E2,2.4985303E2,3.9583252E1,1.2901562E2,0E0,0E0,0E0,0E0,0E0,0E0,0E0,0E0,0E0,0E0,0E0,0E0,0E0,0E0,0E0,0E0,0E0,0E0,0E0,0E0,0E0,0E0,0E0,0E0,0E0,0E0,0E0,0E0,0E0,0E0,0E0,0E0,0E0,0E0,0E0,0E0,0E0,0E0,0E0,0E0,0E0,0E0,0E0,0E0,0E0,0E0,0E0,0E0,0E0,0E0,0E0,0E0,0E0,0E0,0E0,0E0,0E0,0E0,0E0,0E0,0E0,0E0],"parents":[2147483647,0,0,1,1,2,2,3,3,4,4,5,5,6,6,7,7,8,8,9,9,10,10,11,11,12,12,13,13,14,14,15,15,16,16,17,17,18,18,19,19,20,20,21,21,22,22,23,23,24,24,25,25,26,26,27,27,28,28,29,29,30,30,31,31,32,32,33,33,35,35,36,36,37,37,38,38,39,39,40,40,41,41,42,42,43,43,44,44,45,45,46,46,47,47,48,48,49,49,50,50,51,51,52,52,53,53,54,54,55,55,56,56,57,57,58,58,59,59,60,60,61,61,62,62],"right_children":[2,4,6,8,10,12,14,16,18,20,22,24,26,28,30,32,34,36,38,40,42,44,46,48,50,52,54,56,58,60,62,64,66,68,-1,70,72,74,76,78,80,82,84,86,88,90,92,94,96,98,100,102,104,106,108,110,112,114,116,118,120,122,124,-1,-1,-1,-1,-1,-1,-1,-1,-1,-1,-1,-1,-1,-1,-1,-1,-1,-1,-1,-1,-1,-1,-1,-1,-1,-1,-1,-1,-1,-1,-1,-1,-1,-1,-1,-1,-1,-1,-1,-1,-1,-1,-1,-1,-1,-1,-1,-1,-1,-1,-1,-1,-1,-1,-1,-1,-1,-1,-1,-1,-1,-1],"split_conditions":[5.393053E-1,1E0,1E0,2.993865E-1,3.270598E-1,3.4461772E-1,2E0,3.7969847E0,1.0364136E0,1.3242643E0,8.278022E-1,2.3448054E-1,7.373832E-1,6.967783E-1,6.818182E-1,-1.173523E0,4.0608068E0,-1.05307E0,1.477618E0,-1.2975374E0,1.6515759E0,3.2E-1,1.1056727E0,1.4897698E-1,8.34E1,-1.4E-1,-2E-2,6.472615E-1,8E-2,5.842703E-1,-6.927658E-1,1E0,1.124434E0,1.37E0,-7.140673E-2,1E0,1.7353736E0,2E0,7.4E-1,-1.5976471E0,4.0073047E0,2E0,3E0,3.1124717E-1,5.564118E-1,-1.05307E0,2E0,1.0612245E-1,1E0,2.6179428E0,6.9174623E-1,2.2929323E0,1.8622305E0,2.598469E0,1E0,-6.353695E-1,2E0,2.790722E0,1.9219421E0,-6.129572E-1,2E0,1.32E0,6.472615E-1,-6.7052886E-2,-5.3990573E-2,-3.8655203E-2,-5.941401E-2,-6.749891E-2,-5.256942E-2,-6.0547132E-2,-3.7480768E-2,-3.2040965E-2,-1.2661807E-2,-5.4863956E-2,-3.3501368E-2,-5.9229095E-2,-6.925985E-2,-6.654682E-2,-4.6526924E-2,-8.390773E-3,-5.7858147E-2,-6.0166664E-2,-3.6966607E-2,-7.04838E-2,-5.9454698E-2,-4.783086E-2,-1.1881343E-2,-6.502895E-2,-4.42487E-2,-2.016078E-2,2.8424466E-2,-4.7684677E-2,-1.1035194E-2,-6.094976E-2,-3.9008245E-2,-2.3682596E-2,4.007423E-3,-1.2859799E-2,-3.8611457E-2,-7.5224536E-3,9.40649E-3,9.859566E-3,-4.238951E-2,-2.1709257E-3,1.5438867E-2,1.6941413E-2,-1.6774163E-2,2.5077088E-2,4.0120505E-2,1.1314243E-2,3.3996433E-2,-4.4317325E-3,2.5866399E-2,4.2745125E-2,-3.4754747E-3,3.0073423E-2,5.1750887E-2,3.698663E-2,5.356896E-2,2.375467E-2,4.838073E-2,4.909482E-2,2.793249E-2,6.143376E-2,4.602227E-2],"split_indices":[75,12,12,75,75,79,12,8,7,7,8,79,75,75,75,7,8,7,7,7,7,3,7,79,0,3,3,7,3,7,7,28,7,3,0,28,8,9,3,7,8,9,9,8,8,7,9,79,19,8,75,8,8,8,16,7,9,8,8,7,9,4,7,0,0,0,0,0,0,0,0,0,0,0,0,0,0,0,0,0,0,0,0,0,0,0,0,0,0,0,0,0,0,0,0,0,0,0,0,0,0,0,0,0,0,0,0,0,0,0,0,0,0,0,0,0,0,0,0,0,0,0,0,0,0],"split_type":[0,0,0,0,0,0,0,0,0,0,0,0,0,0,0,0,0,0,0,0,0,0,0,0,0,0,0,0,0,0,0,0,0,0,0,0,0,0,0,0,0,0,0,0,0,0,0,0,0,0,0,0,0,0,0,0,0,0,0,0,0,0,0,0,0,0,0,0,0,0,0,0,0,0,0,0,0,0,0,0,0,0,0,0,0,0,0,0,0,0,0,0,0,0,0,0,0,0,0,0,0,0,0,0,0,0,0,0,0,0,0,0,0,0,0,0,0,0,0,0,0,0,0,0,0],"sum_hessian":[5.5116744E5,3.4641653E5,2.0475089E5,1.2705566E5,2.1936089E5,9.2255625E4,1.12495266E5,4.4899977E4,8.215568E4,1.0355689E5,1.15804E5,4.592668E4,4.632895E4,6.224474E4,5.0250527E4,4.0128543E4,4.7714326E3,7.216615E4,9.989535E3,9.0139375E4,1.3417517E4,1.1716787E4,1.0408721E5,1.0753476E4,3.5173203E4,2.860999E4,1.7718957E4,3.384128E4,2.8403457E4,2.3867104E4,2.6383422E4,5.6134497E3,3.4515094E4,2.2222942E3,2.5491384E3,1.1012178E4,6.115397E4,6.8240034E3,3.165532E3,9.895908E3,8.024346E4,7.535687E3,5.88183E3,7.5953916E3,4.121396E3,9.272838E4,1.1358824E4,2.229869E3,8.523606E3,6.512382E3,2.8660822E4,3.2567876E3,2.5353203E4,2.397071E3,1.5321886E4,2.9929264E4,3.9120178E3,4.7486396E3,2.3654818E4,1.9733611E4,4.1334927E3,1.2183372E3,2.5165086E4,4.055141E3,1.5583083E3,2.6586043E4,7.9290513E3,1.5242876E3,6.980065E2,5.2457285E3,5.7664497E3,2.0342316E4,4.0811652E4,3.4269453E3,3.397058E3,1.6892388E3,1.4762933E3,4.516486E3,5.379422E3,7.378845E4,6.4550103E3,2.4341902E3,5.1014966E3,1.962993E3,3.9188372E3,3.0065784E3,4.5888135E3,2.247521E3,1.8738748E3,1.4178656E4,7.854973E4,4.635394E3,6.72343E3,1.332243E3,8.9762585E2,7.754425E3,7.6918207E2,4.5688237E3,1.9435581E3,1.596694E4,1.2693882E4,2.1036172E3,1.1531703E3,5.5408027E3,1.98124E4,1.5490367E3,8.480343E2,7.7035493E3,7.6183364E3,3.774118E3,2.6155146E4,1.8642334E3,2.0477843E3,3.8862104E3,8.6242914E2,2.0926338E3,2.1562184E4,3.0013145E3,1.6732297E4,1.9835485E3,2.1499443E3,9.212449E2,2.9709225E2,2.3708256E4,1.4568296E3],"tree_param":{"num_deleted":"0","num_feature":"80","num_nodes":"125","size_leaf_vector":"1"}},{"base_weights":[-3.185912E-4,-3.0120924E-1,5.017185E-1,-4.9164546E-1,9.4472006E-2,6.79998E-2,8.616568E-1,-7.804458E-1,-2.6974782E-1,-8.304091E-1,2.2752504E-1,-7.438208E-2,3.7017268E-1,7.0975643E-1,1.0515099E0,-9.900655E-1,-6.569781E-1,-6.0800034E-1,-8.537661E-2,-1.1795601E0,-6.2508756E-1,3.262867E-1,-1.0780792E0,-4.976548E-2,-9.6866137E-1,4.017227E-1,-7.3537046E-1,4.7128806E-1,8.5635185E-1,9.3243563E-1,1.1627623E0,-1.2843416E0,-9.137932E-1,-5.8645797E-1,-1.1062969E0,-1.1278229E0,-5.643691E-1,1.3847133E-2,-7.097048E-1,-1.3298041E0,-1.0656173E0,-4.998506E-1,-9.711998E-1,4.4857758E-1,-7.2135925E-1,-7.453381E-1,-1.3772702E0,-1.8617201E-1,1.9795245E-1,-1.2869536E0,-8.7278306E-1,2.6665685E-1,6.6189593E-1,-7.1352474E-2,-5.9889394E-1,1.3597403E-1,5.19995E-1,7.777807E-1,1.0460995E0,9.701449E-1,6.0397816E-1,8.6524016E-1,1.1799853E0,-5.7930566E-2,-7.038189E-2,-4.1267995E-2,-6.0569733E-2,-5.704976E-2,-2.6033167E-2,-6.7768805E-2,-4.918657E-2,-4.4152714E-2,-6.2131356E-2,-2.513493E-2,-5.1656246E-2,-3.3744972E-2,7.02431E-3,-6.35993E-2,-2.2462538E-2,-7.229815E-2,-6.2413026E-2,-6.4568475E-2,-4.8530504E-2,-6.706947E-2,-2.1826377E-2,-6.865722E-2,-4.5579977E-2,-2.5078077E-2,2.9543793E-2,-6.2325317E-2,-2.6085977E-2,-4.5873683E-2,-1.5791735E-2,-5.786134E-2,-7.223191E-2,-1.3514723E-2,-4.001398E-4,1.0803166E-3,1.6536599E-2,-6.9071345E-2,-5.4960866E-2,-5.506834E-2,-3.734186E-2,7.240452E-3,2.5420427E-2,3.6259927E-2,4.3270057E-3,-4.8259284E-2,-2.4870535E-2,2.5127364E-2,-3.6815967E-2,3.0405417E-2,1.2563798E-2,4.093031E-2,2.3489809E-2,5.3926386E-2,3.6056064E-2,3.7808977E-2,5.148821E-2,-9.894611E-3,4.4203553E-2,5.512318E-2,8.950239E-3,6.017176E-2,4.7573578E-2],"categories":[],"categories_nodes":[],"categories_segments":[],"categories_sizes":[],"default_left":[0,0,0,0,0,0,0,0,0,0,0,0,0,0,0,0,0,0,0,0,0,0,0,0,0,0,0,0,0,0,0,0,0,0,0,0,0,0,0,0,0,0,0,0,0,0,0,0,0,0,0,0,0,0,0,0,0,0,0,0,0,0,0,0,0,0,0,0,0,0,0,0,0,0,0,0,0,0,0,0,0,0,0,0,0,0,0,0,0,0,0,0,0,0,0,0,0,0,0,0,0,0,0,0,0,0,0,0,0,0,0,0,0,0,0,0,0,0,0,0,0,0,0,0,0],"id":12,"left_children":[1,3,5,7,9,11,13,15,17,19,21,23,25,27,29,31,33,35,37,39,41,43,45,47,49,51,53,55,57,59,61,63,65,67,69,71,73,75,77,79,81,83,85,87,89,91,93,95,97,99,101,103,105,-1,107,109,111,113,115,117,119,121,123,-1,-1,-1,-1,-1,-1,-1,-1,-1,-1,-1,-1,-1,-1,-1,-1,-1,-1,-1,-1,-1,-1,-1,-1,-1,-1,-1,-1,-1,-1,-1,-1,-1,-1,-1,-1,-1,-1,-1,-1,-1,-1,-1,-1,-1,-1,-1,-1,-1,-1,-1,-1,-1,-1,-1,-1,-1,-1,-1,-1,-1,-1],"loss_changes":[8.272209E4,2.5800748E4,3.2036465E4,1.4812953E4,1.3690562E4,4.0042634E3,3.2334062E3,2.5987227E3,8.1520605E3,1.0023174E3,1.2541445E4,1.3926163E3,1.0400156E3,2.1776152E3,6.5921484E2,8.343867E2,2.0021875E3,1.0452676E3,5.2411113E3,8.726221E1,3.815161E2,